{"learner":{"attributes":{"scikit_learn":"{\"_estimator_type\": \"regressor\"}"},"feature_names":["id","store_nbr","onpromotion","oil_price","family_AUTOMOTIVE","family_BABY CARE","family_BEAUTY","family_BEVERAGES","family_BOOKS","family_BREAD/BAKERY","family_CELEBRATION","family_CLEANING","family_DAIRY","family_DELI","family_EGGS","family_FROZEN FOODS","family_GROCERY I","family_GROCERY II","family_HARDWARE","family_HOME AND KITCHEN I","family_HOME AND KITCHEN II","family_HOME APPLIANCES","family_HOME CARE","family_LADIESWEAR","family_LAWN AND GARDEN","family_LINGERIE","family_LIQUOR,WINE,BEER","family_MAGAZINES","family_MEATS","family_PERSONAL CARE","family_PET SUPPLIES","family_PLAYERS AND ELECTRONICS","family_POULTRY","family_PREPARED FOODS","family_PRODUCE","family_SCHOOL AND OFFICE SUPPLIES","family_SEAFOOD","store_city_Ambato","store_city_Babahoyo","store_city_Cayambe","store_city_Cuenca","store_city_Daule","store_city_El Carmen","store_city_Esmeraldas","store_city_Guaranda","store_city_Guayaquil","store_city_Ibarra","store_city_Latacunga","store_city_Libertad","store_city_Loja","store_city_Machala","store_city_Manta","store_city_Playas","store_city_Puyo","store_city_Quevedo","store_city_Quito","store_city_Riobamba","store_city_Salinas","store_city_Santo Domingo","holiday_type_Holiday","holiday_type_No Event"],"feature_types":["int","int","int","float","int","int","int","int","int","int","int","int","int","int","int","int","int","int","int","int","int","int","int","int","int","int","int","int","int","int","int","int","int","int","int","int","int","int","int","int","int","int","int","int","int","int","int","int","int","int","int","int","int","int","int","int","int","int","int","int","int"],"gradient_booster":{"model":{"gbtree_model_param":{"num_parallel_tree":"1","num_trees":"100"},"iteration_indptr":[0,1,2,3,4,5,6,7,8,9,10,11,12,13,14,15,16,17,18,19,20,21,22,23,24,25,26,27,28,29,30,31,32,33,34,35,36,37,38,39,40,41,42,43,44,45,46,47,48,49,50,51,52,53,54,55,56,57,58,59,60,61,62,63,64,65,66,67,68,69,70,71,72,73,74,75,76,77,78,79,80,81,82,83,84,85,86,87,88,89,90,91,92,93,94,95,96,97,98,99,100],"tree_info":[0,0,0,0,0,0,0,0,0,0,0,0,0,0,0,0,0,0,0,0,0,0,0,0,0,0,0,0,0,0,0,0,0,0,0,0,0,0,0,0,0,0,0,0,0,0,0,0,0,0,0,0,0,0,0,0,0,0,0,0,0,0,0,0,0,0,0,0,0,0,0,0,0,0,0,0,0,0,0,0,0,0,0,0,0,0,0,0,0,0,0,0,0,0,0,0,0,0,0,0],"trees":[{"base_weights":[5.111954E-3,-8.878425E4,9.199333E4,-1.5478886E5,-4.5517965E4,7.581334E4,1.4066498E5,-7.1612586E4,-3.0083771E4,-1.3996575E4,-4.529431E3,-5.8235195E4,1.5480054E4],"categories":[],"categories_nodes":[],"categories_segments":[],"categories_sizes":[],"default_left":[0,0,0,0,0,0,0,0,0,0,0,0,0],"id":0,"left_children":[1,3,5,7,9,11,-1,-1,-1,-1,-1,-1,-1],"loss_changes":[1.1042539E13,1.957727E12,6.5145264E12,1.8776012E11,2.3174008E11,3.9992217E11,0E0,0E0,0E0,0E0,0E0,0E0,0E0],"parents":[2147483647,0,0,1,1,2,2,3,3,4,4,5,5],"right_children":[2,4,6,8,10,12,-1,-1,-1,-1,-1,-1,-1],"split_conditions":[2.7928724E9,1.05903635E9,9.801E4,4.9005E4,1.9196033E9,1.95E2,1.4066498E5,-7.1612586E4,-3.0083771E4,-1.3996575E4,-4.529431E3,-5.8235195E4,1.5480054E4],"split_indices":[0,0,1,1,0,2,0,0,0,0,0,0,0],"split_type":[0,0,0,0,0,0,0,0,0,0,0,0,0],"sum_hessian":[1.35E3,6.87E2,6.63E2,2.71E2,4.16E2,6.47E2,1.6E1,4E0,2.67E2,2E2,2.16E2,2E0,6.45E2],"tree_param":{"num_deleted":"0","num_feature":"61","num_nodes":"13","size_leaf_vector":"1"}},{"base_weights":[-1.651522E1,-7.120214E4,7.374211E4,-1.22639305E5,-3.5172773E4,6.0584684E4,1.1418687E5,-6.0154562E4,-2.3801477E4,-7.3593237E3,3.904576E4,-5.04705E4,1.2388834E4],"categories":[],"categories_nodes":[],"categories_segments":[],"categories_sizes":[],"default_left":[0,0,0,0,0,0,0,0,0,0,0,0,0],"id":1,"left_children":[1,3,5,7,9,11,-1,-1,-1,-1,-1,-1,-1],"loss_changes":[7.098748E12,1.2707213E12,4.3091435E12,1.4729767E11,1.590828E11,2.9131224E11,0E0,0E0,0E0,0E0,0E0,0E0,0E0],"parents":[2147483647,0,0,1,1,2,2,3,3,4,4,5,5],"right_children":[2,4,6,8,10,12,-1,-1,-1,-1,-1,-1,-1],"split_conditions":[2.7928724E9,1.1034938E9,9.801E4,4.9005E4,9.801E4,1.95E2,1.1418687E5,-6.0154562E4,-2.3801477E4,-7.3593237E3,3.904576E4,-5.04705E4,1.2388834E4],"split_indices":[0,0,1,1,1,2,0,0,0,0,0,0,0],"split_type":[0,0,0,0,0,0,0,0,0,0,0,0,0],"sum_hessian":[1.35E3,6.87E2,6.63E2,2.82E2,4.05E2,6.47E2,1.6E1,4E0,2.78E2,4.03E2,2E0,2E0,6.45E2],"tree_param":{"num_deleted":"0","num_feature":"61","num_nodes":"13","size_leaf_vector":"1"}},{"base_weights":[4.4209614E0,-5.625519E4,6.004908E4,-9.99564E4,-2.8285678E4,4.920565E4,9.269287E4,-5.0529836E4,-1.9346936E4,-2.281778E3,-1.0102408E4,-4.37411E4,1.0078402E4],"categories":[],"categories_nodes":[],"categories_segments":[],"categories_sizes":[],"default_left":[0,0,0,0,0,0,0,0,0,0,0,0,0],"id":2,"left_children":[1,3,5,7,9,11,-1,-1,-1,-1,-1,-1,-1],"loss_changes":[4.5671766E12,8.5033904E11,2.8380554E12,1.0936569E11,1.595955E11,2.1380307E11,0E0,0E0,0E0,0E0,0E0,0E0,0E0],"parents":[2147483647,0,0,1,1,2,2,3,3,4,4,5,5],"right_children":[2,4,6,8,10,12,-1,-1,-1,-1,-1,-1,-1],"split_conditions":[2.8309788E9,1.05903635E9,9.801E4,4.9005E4,1.7037702E5,1.95E2,9.269287E4,-5.0529836E4,-1.9346936E4,-2.281778E3,-1.0102408E4,-4.37411E4,1.0078402E4],"split_indices":[0,0,1,1,3,2,0,0,0,0,0,0,0],"split_type":[0,0,0,0,0,0,0,0,0,0,0,0,0],"sum_hessian":[1.35E3,6.97E2,6.53E2,2.71E2,4.26E2,6.37E2,1.6E1,4E0,2.67E2,2.43E2,1.83E2,2E0,6.35E2],"tree_param":{"num_deleted":"0","num_feature":"61","num_nodes":"13","size_leaf_vector":"1"}},{"base_weights":[-1.365965E1,-4.5122004E4,4.812952E4,-7.913103E4,-2.1877592E4,3.9311754E4,7.52448E4,-4.244506E4,-1.529244E4,-4.6516323E3,3.5186652E4,5.4325347E3,1.271928E4],"categories":[],"categories_nodes":[],"categories_segments":[],"categories_sizes":[],"default_left":[0,0,0,0,0,0,0,0,0,0,0,0,0],"id":3,"left_children":[1,3,5,7,9,11,-1,-1,-1,-1,-1,-1,-1],"loss_changes":[2.9360833E12,5.500515E11,1.8772711E12,8.429607E10,1.1769784E11,1.8650563E11,0E0,0E0,0E0,0E0,0E0,0E0,0E0],"parents":[2147483647,0,0,1,1,2,2,3,3,4,4,5,5],"right_children":[2,4,6,8,10,12,-1,-1,-1,-1,-1,-1,-1],"split_conditions":[2.8309788E9,1.1034938E9,9.801E4,4.9005E4,9.801E4,4.5394104E9,7.52448E4,-4.244506E4,-1.529244E4,-4.6516323E3,3.5186652E4,5.4325347E3,1.271928E4],"split_indices":[0,0,1,1,1,0,0,0,0,0,0,0,0],"split_type":[0,0,0,0,0,0,0,0,0,0,0,0,0],"sum_hessian":[1.35E3,6.97E2,6.53E2,2.82E2,4.15E2,6.37E2,1.6E1,4E0,2.78E2,4.13E2,2E0,4.26E2,2.11E2],"tree_param":{"num_deleted":"0","num_feature":"61","num_nodes":"13","size_leaf_vector":"1"}},{"base_weights":[3.80665E1,-5.185821E4,2.805492E4,-5.3687266E4,3.5295473E4,2.2552586E4,3.054053E5,-3.9343324E4,-1.0346096E4,1.5710674E2,7.677113E3,5.0148105E4,8.407614E4],"categories":[],"categories_nodes":[],"categories_segments":[],"categories_sizes":[],"default_left":[0,0,0,0,0,0,0,0,0,0,0,0,0],"id":4,"left_children":[1,3,5,7,-1,9,11,-1,-1,-1,-1,-1,-1],"loss_changes":[1.9657688E12,2.0743494E11,1.3330055E12,1.2164648E11,0E0,2.9704713E11,1.4403502E9,0E0,0E0,0E0,0E0,0E0,0E0],"parents":[2147483647,0,0,1,1,2,2,3,3,5,5,6,6],"right_children":[2,4,6,8,-1,10,12,-1,-1,-1,-1,-1,-1],"split_conditions":[6.33E2,9.801E4,9.801E4,6.675372E4,3.5295473E4,3.3612913E9,1.47015E5,-3.9343324E4,-1.0346096E4,1.5710674E2,7.677113E3,5.0148105E4,8.407614E4],"split_indices":[2,1,1,3,0,0,1,0,0,0,0,0,0],"split_type":[0,0,0,0,0,0,0,0,0,0,0,0,0],"sum_hessian":[1.35E3,4.73E2,8.77E2,4.7E2,3E0,8.61E2,1.6E1,5E0,4.65E2,3.63E2,4.98E2,1.3E1,3E0],"tree_param":{"num_deleted":"0","num_feature":"61","num_nodes":"13","size_leaf_vector":"1"}},{"base_weights":[1.249477E2,-4.198356E4,2.2710277E4,-5.663769E4,-2.591792E4,1.7800139E4,2.5686253E5,-2.935892E4,-1.0908182E4,-1.4947278E3,-9.025139E3,1.8910123E3,8.676245E3,4.0834887E4,7.060334E4],"categories":[],"categories_nodes":[],"categories_segments":[],"categories_sizes":[],"default_left":[0,0,0,0,0,0,0,0,0,0,0,0,0,0,0],"id":5,"left_children":[1,3,5,7,9,11,13,-1,-1,-1,-1,-1,-1,-1,-1],"loss_changes":[1.2858011E12,1.09654114E11,1.0071816E12,3.8497485E10,8.008283E10,1.838197E11,1.911436E10,0E0,0E0,0E0,0E0,0E0,0E0,0E0,0E0],"parents":[2147483647,0,0,1,1,2,2,3,3,4,4,5,5,6,6],"right_children":[2,4,6,8,10,12,14,-1,-1,-1,-1,-1,-1,-1,-1],"split_conditions":[1.9196033E9,9.6059514E8,9.801E4,4.9005E4,1.4432748E9,4.5394104E9,1.9712484E5,-2.935892E4,-1.0908182E4,-1.4947278E3,-9.025139E3,1.8910123E3,8.676245E3,4.0834887E4,7.060334E4],"split_indices":[0,0,1,1,0,0,3,0,0,0,0,0,0,0,0],"split_type":[0,0,0,0,0,0,0,0,0,0,0,0,0,0,0],"sum_hessian":[1.35E3,4.71E2,8.79E2,2.45E2,2.26E2,8.62E2,1.7E1,4E0,2.41E2,1.16E2,1.1E2,6.51E2,2.11E2,1.3E1,4E0],"tree_param":{"num_deleted":"0","num_feature":"61","num_nodes":"15","size_leaf_vector":"1"}},{"base_weights":[1.5267801E2,-3.532704E4,1.8389002E4,-3.674766E4,2.709113E4,1.4682219E4,2.085337E5,-2.2090734E4,-6.901367E3,-8.0359094E2,4.922088E3,2.982424E4,5.4421137E4],"categories":[],"categories_nodes":[],"categories_segments":[],"categories_sizes":[],"default_left":[0,0,0,0,0,0,0,0,0,0,0,0,0],"id":6,"left_children":[1,3,5,7,-1,9,11,-1,-1,-1,-1,-1,-1],"loss_changes":[8.7477315E11,1.1633918E11,6.2634715E11,7.150246E10,0E0,1.6292223E11,2.3631757E10,0E0,0E0,0E0,0E0,0E0,0E0],"parents":[2147483647,0,0,1,1,2,2,3,3,5,5,6,6],"right_children":[2,4,6,8,-1,10,12,-1,-1,-1,-1,-1,-1],"split_conditions":[5.92E2,9.801E4,9.801E4,8.640918E4,2.709113E4,3.0723185E9,2.1728E4,-2.2090734E4,-6.901367E3,-8.0359094E2,4.922088E3,2.982424E4,5.4421137E4],"split_indices":[2,1,1,3,0,0,2,0,0,0,0,0,0],"split_type":[0,0,0,0,0,0,0,0,0,0,0,0,0],"sum_hessian":[1.35E3,4.58E2,8.92E2,4.55E2,3E0,8.76E2,1.6E1,1.2E1,4.43E2,3.04E2,5.72E2,1E1,6E0],"tree_param":{"num_deleted":"0","num_feature":"61","num_nodes":"13","size_leaf_vector":"1"}},{"base_weights":[1.8614232E2,-2.3493804E3,1.6904264E5,-2.9461701E4,1.1750469E4,1.3396694E5,5.5170746E4,-5.689808E3,-3.457812E4,1.1024012E3,6.2830835E3,2.9744568E4,1.642546E4],"categories":[],"categories_nodes":[],"categories_segments":[],"categories_sizes":[],"default_left":[0,0,0,0,0,0,0,0,0,0,0,0,0],"id":7,"left_children":[1,3,5,7,9,11,-1,-1,-1,-1,-1,-1,-1],"loss_changes":[5.788136E11,5.0954263E11,3.797418E10,6.1313155E10,1.0741636E11,7.898071E8,0E0,0E0,0E0,0E0,0E0,0E0,0E0],"parents":[2147483647,0,0,1,1,2,2,3,3,4,4,5,5],"right_children":[2,4,6,8,10,12,-1,-1,-1,-1,-1,-1,-1],"split_conditions":[9.801E4,5.92E2,1.47015E5,2.6340964E9,4.5394104E9,3.564E3,5.5170746E4,-5.689808E3,-3.457812E4,1.1024012E3,6.2830835E3,2.9744568E4,1.642546E4],"split_indices":[1,2,1,0,0,59,0,0,0,0,0,0,0],"split_type":[0,0,0,0,0,0,0,0,0,0,0,0,0],"sum_hessian":[1.35E3,1.331E3,1.9E1,4.55E2,8.76E2,1.6E1,3E0,4.53E2,2E0,6.66E2,2.1E2,1.1E1,5E0],"tree_param":{"num_deleted":"0","num_feature":"61","num_nodes":"13","size_leaf_vector":"1"}},{"base_weights":[1.9958864E2,-1.9041885E3,1.4030116E5,-1.7160584E4,1.4226267E4,1.0988945E5,4.6895133E4,-6.757267E3,-1.5770283E3,-2.9967707E4,2.9932312E3,2.4691771E4,1.2887149E4],"categories":[],"categories_nodes":[],"categories_segments":[],"categories_sizes":[],"default_left":[0,0,0,0,0,0,0,0,0,0,0,0,0],"id":8,"left_children":[1,3,5,7,9,11,-1,-1,-1,-1,-1,-1,-1],"loss_changes":[3.9846425E11,3.2803946E11,3.1513772E10,1.0536826E11,8.090302E10,2.5300828E9,0E0,0E0,0E0,0E0,0E0,0E0,0E0],"parents":[2147483647,0,0,1,1,2,2,3,3,4,4,5,5],"right_children":[2,4,6,8,10,12,-1,-1,-1,-1,-1,-1,-1],"split_conditions":[9.801E4,2.7928724E9,1.47015E5,9.6059514E8,1.95E2,1.8579133E5,4.6895133E4,-6.757267E3,-1.5770283E3,-2.9967707E4,2.9932312E3,2.4691771E4,1.2887149E4],"split_indices":[1,0,1,0,2,3,0,0,0,0,0,0,0],"split_type":[0,0,0,0,0,0,0,0,0,0,0,0,0],"sum_hessian":[1.35E3,1.331E3,1.9E1,6.84E2,6.47E2,1.6E1,3E0,2.44E2,4.4E2,2E0,6.45E2,1.1E1,5E0],"tree_param":{"num_deleted":"0","num_feature":"61","num_nodes":"13","size_leaf_vector":"1"}},{"base_weights":[1.9606738E2,-1.5498544E3,1.1646465E5,-2.0325115E4,7.17925E3,7.763461E4,1.7748692E5,-3.632979E3,-1.7411566E4,5.39689E3,7.025555E2,1.8449873E4,3.6070781E3,9.690934E3,4.3881777E4],"categories":[],"categories_nodes":[],"categories_segments":[],"categories_sizes":[],"default_left":[0,0,0,0,0,0,0,0,0,0,0,0,0,0,0],"id":9,"left_children":[1,3,5,7,9,11,13,-1,-1,-1,-1,-1,-1,-1,-1],"loss_changes":[2.7442789E11,2.18449E11,3.361081E10,5.939716E10,6.5985057E10,1.0530644E10,2.7233632E10,0E0,0E0,0E0,0E0,0E0,0E0,0E0,0E0],"parents":[2147483647,0,0,1,1,2,2,3,3,4,4,5,5,6,6],"right_children":[2,4,6,8,10,12,14,-1,-1,-1,-1,-1,-1,-1,-1],"split_conditions":[9.801E4,1.7195453E9,2.1728E4,4.25E2,2.3165437E9,1.6204E4,1.637658E5,-3.632979E3,-1.7411566E4,5.39689E3,7.025555E2,1.8449873E4,3.6070781E3,9.690934E3,4.3881777E4],"split_indices":[1,0,2,2,0,2,3,0,0,0,0,0,0,0,0],"split_type":[0,0,0,0,0,0,0,0,0,0,0,0,0,0,0],"sum_hessian":[1.35E3,1.331E3,1.9E1,4.22E2,9.09E2,1.3E1,6E0,4.1E2,1.2E1,1.41E2,7.68E2,1E1,3E0,2E0,4E0],"tree_param":{"num_deleted":"0","num_feature":"61","num_nodes":"15","size_leaf_vector":"1"}},{"base_weights":[2.0176665E2,-1.1088969E4,1.4739919E4,-3.1923814E4,-6.865074E3,1.2159557E4,9.620591E4,-8.901604E3,-1.5447777E3,-2.8705156E3,2.8317957E3,-2.6065688E4,2.5771228E3,1.1070282E3,2.6130701E4],"categories":[],"categories_nodes":[],"categories_segments":[],"categories_sizes":[],"default_left":[0,0,0,0,0,0,0,0,0,0,0,0,0,0,0],"id":10,"left_children":[1,3,5,7,9,11,13,-1,-1,-1,-1,-1,-1,-1,-1],"loss_changes":[2.219253E11,6.6752037E10,1.23065295E11,3.863692E10,1.0000603E11,6.106216E10,5.549782E10,0E0,0E0,0E0,0E0,0E0,0E0,0E0,0E0],"parents":[2147483647,0,0,1,1,2,2,3,3,4,4,5,5,6,6],"right_children":[2,4,6,8,10,12,14,-1,-1,-1,-1,-1,-1,-1,-1],"split_conditions":[3.0723185E9,9.5123164E4,2.13E4,2.6563249E9,1.9196033E9,1.95E2,9.1095836E4,-8.901604E3,-1.5447777E3,-2.8705156E3,2.8317957E3,-2.6065688E4,2.5771228E3,1.1070282E3,2.6130701E4],"split_indices":[0,3,2,0,0,2,3,0,0,0,0,0,0,0,0],"split_type":[0,0,0,0,0,0,0,0,0,0,0,0,0,0,0],"sum_hessian":[1.35E3,7.6E2,5.9E2,1.27E2,6.33E2,5.73E2,1.7E1,8.3E1,4.4E1,4.67E2,1.66E2,2E0,5.71E2,5E0,1.2E1],"tree_param":{"num_deleted":"0","num_feature":"61","num_nodes":"15","size_leaf_vector":"1"}},{"base_weights":[1.5643092E2,-1.126856E3,8.5615516E4,-9.307356E3,9.659137E3,6.0421152E4,3.425754E4,-6.728394E3,-1.340849E3,-2.2590264E4,2.056844E3,2.1257889E4,7.6263447E3],"categories":[],"categories_nodes":[],"categories_segments":[],"categories_sizes":[],"default_left":[0,0,0,0,0,0,0,0,0,0,0,0,0],"id":11,"left_children":[1,3,5,7,9,11,-1,-1,-1,-1,-1,-1,-1],"loss_changes":[1.4825865E11,1.1761868E11,3.2819724E10,4.779049E10,4.5230555E10,1.3327426E10,0E0,0E0,0E0,0E0,0E0,0E0,0E0],"parents":[2147483647,0,0,1,1,2,2,3,3,4,4,5,5],"right_children":[2,4,6,8,10,12,-1,-1,-1,-1,-1,-1,-1],"split_conditions":[9.801E4,3.0723185E9,1.47015E5,2.7468192E8,1.95E2,8.257E3,3.425754E4,-6.728394E3,-1.340849E3,-2.2590264E4,2.056844E3,2.1257889E4,7.6263447E3],"split_indices":[1,0,1,0,2,2,0,0,0,0,0,0,0],"split_type":[0,0,0,0,0,0,0,0,0,0,0,0,0],"sum_hessian":[1.35E3,1.331E3,1.9E1,7.57E2,5.74E2,1.6E1,3E0,7.2E1,6.85E2,2E0,5.72E2,4E0,1.2E1],"tree_param":{"num_deleted":"0","num_feature":"61","num_nodes":"13","size_leaf_vector":"1"}},{"base_weights":[1.5070332E2,-3.8194072E3,1.972199E4,-1.9177342E4,-5.1481964E2,1.7396604E4,2.9118912E4,-1.2812155E4,-3.3428242E3,3.245347E3,-6.054982E2,-9.617698E3,4.0695564E3],"categories":[],"categories_nodes":[],"categories_segments":[],"categories_sizes":[],"default_left":[0,0,0,0,0,0,0,0,0,0,0,0,0],"id":12,"left_children":[1,3,5,7,9,11,-1,-1,-1,-1,-1,-1,-1],"loss_changes":[1.0504826E11,5.703497E10,6.4203325E10,2.0930273E10,3.9002264E10,4.446158E10,0E0,0E0,0E0,0E0,0E0,0E0,0E0],"parents":[2147483647,0,0,1,1,2,2,3,3,4,4,5,5],"right_children":[2,4,6,8,10,12,-1,-1,-1,-1,-1,-1,-1],"split_conditions":[4.5394104E9,7.700637E8,1.47015E5,1.7464492E7,7.26165E4,7.45E3,2.9118912E4,-1.2812155E4,-3.3428242E3,3.245347E3,-6.054982E2,-9.617698E3,4.0695564E3],"split_indices":[0,0,1,0,3,2,0,0,0,0,0,0,0],"split_type":[0,0,0,0,0,0,0,0,0,0,0,0,0],"sum_hessian":[1.35E3,1.123E3,2.27E2,1.98E2,9.25E2,2.24E2,3E0,9E0,1.89E2,1.2E2,8.05E2,9E0,2.15E2],"tree_param":{"num_deleted":"0","num_feature":"61","num_nodes":"13","size_leaf_vector":"1"}},{"base_weights":[1.2800507E2,-8.4205054E2,6.472731E4,-1.4399482E4,2.2116377E3,3.7549055E4,1.0983706E5,-1.4003422E4,-2.6371682E3,-4.4901867E1,2.3869812E3,1.0078051E4,-1.4303031E3,3.3552668E3,2.8741219E4],"categories":[],"categories_nodes":[],"categories_segments":[],"categories_sizes":[],"default_left":[0,0,0,0,0,0,0,0,0,0,0,0,0,0,0],"id":13,"left_children":[1,3,5,7,9,11,13,-1,-1,-1,-1,-1,-1,-1,-1],"loss_changes":[8.4714815E10,5.5176868E10,2.0395803E10,1.5614235E10,2.5774473E10,8.396495E9,1.9652272E10,0E0,0E0,0E0,0E0,0E0,0E0,0E0,0E0],"parents":[2147483647,0,0,1,1,2,2,3,3,4,4,5,5,6,6],"right_children":[2,4,6,8,10,12,14,-1,-1,-1,-1,-1,-1,-1,-1],"split_conditions":[9.801E4,9.6059514E8,2.1728E4,4.9005E4,4.5140065E9,1.6204E4,1.637658E5,-1.4003422E4,-2.6371682E3,-4.4901867E1,2.3869812E3,1.0078051E4,-1.4303031E3,3.3552668E3,2.8741219E4],"split_indices":[1,0,2,1,0,2,3,0,0,0,0,0,0,0,0],"split_type":[0,0,0,0,0,0,0,0,0,0,0,0,0,0,0],"sum_hessian":[1.35E3,1.331E3,1.9E1,2.44E2,1.087E3,1.3E1,6E0,4E0,2.4E2,8.7E2,2.17E2,1E1,3E0,2E0,4E0],"tree_param":{"num_deleted":"0","num_feature":"61","num_nodes":"15","size_leaf_vector":"1"}},{"base_weights":[1.2197686E2,-6.9066144E2,6.0340727E4,-1.0526822E4,1.8268611E3,-1.1290104E2,8.3600805E4,-9.121979E3,-1.830568E3,4.252561E3,1.4466776E0,3.067896E3,-2.3347922E3,1.0738779E4,2.4142617E4],"categories":[],"categories_nodes":[],"categories_segments":[],"categories_sizes":[],"default_left":[0,0,0,0,0,0,0,0,0,0,0,0,0,0,0],"id":14,"left_children":[1,3,5,7,9,11,13,-1,-1,-1,-1,-1,-1,-1,-1],"loss_changes":[6.6154295E10,3.3052748E10,2.5320247E10,1.2693899E10,3.7594096E10,1.250948E9,7.9473213E9,0E0,0E0,0E0,0E0,0E0,0E0,0E0,0E0],"parents":[2147483647,0,0,1,1,2,2,3,3,4,4,5,5,6,6],"right_children":[2,4,6,8,10,12,14,-1,-1,-1,-1,-1,-1,-1,-1],"split_conditions":[2.13E4,1.05903635E9,9.1095836E4,1.7464492E7,1.4432748E9,4.479076E9,1.637658E5,-9.121979E3,-1.830568E3,4.252561E3,1.4466776E0,3.067896E3,-2.3347922E3,1.0738779E4,2.4142617E4],"split_indices":[2,0,3,0,0,0,3,0,0,0,0,0,0,0,0],"split_type":[0,0,0,0,0,0,0,0,0,0,0,0,0,0,0],"sum_hessian":[1.35E3,1.333E3,1.7E1,2.71E2,1.062E3,5E0,1.2E1,9E0,2.62E2,9E1,9.72E2,2E0,3E0,8E0,4E0],"tree_param":{"num_deleted":"0","num_feature":"61","num_nodes":"15","size_leaf_vector":"1"}},{"base_weights":[1.18990074E2,-3.6600027E2,7.24771E4,-5.362833E3,5.131088E3,2.4149312E4,3.2216584E4,9.0914E1,-5.845182E3,-1.0514721E4,1.2074905E3,1.138961E4,-7.713004E3],"categories":[],"categories_nodes":[],"categories_segments":[],"categories_sizes":[],"default_left":[0,0,0,0,0,0,0,0,0,0,0,0,0],"id":15,"left_children":[1,3,5,7,9,11,-1,-1,-1,-1,-1,-1,-1],"loss_changes":[4.7437152E10,3.691708E10,3.464907E10,9.7743364E10,3.3790347E10,1.659486E10,0E0,0E0,0E0,0E0,0E0,0E0,0E0],"parents":[2147483647,0,0,1,1,2,2,3,3,4,4,5,5],"right_children":[2,4,6,8,10,12,-1,-1,-1,-1,-1,-1,-1],"split_conditions":[1.9712484E5,2.8722606E9,7.706995E9,2.3324214E9,1.025E3,3.564E3,3.2216584E4,9.0914E1,-5.845182E3,-1.0514721E4,1.2074905E3,1.138961E4,-7.713004E3],"split_indices":[3,0,0,0,2,59,0,0,0,0,0,0,0],"split_type":[0,0,0,0,0,0,0,0,0,0,0,0,0],"sum_hessian":[1.35E3,1.342E3,8E0,7.03E2,6.39E2,6E0,2E0,5.66E2,1.37E2,9E0,6.3E2,4E0,2E0],"tree_param":{"num_deleted":"0","num_feature":"61","num_nodes":"13","size_leaf_vector":"1"}},{"base_weights":[1.1061068E2,-5.273985E2,4.738803E4,2.650332E3,-7.1912983E3,-9.743802E2,6.6063914E4,4.798246E3,-2.6496848E2,-9.85319E2,-5.8411226E3,2.4978416E3,-2.1656953E3,8.615002E3,1.8846232E4],"categories":[],"categories_nodes":[],"categories_segments":[],"categories_sizes":[],"default_left":[0,0,0,0,0,0,0,0,0,0,0,0,0,0,0],"id":16,"left_children":[1,3,5,7,9,11,13,-1,-1,-1,-1,-1,-1,-1,-1],"loss_changes":[4.0775786E10,2.8267946E10,1.6322163E10,7.672153E10,2.1344008E10,9.312681E8,4.3589386E9,0E0,0E0,0E0,0E0,0E0,0E0,0E0,0E0],"parents":[2147483647,0,0,1,1,2,2,3,3,4,4,5,5,6,6],"right_children":[2,4,6,8,10,12,14,-1,-1,-1,-1,-1,-1,-1,-1],"split_conditions":[2.13E4,1.6597548E5,9.1095836E4,2.3165437E9,9.73E2,4.479076E9,1.637658E5,4.798246E3,-2.6496848E2,-9.85319E2,-5.8411226E3,2.4978416E3,-2.1656953E3,8.615002E3,1.8846232E4],"split_indices":[2,3,3,0,2,0,3,0,0,0,0,0,0,0,0],"split_type":[0,0,0,0,0,0,0,0,0,0,0,0,0,0,0],"sum_hessian":[1.35E3,1.333E3,1.7E1,9.03E2,4.3E2,5E0,1.2E1,1.41E2,7.62E2,3.91E2,3.9E1,2E0,3E0,8E0,4E0],"tree_param":{"num_deleted":"0","num_feature":"61","num_nodes":"15","size_leaf_vector":"1"}},{"base_weights":[1.073569E2,-3.0562292E2,6.1721195E4,-9.146489E3,2.021208E3,2.138291E4,2.7054025E4,-1.0436119E4,-1.6348607E3,4.3255737E3,8.96478E1,9.724921E3,-6.2295083E3],"categories":[],"categories_nodes":[],"categories_segments":[],"categories_sizes":[],"default_left":[0,0,0,0,0,0,0,0,0,0,0,0,0],"id":17,"left_children":[1,3,5,7,9,11,-1,-1,-1,-1,-1,-1,-1],"loss_changes":[3.4395423E10,2.7645608E10,2.380907E10,1.1287861E10,3.2804782E10,1.1531664E10,0E0,0E0,0E0,0E0,0E0,0E0,0E0],"parents":[2147483647,0,0,1,1,2,2,3,3,4,4,5,5],"right_children":[2,4,6,8,10,12,-1,-1,-1,-1,-1,-1,-1],"split_conditions":[1.9712484E5,1.1034938E9,7.706995E9,1.5464195E5,1.4432748E9,3.564E3,2.7054025E4,-1.0436119E4,-1.6348607E3,4.3255737E3,8.96478E1,9.724921E3,-6.2295083E3],"split_indices":[3,0,0,3,0,59,0,0,0,0,0,0,0],"split_type":[0,0,0,0,0,0,0,0,0,0,0,0,0],"sum_hessian":[1.35E3,1.342E3,8E0,2.79E2,1.063E3,6E0,2E0,5E0,2.74E2,7.8E1,9.85E2,4E0,2E0],"tree_param":{"num_deleted":"0","num_feature":"61","num_nodes":"13","size_leaf_vector":"1"}},{"base_weights":[1.02833885E2,-1.937163E3,1.015921E4,1.0134721E4,-3.4442114E3,-4.2693418E4,1.3035119E4,-2.0822183E3,4.364376E3,2.3032227E2,-1.8929915E3,-1.4838394E4,-5.794902E3,2.2688352E3,2.5974867E4],"categories":[],"categories_nodes":[],"categories_segments":[],"categories_sizes":[],"default_left":[0,0,0,0,0,0,0,0,0,0,0,0,0,0,0],"id":18,"left_children":[1,3,5,7,9,11,13,-1,-1,-1,-1,-1,-1,-1,-1],"loss_changes":[2.773541E10,2.048374E10,3.521237E10,3.024246E10,2.768118E10,3.0358323E9,4.1399038E10,0E0,0E0,0E0,0E0,0E0,0E0,0E0,0E0],"parents":[2147483647,0,0,1,1,2,2,3,3,4,4,5,5,6,6],"right_children":[2,4,6,8,10,12,14,-1,-1,-1,-1,-1,-1,-1,-1],"split_conditions":[4.5394104E9,7.26165E4,7.45E3,5.998212E4,2.3324214E9,4.7616973E9,1.8867816E5,-2.0822183E3,4.364376E3,2.3032227E2,-1.8929915E3,-1.4838394E4,-5.794902E3,2.2688352E3,2.5974867E4],"split_indices":[0,3,2,3,0,0,3,0,0,0,0,0,0,0,0],"split_type":[0,0,0,0,0,0,0,0,0,0,0,0,0,0,0],"sum_hessian":[1.35E3,1.123E3,2.27E2,1.24E2,9.99E2,1.1E1,2.16E2,4.5E1,7.9E1,5.67E2,4.32E2,2E0,9E0,2.14E2,2E0],"tree_param":{"num_deleted":"0","num_feature":"61","num_nodes":"15","size_leaf_vector":"1"}},{"base_weights":[8.8368706E1,-6.567357E3,3.139712E3,-2.166086E3,-3.4379434E4,2.14715E4,-2.0370895E2,-1.1354999E3,8.135053E3,-5.109818E3,-1.2596141E4,9.457097E3,-5.127305E2,-4.900513E3,8.522293E2],"categories":[],"categories_nodes":[],"categories_segments":[],"categories_sizes":[],"default_left":[0,0,0,0,0,0,0,0,0,0,0,0,0,0,0],"id":19,"left_children":[1,3,5,7,9,11,13,-1,-1,-1,-1,-1,-1,-1,-1],"loss_changes":[2.745795E10,5.194914E10,5.6821023E10,5.559053E10,1.3039333E10,8.8844575E10,8.526976E10,0E0,0E0,0E0,0E0,0E0,0E0,0E0,0E0],"parents":[2147483647,0,0,1,1,2,2,3,3,4,4,5,5,6,6],"right_children":[2,4,6,8,10,12,14,-1,-1,-1,-1,-1,-1,-1,-1],"split_conditions":[1.7195453E9,8E0,2.3165437E9,1.3575356E9,4.25E2,1.881E3,2.7928724E9,-1.1354999E3,8.135053E3,-5.109818E3,-1.2596141E4,9.457097E3,-5.127305E2,-4.900513E3,8.522293E2],"split_indices":[0,2,0,0,2,2,0,0,0,0,0,0,0,0,0],"split_type":[0,0,0,0,0,0,0,0,0,0,0,0,0,0,0],"sum_hessian":[1.35E3,4.24E2,9.26E2,3.67E2,5.7E1,1.42E2,7.84E2,3.4E2,2.7E1,4.5E1,1.2E1,6.8E1,7.4E1,1.21E2,6.63E2],"tree_param":{"num_deleted":"0","num_feature":"61","num_nodes":"15","size_leaf_vector":"1"}},{"base_weights":[6.6392235E1,-2.6972272E2,5.0214836E4,2.5761958E3,-6.096468E3,1.7445094E4,2.1987857E4,4.097057E3,-7.086912E1,-7.453917E2,-6.695259E3,7.8900586E3,-5.009054E3],"categories":[],"categories_nodes":[],"categories_segments":[],"categories_sizes":[],"default_left":[0,0,0,0,0,0,0,0,0,0,0,0,0],"id":20,"left_children":[1,3,5,7,9,11,-1,-1,-1,-1,-1,-1,-1],"loss_changes":[2.2785516E10,2.2285924E10,1.5696493E10,4.7399703E10,2.8485882E10,7.533106E9,0E0,0E0,0E0,0E0,0E0,0E0,0E0],"parents":[2147483647,0,0,1,1,2,2,3,3,4,4,5,5],"right_children":[2,4,6,8,10,12,-1,-1,-1,-1,-1,-1,-1],"split_conditions":[1.9712484E5,1.6558344E5,7.706995E9,2.3165437E9,1.8497418E9,3.564E3,2.1987857E4,4.097057E3,-7.086912E1,-7.453917E2,-6.695259E3,7.8900586E3,-5.009054E3],"split_indices":[3,3,0,0,0,59,0,0,0,0,0,0,0],"split_type":[0,0,0,0,0,0,0,0,0,0,0,0,0],"sum_hessian":[1.35E3,1.342E3,8E0,9.02E2,4.4E2,6E0,2E0,1.26E2,7.76E2,4.06E2,3.4E1,4E0,2E0],"tree_param":{"num_deleted":"0","num_feature":"61","num_nodes":"13","size_leaf_vector":"1"}},{"base_weights":[6.900117E1,9.411571E3,-1.5912369E3,3.2790402E4,-5.3212793E3,-1.1315481E4,-5.80853E2,-9.556538E3,7.544947E3,-1.8209953E4,-4.9801974E2,4.861333E3,-2.51295E3,7.1743774E2,-8.143149E2],"categories":[],"categories_nodes":[],"categories_segments":[],"categories_sizes":[],"default_left":[0,0,0,0,0,0,0,0,0,0,0,0,0,0,0],"id":21,"left_children":[1,3,5,7,9,11,13,-1,-1,-1,-1,-1,-1,-1,-1],"loss_changes":[2.0970189E10,7.04396E10,1.127278E10,3.3210974E10,3.0355094E10,5.1115776E9,1.5160606E10,0E0,0E0,0E0,0E0,0E0,0E0,0E0,0E0],"parents":[2147483647,0,0,1,1,2,2,3,3,4,4,5,5,6,6],"right_children":[2,4,6,8,10,12,14,-1,-1,-1,-1,-1,-1,-1,-1],"split_conditions":[1.782E3,1.782E3,4.7791546E8,4.9005E4,1.6036307E8,1.7464492E7,2.32E3,-9.556538E3,7.544947E3,-1.8209953E4,-4.9801974E2,4.861333E3,-2.51295E3,7.1743774E2,-8.143149E2],"split_indices":[60,59,0,1,0,0,2,0,0,0,0,0,0,0,0],"split_type":[0,0,0,0,0,0,0,0,0,0,0,0,0,0,0],"sum_hessian":[1.35E3,2.03E2,1.147E3,7.8E1,1.25E2,1.07E2,1.04E3,4E0,7.4E1,3E0,1.22E2,3E0,1.04E2,4.74E2,5.66E2],"tree_param":{"num_deleted":"0","num_feature":"61","num_nodes":"15","size_leaf_vector":"1"}},{"base_weights":[4.152987E1,-4.0186755E2,3.28999E4,-4.8931E3,2.0549849E3,5.0421086E4,4.6957812E3,-5.596159E2,-1.2160226E4,5.1085547E3,-1.767329E2,6.5402573E3,1.3028917E4,-2.1947273E3,6.893871E3],"categories":[],"categories_nodes":[],"categories_segments":[],"categories_sizes":[],"default_left":[0,0,0,0,0,0,0,0,0,0,0,0,0,0,0],"id":22,"left_children":[1,3,5,7,9,11,13,-1,-1,-1,-1,-1,-1,-1,-1],"loss_changes":[1.9696368E10,1.4729807E10,8.658285E9,5.511451E10,5.958888E10,7.395615E8,4.1105303E9,0E0,0E0,0E0,0E0,0E0,0E0,0E0,0E0],"parents":[2147483647,0,0,1,1,2,2,3,3,4,4,5,5,6,6],"right_children":[2,4,6,8,10,12,14,-1,-1,-1,-1,-1,-1,-1,-1],"split_conditions":[2.13E4,1.9196033E9,1.782E3,1.8497418E9,2.3165437E9,1.637658E5,9.5123164E4,-5.596159E2,-1.2160226E4,5.1085547E3,-1.767329E2,6.5402573E3,1.3028917E4,-2.1947273E3,6.893871E3],"split_indices":[2,0,60,0,0,3,3,0,0,0,0,0,0,0,0],"split_type":[0,0,0,0,0,0,0,0,0,0,0,0,0,0,0],"sum_hessian":[1.35E3,1.333E3,1.7E1,4.71E2,8.62E2,1E1,7E0,4.55E2,1.6E1,9.5E1,7.67E2,6E0,4E0,5E0,2E0],"tree_param":{"num_deleted":"0","num_feature":"61","num_nodes":"15","size_leaf_vector":"1"}},{"base_weights":[4.542218E1,-3.3666863E3,3.5807915E3,2.4288689E2,-2.0984715E4,-1.7200344E4,3.9813455E3,-3.508849E2,1.0051084E4,-1.4440702E3,-1.1160495E4,2.8667349E3,1.735681E2],"categories":[],"categories_nodes":[],"categories_segments":[],"categories_sizes":[],"default_left":[0,0,0,0,0,0,0,0,0,0,0,0,0],"id":23,"left_children":[1,3,5,7,9,-1,11,-1,-1,-1,-1,-1,-1],"loss_changes":[1.6309255E10,4.3757466E10,2.416847E10,5.722559E10,5.566867E10,0E0,2.1325165E10,0E0,0E0,0E0,0E0,0E0,0E0],"parents":[2147483647,0,0,1,1,2,2,3,3,4,4,6,6],"right_children":[2,4,6,8,10,-1,12,-1,-1,-1,-1,-1,-1],"split_conditions":[2.7928724E9,2.3324214E9,1.95E2,2.2466824E9,1.393E3,-1.7200344E4,3.949E3,-3.508849E2,1.0051084E4,-1.4440702E3,-1.1160495E4,2.8667349E3,1.735681E2],"split_indices":[0,0,2,0,2,0,2,0,0,0,0,0,0],"split_type":[0,0,0,0,0,0,0,0,0,0,0,0,0],"sum_hessian":[1.35E3,6.87E2,6.63E2,5.71E2,1.16E2,2E0,6.61E2,5.5E2,2.1E1,8.4E1,3.2E1,1.52E2,5.09E2],"tree_param":{"num_deleted":"0","num_feature":"61","num_nodes":"13","size_leaf_vector":"1"}},{"base_weights":[2.370253E1,-1.4743433E3,7.180931E3,-7.045667E1,-8.88773E3,-3.6572324E4,9.503165E3,-4.5468164E2,1.729793E3,-3.9459836E3,-1.3290182E3,-1.1866013E4,-4.478837E3,1.6386725E3,2.056485E4],"categories":[],"categories_nodes":[],"categories_segments":[],"categories_sizes":[],"default_left":[0,0,0,0,0,0,0,0,0,0,0,0,0,0,0],"id":24,"left_children":[1,3,5,7,9,11,13,-1,-1,-1,-1,-1,-1,-1,-1],"loss_changes":[1.4495816E10,1.1635021E10,2.4123191E10,1.8094828E10,4.1969838E9,2.5432996E9,2.641531E10,0E0,0E0,0E0,0E0,0E0,0E0,0E0,0E0],"parents":[2147483647,0,0,1,1,2,2,3,3,4,4,5,5,6,6],"right_children":[2,4,6,8,10,12,14,-1,-1,-1,-1,-1,-1,-1,-1],"split_conditions":[4.5140065E9,7.574E3,7.45E3,3.0723185E9,3.4120996E9,3.489E3,1.8867816E5,-4.5468164E2,1.729793E3,-3.9459836E3,-1.3290182E3,-1.1866013E4,-4.478837E3,1.6386725E3,2.056485E4],"split_indices":[0,2,2,0,0,2,3,0,0,0,0,0,0,0,0],"split_type":[0,0,0,0,0,0,0,0,0,0,0,0,0,0,0],"sum_hessian":[1.35E3,1.117E3,2.33E2,9.4E2,1.77E2,1.1E1,2.22E2,7.51E2,1.89E2,2.9E1,1.48E2,3E0,8E0,2.2E2,2E0],"tree_param":{"num_deleted":"0","num_feature":"61","num_nodes":"15","size_leaf_vector":"1"}},{"base_weights":[2.0341131E1,-2.5005833E2,4.036769E4,-3.3069945E4,-3.8447633E0,1.4437495E4,1.7483117E4,-7.7247104E3,-1.4474021E3,2.6407869E3,-1.3378139E2,6.185721E3,-3.5720376E3],"categories":[],"categories_nodes":[],"categories_segments":[],"categories_sizes":[],"default_left":[0,0,0,0,0,0,0,0,0,0,0,0,0],"id":25,"left_children":[1,3,5,7,9,11,-1,-1,-1,-1,-1,-1,-1],"loss_changes":[1.4749371E10,1.0852255E10,9.717587E9,1.1551406E9,1.1726679E10,4.2807634E9,0E0,0E0,0E0,0E0,0E0,0E0,0E0],"parents":[2147483647,0,0,1,1,2,2,3,3,4,4,5,5],"right_children":[2,4,6,8,10,12,-1,-1,-1,-1,-1,-1,-1],"split_conditions":[1.9712484E5,5.1767098E4,7.706995E9,5.714E3,6.559542E4,3.564E3,1.7483117E4,-7.7247104E3,-1.4474021E3,2.6407869E3,-1.3378139E2,6.185721E3,-3.5720376E3],"split_indices":[3,3,0,2,3,59,0,0,0,0,0,0,0],"split_type":[0,0,0,0,0,0,0,0,0,0,0,0,0],"sum_hessian":[1.35E3,1.342E3,8E0,9E0,1.333E3,6E0,2E0,7E0,2E0,6.3E1,1.27E3,4E0,2E0],"tree_param":{"num_deleted":"0","num_feature":"61","num_nodes":"13","size_leaf_vector":"1"}},{"base_weights":[2.621967E1,6.8839253E3,-1.1924198E3,2.5387393E4,-4.77209E3,1.3273804E3,-3.7767783E3,-6.573109E3,5.786485E3,-1.5765575E3,9.847175E3,1.625092E3,-8.605556E2,-4.9060435E3,-4.3474346E1],"categories":[],"categories_nodes":[],"categories_segments":[],"categories_sizes":[],"default_left":[0,0,0,0,0,0,0,0,0,0,0,0,0,0,0],"id":26,"left_children":[1,3,5,7,9,11,13,-1,-1,-1,-1,-1,-1,-1,-1],"loss_changes":[1.1298611E10,4.41192E10,7.480867E9,1.7265041E10,2.155642E10,2.2310582E10,4.187892E10,0E0,0E0,0E0,0E0,0E0,0E0,0E0,0E0],"parents":[2147483647,0,0,1,1,2,2,3,3,4,4,5,5,6,6],"right_children":[2,4,6,8,10,12,14,-1,-1,-1,-1,-1,-1,-1,-1],"split_conditions":[1.782E3,1.782E3,2.32E3,4.9005E4,1.9712484E5,1.6716942E5,2.7928724E9,-6.573109E3,5.786485E3,-1.5765575E3,9.847175E3,1.625092E3,-8.605556E2,-4.9060435E3,-4.3474346E1],"split_indices":[60,59,2,1,3,3,0,0,0,0,0,0,0,0,0],"split_type":[0,0,0,0,0,0,0,0,0,0,0,0,0,0,0],"sum_hessian":[1.35E3,2.03E2,1.147E3,7.8E1,1.25E2,5.81E2,5.66E2,4E0,7.4E1,1.19E2,6E0,2.63E2,3.18E2,8.2E1,4.84E2],"tree_param":{"num_deleted":"0","num_feature":"61","num_nodes":"15","size_leaf_vector":"1"}},{"base_weights":[2.3420689E1,-2.9220465E2,2.3413465E4,2.810154E2,-2.096778E4,3.5924277E4,3.284414E3,-2.2808324E2,1.5570183E3,-3.1229731E3,-1.1977476E4,9.108929E3,4.0633064E3,-2.0025042E3,5.756696E3],"categories":[],"categories_nodes":[],"categories_segments":[],"categories_sizes":[],"default_left":[0,0,0,0,0,0,0,0,0,0,0,0,0,0,0],"id":27,"left_children":[1,3,5,7,9,11,13,-1,-1,-1,-1,-1,-1,-1,-1],"loss_changes":[9.980586E9,1.5816001E10,4.4149637E9,1.3864702E10,6.564864E9,7.263662E8,3.0006702E9,0E0,0E0,0E0,0E0,0E0,0E0,0E0,0E0],"parents":[2147483647,0,0,1,1,2,2,3,3,4,4,5,5,6,6],"right_children":[2,4,6,8,10,12,14,-1,-1,-1,-1,-1,-1,-1,-1],"split_conditions":[2.13E4,1.7133E4,1.782E3,4.437794E9,5.2284995E9,8.240483E9,9.5123164E4,-2.2808324E2,1.5570183E3,-3.1229731E3,-1.1977476E4,9.108929E3,4.0633064E3,-2.0025042E3,5.756696E3],"split_indices":[2,2,60,0,0,0,3,0,0,0,0,0,0,0,0],"split_type":[0,0,0,0,0,0,0,0,0,0,0,0,0,0,0],"sum_hessian":[1.35E3,1.333E3,1.7E1,1.298E3,3.5E1,1E1,7E0,1.092E3,2.06E2,3.2E1,3E0,5E0,5E0,5E0,2E0],"tree_param":{"num_deleted":"0","num_feature":"61","num_nodes":"15","size_leaf_vector":"1"}},{"base_weights":[2.1081318E1,-1.0666773E4,5.870884E2,-7.7822676E3,-4.545509E4,7.1270815E3,-5.7638165E2,-5.3592085E3,1.6824744E2,-1.2004007E4,-3.1476907E3,4.5361553E3,-4.4761124E2,4.4807968E2,-6.366989E2],"categories":[],"categories_nodes":[],"categories_segments":[],"categories_sizes":[],"default_left":[0,0,0,0,0,0,0,0,0,0,0,0,0,0,0],"id":28,"left_children":[1,3,5,7,9,11,13,-1,-1,-1,-1,-1,-1,-1,-1],"loss_changes":[8.1790034E9,6.4698593E9,9.774174E9,1.0516325E10,1.2194826E9,2.8309289E10,8.0190705E9,0E0,0E0,0E0,0E0,0E0,0E0,0E0,0E0],"parents":[2147483647,0,0,1,1,2,2,3,3,4,4,5,5,6,6],"right_children":[2,4,6,8,10,12,14,-1,-1,-1,-1,-1,-1,-1,-1],"split_conditions":[2.5880432E8,1.782E3,1.782E3,1.6593984E5,1.6618933E5,1.782E3,2.32E3,-5.3592085E3,1.6824744E2,-1.2004007E4,-3.1476907E3,4.5361553E3,-4.4761124E2,4.4807968E2,-6.366989E2],"split_indices":[0,59,60,3,3,59,2,0,0,0,0,0,0,0,0],"split_type":[0,0,0,0,0,0,0,0,0,0,0,0,0,0,0],"sum_hessian":[1.35E3,6.7E1,1.283E3,6.3E1,4E0,1.93E2,1.09E3,1.9E1,4.4E1,2E0,2E0,7.2E1,1.21E2,5.24E2,5.66E2],"tree_param":{"num_deleted":"0","num_feature":"61","num_nodes":"15","size_leaf_vector":"1"}},{"base_weights":[4.6863956E0,-3.1563885E2,1.7729156E4,5.9010767E2,-8.193991E3,8.568261E3,1.5799867E4,7.944775E1,1.5379617E4,-2.7553362E3,4.3228926E3,3.666554E3,-7.991044E3],"categories":[],"categories_nodes":[],"categories_segments":[],"categories_sizes":[],"default_left":[0,0,0,0,0,0,0,0,0,0,0,0,0],"id":29,"left_children":[1,3,5,7,9,11,-1,-1,-1,-1,-1,-1,-1],"loss_changes":[7.6760274E9,9.481164E9,1.2794065E10,1.751264E10,2.309613E10,1.1156264E10,0E0,0E0,0E0,0E0,0E0,0E0,0E0],"parents":[2147483647,0,0,1,1,2,2,3,3,4,4,5,5],"right_children":[2,4,6,8,10,12,-1,-1,-1,-1,-1,-1,-1],"split_conditions":[1.9236689E5,1.8236988E5,3.489E3,3.564E3,1.7195453E9,3.564E3,1.5799867E4,7.944775E1,1.5379617E4,-2.7553362E3,4.3228926E3,3.666554E3,-7.991044E3],"split_indices":[3,3,2,59,0,59,0,0,0,0,0,0,0],"split_type":[0,0,0,0,0,0,0,0,0,0,0,0,0],"sum_hessian":[1.35E3,1.327E3,2.3E1,1.191E3,1.36E2,2.1E1,2E0,1.189E3,2E0,1.15E2,2.1E1,1.8E1,3E0],"tree_param":{"num_deleted":"0","num_feature":"61","num_nodes":"13","size_leaf_vector":"1"}},{"base_weights":[2.4855015E1,-1.0402003E2,8.689906E3,6.3112907E1,-4.500855E4,-3.2149138E3,7.37406E1,-3.1602625E3,-1.1842588E4],"categories":[],"categories_nodes":[],"categories_segments":[],"categories_sizes":[],"default_left":[0,0,0,0,0,0,0,0,0],"id":30,"left_children":[1,3,-1,5,7,-1,-1,-1,-1],"loss_changes":[7.565198E9,1.0119615E10,0E0,6.6338836E9,1.1387126E9,0E0,0E0,0E0,0E0],"parents":[2147483647,0,0,1,1,3,3,4,4],"right_children":[2,4,-1,6,8,-1,-1,-1,-1],"split_conditions":[1.47015E5,2.6556E4,8.689906E3,5.499252E4,1.5811686E5,-3.2149138E3,7.37406E1,-3.1602625E3,-1.1842588E4],"split_indices":[1,2,0,3,3,0,0,0,0],"split_type":[0,0,0,0,0,0,0,0,0],"sum_hessian":[1.35E3,1.347E3,3E0,1.343E3,4E0,2.4E1,1.319E3,2E0,2E0],"tree_param":{"num_deleted":"0","num_feature":"61","num_nodes":"9","size_leaf_vector":"1"}},{"base_weights":[1.2877012E1,-6.7809033E3,7.0497943E2,-2.084219E4,-5.103225E3,3.8932336E3,-1.0951499E3,-2.292522E3,-5.05432E3,7.1268726E3,-1.3850206E3,1.199443E4,4.1167087E2,-3.8569126E3,2.8143002E2],"categories":[],"categories_nodes":[],"categories_segments":[],"categories_sizes":[],"default_left":[0,0,0,0,0,0,0,0,0,0,0,0,0,0,0],"id":31,"left_children":[1,3,5,7,9,11,13,-1,-1,-1,-1,-1,-1,-1,-1],"loss_changes":[6.3571707E9,2.8424264E9,7.046348E9,2.5041971E8,8.63351E9,4.5460386E10,3.5756696E10,0E0,0E0,0E0,0E0,0E0,0E0,0E0,0E0],"parents":[2147483647,0,0,1,1,2,2,3,3,4,4,5,5,6,6],"right_children":[2,4,6,8,10,12,14,-1,-1,-1,-1,-1,-1,-1,-1],"split_conditions":[4.7791546E8,1.6121755E5,2.3165437E9,1.782E3,1.6194816E5,1.043361E5,2.6944312E9,-2.292522E3,-5.05432E3,7.1268726E3,-1.3850206E3,1.199443E4,4.1167087E2,-3.8569126E3,2.8143002E2],"split_indices":[0,3,0,60,3,3,0,0,0,0,0,0,0,0,0],"split_type":[0,0,0,0,0,0,0,0,0,0,0,0,0,0,0],"sum_hessian":[1.35E3,1.24E2,1.226E3,1.2E1,1.12E2,4.42E2,7.84E2,5E0,7E0,4E0,1.08E2,1.3E1,4.29E2,9.4E1,6.9E2],"tree_param":{"num_deleted":"0","num_feature":"61","num_nodes":"15","size_leaf_vector":"1"}},{"base_weights":[1.56517105E1,-2.261663E2,1.7936184E4,2.5146852E2,-1.7454541E4,9.132554E3,7.7998228E3,-1.6698376E2,1.1973177E3,-2.6740261E3,-1.1585269E4,3.9854321E3,-1.7162897E3],"categories":[],"categories_nodes":[],"categories_segments":[],"categories_sizes":[],"default_left":[0,0,0,0,0,0,0,0,0,0,0,0,0],"id":32,"left_children":[1,3,5,7,9,11,-1,-1,-1,-1,-1,-1,-1],"loss_changes":[5.8586255E9,1.0981705E10,2.9815834E9,8.0984975E9,5.176442E9,2.8480233E9,0E0,0E0,0E0,0E0,0E0,0E0,0E0],"parents":[2147483647,0,0,1,1,2,2,3,3,4,4,5,5],"right_children":[2,4,6,8,10,12,-1,-1,-1,-1,-1,-1,-1],"split_conditions":[2.13E4,1.7133E4,1.637658E5,4.437794E9,5.244377E9,2.3049E4,7.7998228E3,-1.6698376E2,1.1973177E3,-2.6740261E3,-1.1585269E4,3.9854321E3,-1.7162897E3],"split_indices":[2,2,3,0,0,2,0,0,0,0,0,0,0],"split_type":[0,0,0,0,0,0,0,0,0,0,0,0,0],"sum_hessian":[1.35E3,1.333E3,1.7E1,1.298E3,3.5E1,1.3E1,4E0,1.092E3,2.06E2,3.3E1,2E0,8E0,5E0],"tree_param":{"num_deleted":"0","num_feature":"61","num_nodes":"13","size_leaf_vector":"1"}},{"base_weights":[1.01719675E1,-9.120728E1,6.834488E3,7.915126E1,-3.8207926E4,-2.944522E1,5.040089E3,-9.9928754E2,-1.3950788E4],"categories":[],"categories_nodes":[],"categories_segments":[],"categories_sizes":[],"default_left":[0,0,0,0,0,0,0,0,0],"id":33,"left_children":[1,3,-1,5,7,-1,-1,-1,-1],"loss_changes":[4.682096E9,8.756274E9,0E0,7.641206E9,5.93762E9,0E0,0E0,0E0,0E0],"parents":[2147483647,0,0,1,1,3,3,4,4],"right_children":[2,4,-1,6,8,-1,-1,-1,-1],"split_conditions":[1.47015E5,8.240483E9,6.834488E3,9.801E4,3.564E3,-2.944522E1,5.040089E3,-9.9928754E2,-1.3950788E4],"split_indices":[1,0,0,1,59,0,0,0,0],"split_type":[0,0,0,0,0,0,0,0,0],"sum_hessian":[1.35E3,1.347E3,3E0,1.342E3,5E0,1.331E3,1.1E1,3E0,2E0],"tree_param":{"num_deleted":"0","num_feature":"61","num_nodes":"9","size_leaf_vector":"1"}},{"base_weights":[5.8314676E0,-2.014105E2,1.5364441E4,1.942327E2,-1.4471941E4,7.834893E3,6.674858E3,6.0575813E1,-9.368392E3,-2.14924E3,-1.0374608E4,2.4478916E3,-2.479E3],"categories":[],"categories_nodes":[],"categories_segments":[],"categories_sizes":[],"default_left":[0,0,0,0,0,0,0,0,0,0,0,0,0],"id":34,"left_children":[1,3,5,7,9,11,-1,-1,-1,-1,-1,-1,-1],"loss_changes":[4.303258E9,7.534627E9,2.179424E9,6.652482E9,4.459049E9,1.3991626E9,0E0,0E0,0E0,0E0,0E0,0E0,0E0],"parents":[2147483647,0,0,1,1,2,2,3,3,4,4,5,5],"right_children":[2,4,6,8,10,12,-1,-1,-1,-1,-1,-1,-1],"split_conditions":[2.13E4,1.7133E4,1.637658E5,1.47015E5,5.244377E9,2.6556E4,6.674858E3,6.0575813E1,-9.368392E3,-2.14924E3,-1.0374608E4,2.4478916E3,-2.479E3],"split_indices":[2,2,3,1,0,2,0,0,0,0,0,0,0],"split_type":[0,0,0,0,0,0,0,0,0,0,0,0,0],"sum_hessian":[1.35E3,1.333E3,1.7E1,1.298E3,3.5E1,1.3E1,4E0,1.296E3,2E0,3.3E1,2E0,1.1E1,2E0],"tree_param":{"num_deleted":"0","num_feature":"61","num_nodes":"13","size_leaf_vector":"1"}},{"base_weights":[-6.5640554E0,-1.1609046E4,2.657172E2,-3.3269164E4,-3.9052976E3,9.184518E3,-2.2563394E2,-1.332477E3,-1.5078599E4,4.603716E3,-1.7695377E3,-9.0542725E2,7.7366753E3,-9.548781E2,2.4604114E2],"categories":[],"categories_nodes":[],"categories_segments":[],"categories_sizes":[],"default_left":[0,0,0,0,0,0,0,0,0,0,0,0,0,0,0],"id":35,"left_children":[1,3,5,7,9,11,13,-1,-1,-1,-1,-1,-1,-1,-1],"loss_changes":[4.2710807E9,5.04286E9,5.791041E9,8.4639386E9,3.3973007E9,2.8084115E10,8.303566E9,0E0,0E0,0E0,0E0,0E0,0E0,0E0,0E0],"parents":[2147483647,0,0,1,1,2,2,3,3,4,4,5,5,6,6],"right_children":[2,4,6,8,10,12,14,-1,-1,-1,-1,-1,-1,-1,-1],"split_conditions":[9.0501544E7,1.782E3,6.559542E4,1.6597548E5,1.7464492E7,6.1871043E4,8.42886E4,-1.332477E3,-1.5078599E4,4.603716E3,-1.7695377E3,-9.0542725E2,7.7366753E3,-9.548781E2,2.4604114E2],"split_indices":[0,60,3,3,0,3,3,0,0,0,0,0,0,0,0],"split_type":[0,0,0,0,0,0,0,0,0,0,0,0,0,0,0],"sum_hessian":[1.35E3,3E1,1.32E3,7E0,2.3E1,6.8E1,1.252E3,5E0,2E0,3E0,2E1,4.7E1,2.1E1,3.03E2,9.49E2],"tree_param":{"num_deleted":"0","num_feature":"61","num_nodes":"15","size_leaf_vector":"1"}},{"base_weights":[-1.0765995E1,9.782031E2,-3.4936213E3,6.576525E3,-1.00909125E3,-8.6383195E4,-1.5014006E3,-4.2102744E2,3.678535E3,-3.0800613E3,1.982328E2,-5.1413633E3,-2.5092756E4,-4.9401596E2,1.0957708E4],"categories":[],"categories_nodes":[],"categories_segments":[],"categories_sizes":[],"default_left":[0,0,0,0,0,0,0,0,0,0,0,0,0,0,0],"id":36,"left_children":[1,3,5,7,9,11,13,-1,-1,-1,-1,-1,-1,-1,-1],"loss_changes":[4.656851E9,1.1721802E10,4.924546E10,2.8351846E10,2.2410852E10,1.3373604E10,1.611171E10,0E0,0E0,0E0,0E0,0E0,0E0,0E0,0E0],"parents":[2147483647,0,0,1,1,2,2,3,3,4,4,5,5,6,6],"right_children":[2,4,6,8,10,12,14,-1,-1,-1,-1,-1,-1,-1,-1],"split_conditions":[1.7185608E5,2.3165437E9,1.7224812E5,1.1034938E9,2.6944312E9,9.6059514E8,1.3072E4,-4.2102744E2,3.678535E3,-3.0800613E3,1.982328E2,-5.1413633E3,-2.5092756E4,-4.9401596E2,1.0957708E4],"split_indices":[3,0,3,0,0,0,2,0,0,0,0,0,0,0,0],"split_type":[0,0,0,0,0,0,0,0,0,0,0,0,0,0,0],"sum_hessian":[1.35E3,1.052E3,2.98E2,2.75E2,7.77E2,6E0,2.92E2,1.59E2,1.16E2,9.4E1,6.83E2,3E0,3E0,2.88E2,4E0],"tree_param":{"num_deleted":"0","num_feature":"61","num_nodes":"15","size_leaf_vector":"1"}},{"base_weights":[-2.296424E1,1.7408359E3,-1.8024551E3,-1.7023889E3,8.884271E3,-1.4427299E4,1.2755557E3,-7.5958115E1,-8.742999E3,8.842064E3,1.184341E2,-5.868514E3,-6.102026E2,3.6728984E3,-1.2283495E2],"categories":[],"categories_nodes":[],"categories_segments":[],"categories_sizes":[],"default_left":[0,0,0,0,0,0,0,0,0,0,0,0,0,0,0],"id":37,"left_children":[1,3,5,7,9,11,13,-1,-1,-1,-1,-1,-1,-1,-1],"loss_changes":[4.2434757E9,1.6716118E10,2.6170784E10,2.5488101E10,6.471072E10,2.230829E10,1.7514349E10,0E0,0E0,0E0,0E0,0E0,0E0,0E0,0E0],"parents":[2147483647,0,0,1,1,2,2,3,3,4,4,5,5,6,6],"right_children":[2,4,6,8,10,12,14,-1,-1,-1,-1,-1,-1,-1,-1],"split_conditions":[2.352E3,1.9196033E9,3.0723185E9,1.8497418E9,2.2911396E9,3.453E3,3.949E3,-7.5958115E1,-8.742999E3,8.842064E3,1.184341E2,-5.868514E3,-6.102026E2,3.6728984E3,-1.2283495E2],"split_indices":[2,0,0,0,0,2,2,0,0,0,0,0,0,0,0],"split_type":[0,0,0,0,0,0,0,0,0,0,0,0,0,0,0],"sum_hessian":[1.35E3,6.78E2,6.72E2,4.58E2,2.2E2,1.31E2,5.41E2,4.45E2,1.3E1,4.1E1,1.79E2,5.6E1,7.5E1,5.3E1,4.88E2],"tree_param":{"num_deleted":"0","num_feature":"61","num_nodes":"15","size_leaf_vector":"1"}},{"base_weights":[-2.0434418E1,-1.22535205E4,2.1004607E2,3.8970496E3,-2.0083027E4,1.3649852E4,-3.0501297E2,-3.3831113E3,6.8283394E3,-9.619775E3,-8.580625E1,-1.2485714E1,6.0962793E3,-8.219497E2,1.7607622E2],"categories":[],"categories_nodes":[],"categories_segments":[],"categories_sizes":[],"default_left":[0,0,0,0,0,0,0,0,0,0,0,0,0,0,0],"id":38,"left_children":[1,3,5,7,9,11,13,-1,-1,-1,-1,-1,-1,-1,-1],"loss_changes":[3.8117015E9,3.2395397E9,9.190046E9,6.2427546E9,9.33996E9,1.1311047E10,5.77205E9,0E0,0E0,0E0,0E0,0E0,0E0,0E0,0E0],"parents":[2147483647,0,0,1,1,2,2,3,3,4,4,5,5,6,6],"right_children":[2,4,6,8,10,12,14,-1,-1,-1,-1,-1,-1,-1,-1],"split_conditions":[5.499252E4,3.5264184E9,6.559542E4,2.231E3,4.761E3,6.1871043E4,8.42886E4,-3.3831113E3,6.8283394E3,-9.619775E3,-8.580625E1,-1.2485714E1,6.0962793E3,-8.219497E2,1.7607622E2],"split_indices":[3,0,3,2,2,3,3,0,0,0,0,0,0,0,0],"split_type":[0,0,0,0,0,0,0,0,0,0,0,0,0,0,0],"sum_hessian":[1.35E3,2.4E1,1.326E3,8E0,1.6E1,4.8E1,1.278E3,5E0,3E0,6E0,1E1,2.7E1,2.1E1,3.03E2,9.75E2],"tree_param":{"num_deleted":"0","num_feature":"61","num_nodes":"15","size_leaf_vector":"1"}},{"base_weights":[-1.6948996E1,-2.9283914E2,9.271788E3,1.2503226E2,-1.9474617E4,5.5188506E3,1.0493483E4,-5.2336082E0,1.2959417E4,-1.9683075E3,-1.9293957E4,2.1425503E3,-8.001803E3],"categories":[],"categories_nodes":[],"categories_segments":[],"categories_sizes":[],"default_left":[0,0,0,0,0,0,0,0,0,0,0,0,0],"id":39,"left_children":[1,3,5,7,9,11,-1,-1,-1,-1,-1,-1,-1],"loss_changes":[3.4648837E9,1.0526808E10,6.032749E9,1.2576762E10,1.9818207E10,9.177893E9,0E0,0E0,0E0,0E0,0E0,0E0,0E0],"parents":[2147483647,0,0,1,1,2,2,3,3,4,4,5,5],"right_children":[2,4,6,8,10,12,-1,-1,-1,-1,-1,-1,-1],"split_conditions":[1.9047798E5,1.8794755E5,3.489E3,3.564E3,2.352E3,3.564E3,1.0493483E4,-5.2336082E0,1.2959417E4,-1.9683075E3,-1.9293957E4,2.1425503E3,-8.001803E3],"split_indices":[3,3,2,59,2,59,0,0,0,0,0,0,0],"split_type":[0,0,0,0,0,0,0,0,0,0,0,0,0],"sum_hessian":[1.35E3,1.312E3,3.8E1,1.285E3,2.7E1,3.6E1,2E0,1.283E3,2E0,2.5E1,2E0,3.3E1,3E0],"tree_param":{"num_deleted":"0","num_feature":"61","num_nodes":"13","size_leaf_vector":"1"}},{"base_weights":[-1.6286074E1,-1.0449266E2,5.942681E3,6.591778E1,-3.8230613E4,-8.92014E1,1.2212006E3,-1.6740375E3,-1.3060196E4],"categories":[],"categories_nodes":[],"categories_segments":[],"categories_sizes":[],"default_left":[0,0,0,0,0,0,0,0,0],"id":40,"left_children":[1,3,-1,5,7,-1,-1,-1,-1],"loss_changes":[3.5459062E9,8.760598E9,0E0,4.155372E9,4.303413E9,0E0,0E0,0E0,0E0],"parents":[2147483647,0,0,1,1,3,3,4,4],"right_children":[2,4,-1,6,8,-1,-1,-1,-1],"split_conditions":[1.47015E5,8.240483E9,5.942681E3,4.9935104E9,3.564E3,-8.92014E1,1.2212006E3,-1.6740375E3,-1.3060196E4],"split_indices":[1,0,0,0,59,0,0,0,0],"split_type":[0,0,0,0,0,0,0,0,0],"sum_hessian":[1.35E3,1.347E3,3E0,1.342E3,5E0,1.238E3,1.04E2,3E0,2E0],"tree_param":{"num_deleted":"0","num_feature":"61","num_nodes":"9","size_leaf_vector":"1"}},{"base_weights":[-1.8710266E1,-1.4200497E4,1.4041129E2,2.522393E3,-3.970523E4,4.8388657E3,-6.757592E2,-2.6519744E3,5.902152E3,-1.03023E4,-4.184845E3,3.3079597E3,-4.253596E2,3.7172253E2,-5.030256E2],"categories":[],"categories_nodes":[],"categories_segments":[],"categories_sizes":[],"default_left":[0,0,0,0,0,0,0,0,0,0,0,0,0,0,0],"id":41,"left_children":[1,3,5,7,9,11,13,-1,-1,-1,-1,-1,-1,-1,-1],"loss_changes":[3.0506982E9,6.497845E9,5.1303173E9,4.650684E9,2.5256243E8,1.617312E10,5.3189494E9,0E0,0E0,0E0,0E0,0E0,0E0,0E0,0E0],"parents":[2147483647,0,0,1,1,2,2,3,3,4,4,5,5,6,6],"right_children":[2,4,6,8,10,12,14,-1,-1,-1,-1,-1,-1,-1,-1],"split_conditions":[3.3342112E7,1.6597548E5,1.782E3,1.6593984E5,1.7464492E7,1.782E3,1.169E3,-2.6519744E3,5.902152E3,-1.03023E4,-4.184845E3,3.3079597E3,-4.253596E2,3.7172253E2,-5.030256E2],"split_indices":[0,3,60,3,0,59,2,0,0,0,0,0,0,0,0],"split_type":[0,0,0,0,0,0,0,0,0,0,0,0,0,0,0],"sum_hessian":[1.35E3,1.4E1,1.336E3,9E0,5E0,1.97E2,1.139E3,6E0,3E0,2E0,3E0,7.3E1,1.24E2,4.79E2,6.6E2],"tree_param":{"num_deleted":"0","num_feature":"61","num_nodes":"15","size_leaf_vector":"1"}},{"base_weights":[-2.1248634E1,8.33187E2,-3.030277E3,4.4889663E3,-1.386071E3,-7.103407E4,-1.3952708E3,-1.018992E3,1.6334369E3,-3.0448984E3,1.3455217E2,-4.426768E3,-2.0435158E4,-4.4555795E2,9.400678E3],"categories":[],"categories_nodes":[],"categories_segments":[],"categories_sizes":[],"default_left":[0,0,0,0,0,0,0,0,0,0,0,0,0,0,0],"id":42,"left_children":[1,3,5,7,9,11,13,-1,-1,-1,-1,-1,-1,-1,-1],"loss_changes":[3.4759744E9,8.5493356E9,3.314569E10,1.4071816E10,1.8700327E10,8.3983196E9,1.1910506E10,0E0,0E0,0E0,0E0,0E0,0E0,0E0,0E0],"parents":[2147483647,0,0,1,1,2,2,3,3,4,4,5,5,6,6],"right_children":[2,4,6,8,10,12,14,-1,-1,-1,-1,-1,-1,-1,-1],"split_conditions":[1.7185608E5,2.32E3,1.7224812E5,4.7791546E8,2.7928724E9,9.6059514E8,1.3072E4,-1.018992E3,1.6334369E3,-3.0448984E3,1.3455217E2,-4.426768E3,-2.0435158E4,-4.4555795E2,9.400678E3],"split_indices":[3,2,3,0,0,0,2,0,0,0,0,0,0,0,0],"split_type":[0,0,0,0,0,0,0,0,0,0,0,0,0,0,0],"sum_hessian":[1.35E3,1.052E3,2.98E2,3.97E2,6.55E2,6E0,2.92E2,1.1E2,2.87E2,8.4E1,5.71E2,3E0,3E0,2.88E2,4E0],"tree_param":{"num_deleted":"0","num_feature":"61","num_nodes":"15","size_leaf_vector":"1"}},{"base_weights":[-3.0474428E1,5.0228995E2,-3.9993784E3,3.5890964E2,1.1441809E4,-8.347212E3,1.772688E4,1.2844088E1,5.0216436E3,-1.0163798E2,-4.98499E3,6.0741543E3,-6.3177065E3],"categories":[],"categories_nodes":[],"categories_segments":[],"categories_sizes":[],"default_left":[0,0,0,0,0,0,0,0,0,0,0,0,0],"id":43,"left_children":[1,3,5,7,-1,9,11,-1,-1,-1,-1,-1,-1],"loss_changes":[2.8586857E9,9.671178E9,1.5261914E10,8.677478E9,0E0,1.7401068E10,1.7794912E10,0E0,0E0,0E0,0E0,0E0,0E0],"parents":[2147483647,0,0,1,1,2,2,3,3,5,5,6,6],"right_children":[2,4,6,8,-1,10,12,-1,-1,-1,-1,-1,-1],"split_conditions":[1.8236988E5,3.564E3,1.7195453E9,1.8128286E5,1.1441809E4,1.3797642E9,3.564E3,1.2844088E1,5.0216436E3,-1.0163798E2,-4.98499E3,6.0741543E3,-6.3177065E3],"split_indices":[3,59,0,3,0,0,59,0,0,0,0,0,0],"split_type":[0,0,0,0,0,0,0,0,0,0,0,0,0],"sum_hessian":[1.35E3,1.191E3,1.59E2,1.189E3,2E0,1.33E2,2.6E1,1.176E3,1.3E1,9.1E1,4.2E1,2.1E1,5E0],"tree_param":{"num_deleted":"0","num_feature":"61","num_nodes":"13","size_leaf_vector":"1"}},{"base_weights":[-1.6136137E1,-9.981114E1,5.637275E3,7.128138E1,-3.8379387E4,-1.3216933E2,6.64518E2,-2.3342751E3,-1.2239388E4],"categories":[],"categories_nodes":[],"categories_segments":[],"categories_sizes":[],"default_left":[0,0,0,0,0,0,0,0,0],"id":44,"left_children":[1,3,-1,5,7,-1,-1,-1,-1],"loss_changes":[3.1909645E9,8.831259E9,0E0,3.1990377E9,2.9422162E9,0E0,0E0,0E0,0E0],"parents":[2147483647,0,0,1,1,3,3,4,4],"right_children":[2,4,-1,6,8,-1,-1,-1,-1],"split_conditions":[1.47015E5,8.240483E9,5.637275E3,4.437794E9,3.564E3,-1.3216933E2,6.64518E2,-2.3342751E3,-1.2239388E4],"split_indices":[1,0,0,0,59,0,0,0,0],"split_type":[0,0,0,0,0,0,0,0,0],"sum_hessian":[1.35E3,1.347E3,3E0,1.342E3,5E0,1.096E3,2.46E2,3E0,2E0],"tree_param":{"num_deleted":"0","num_feature":"61","num_nodes":"9","size_leaf_vector":"1"}},{"base_weights":[-1.9135695E1,-2.5730753E2,7.999806E3,-1.13498955E2,-3.7854926E4,4.9868022E3,8.498717E3,-4.7266815E1,1.06879E4,-1.9430042E3,-1.0675304E4,1.9530848E3,-7.375636E3],"categories":[],"categories_nodes":[],"categories_segments":[],"categories_sizes":[],"default_left":[0,0,0,0,0,0,0,0,0,0,0,0,0],"id":45,"left_children":[1,3,5,7,9,11,-1,-1,-1,-1,-1,-1,-1],"loss_changes":[2.5823142E9,7.094909E9,3.8413586E9,8.623479E9,1.6653271E9,7.7622354E9,0E0,0E0,0E0,0E0,0E0,0E0,0E0],"parents":[2147483647,0,0,1,1,2,2,3,3,4,4,5,5],"right_children":[2,4,6,8,10,12,-1,-1,-1,-1,-1,-1,-1],"split_conditions":[1.9047798E5,2.6556E4,3.489E3,3.564E3,1.5811686E5,4.25E2,8.498717E3,-4.7266815E1,1.06879E4,-1.9430042E3,-1.0675304E4,1.9530848E3,-7.375636E3],"split_indices":[3,2,2,59,3,2,0,0,0,0,0,0,0],"split_type":[0,0,0,0,0,0,0,0,0,0,0,0,0],"sum_hessian":[1.35E3,1.312E3,3.8E1,1.308E3,4E0,3.6E1,2E0,1.306E3,2E0,2E0,2E0,3.3E1,3E0],"tree_param":{"num_deleted":"0","num_feature":"61","num_nodes":"13","size_leaf_vector":"1"}},{"base_weights":[-1.4488544E1,-9.0252426E1,5.1043125E3,4.8013153E1,-3.1023656E4,3.432396E1,-3.2891829E3,-1.3508625E3,-1.06083125E4],"categories":[],"categories_nodes":[],"categories_segments":[],"categories_sizes":[],"default_left":[0,0,0,0,0,0,0,0,0],"id":46,"left_children":[1,3,-1,5,7,-1,-1,-1,-1],"loss_changes":[2.616097E9,5.766919E9,0E0,2.7408758E9,2.8479012E9,0E0,0E0,0E0,0E0],"parents":[2147483647,0,0,1,1,3,3,4,4],"right_children":[2,4,-1,6,8,-1,-1,-1,-1],"split_conditions":[1.47015E5,8.240483E9,5.1043125E3,1.9364994E5,3.564E3,3.432396E1,-3.2891829E3,-1.3508625E3,-1.06083125E4],"split_indices":[1,0,0,3,59,0,0,0,0],"split_type":[0,0,0,0,0,0,0,0,0],"sum_hessian":[1.35E3,1.347E3,3E0,1.342E3,5E0,1.333E3,9E0,3E0,2E0],"tree_param":{"num_deleted":"0","num_feature":"61","num_nodes":"9","size_leaf_vector":"1"}},{"base_weights":[-1.9062853E1,-1.7745468E2,1.172059E4,1.8309056E2,-1.2154101E4,-2.5927188E3,1.7425148E4,7.561321E1,-4.1421587E3,-1.5317186E3,-6.322181E3,9.219797E2,-2.2663938E3,6.3637344E3,1.9850449E3],"categories":[],"categories_nodes":[],"categories_segments":[],"categories_sizes":[],"default_left":[0,0,0,0,0,0,0,0,0,0,0,0,0,0,0],"id":47,"left_children":[1,3,5,7,9,11,13,-1,-1,-1,-1,-1,-1,-1,-1],"loss_changes":[2.5142172E9,5.7626004E9,1.5148984E9,5.2874685E9,3.1691658E9,4.2991203E8,1.0875466E9,0E0,0E0,0E0,0E0,0E0,0E0,0E0,0E0],"parents":[2147483647,0,0,1,1,2,2,3,3,4,4,5,5,6,6],"right_children":[2,4,6,8,10,12,14,-1,-1,-1,-1,-1,-1,-1,-1],"split_conditions":[2.13E4,1.651E4,9.1095836E4,1.9364994E5,1.782E3,4.558464E9,9.588942E4,7.561321E1,-4.1421587E3,-1.5317186E3,-6.322181E3,9.219797E2,-2.2663938E3,6.3637344E3,1.9850449E3],"split_indices":[2,2,3,3,59,0,3,0,0,0,0,0,0,0,0],"split_type":[0,0,0,0,0,0,0,0,0,0,0,0,0,0,0],"sum_hessian":[1.35E3,1.333E3,1.7E1,1.295E3,3.8E1,5E0,1.2E1,1.284E3,1.1E1,3.2E1,6E0,3E0,2E0,3E0,9E0],"tree_param":{"num_deleted":"0","num_feature":"61","num_nodes":"15","size_leaf_vector":"1"}},{"base_weights":[-1.8900612E1,-1.3949277E2,1.7978229E4,-1.5705978E1,-3.3261695E4,-2.193154E3,2.7814482E4,2.0465769E1,-6.3055728E3,-1.7031937E3,-9.384038E3,8.103609E3,2.9258901E3],"categories":[],"categories_nodes":[],"categories_segments":[],"categories_sizes":[],"default_left":[0,0,0,0,0,0,0,0,0,0,0,0,0],"id":48,"left_children":[1,3,5,7,9,-1,11,-1,-1,-1,-1,-1,-1],"loss_changes":[2.9346004E9,5.5059E9,2.867312E9,4.9836795E9,1.2903762E9,0E0,5.797212E8,0E0,0E0,0E0,0E0,0E0,0E0],"parents":[2147483647,0,0,1,1,2,2,3,3,4,4,6,6],"right_children":[2,4,6,8,10,-1,12,-1,-1,-1,-1,-1,-1],"split_conditions":[1.9712484E5,1.9364994E5,8.14521E8,2.6556E4,7.9229235E8,-2.193154E3,3.564E3,2.0465769E1,-6.3055728E3,-1.7031937E3,-9.384038E3,8.103609E3,2.9258901E3],"split_indices":[3,3,0,2,0,0,59,0,0,0,0,0,0],"split_type":[0,0,0,0,0,0,0,0,0,0,0,0,0],"sum_hessian":[1.35E3,1.342E3,8E0,1.338E3,4E0,2E0,6E0,1.334E3,4E0,2E0,2E0,2E0,4E0],"tree_param":{"num_deleted":"0","num_feature":"61","num_nodes":"13","size_leaf_vector":"1"}},{"base_weights":[-2.1435276E1,-2.5495563E2,7.8409663E3,5.5708923E1,-1.45142295E4,5.0949814E3,7.8188916E3,-1.1802718E1,9.827675E3,-1.5295083E3,-1.3837489E4,1.8976829E3,-6.7045874E3],"categories":[],"categories_nodes":[],"categories_segments":[],"categories_sizes":[],"default_left":[0,0,0,0,0,0,0,0,0,0,0,0,0],"id":49,"left_children":[1,3,5,7,9,11,-1,-1,-1,-1,-1,-1,-1],"loss_changes":[2.4824768E9,5.8172027E9,3.1478577E9,7.2442204E9,9.982755E9,6.5956925E9,0E0,0E0,0E0,0E0,0E0,0E0,0E0],"parents":[2147483647,0,0,1,1,2,2,3,3,4,4,5,5],"right_children":[2,4,6,8,10,12,-1,-1,-1,-1,-1,-1,-1],"split_conditions":[1.9047798E5,1.8794755E5,3.489E3,3.564E3,2.352E3,3.564E3,7.8188916E3,-1.1802718E1,9.827675E3,-1.5295083E3,-1.3837489E4,1.8976829E3,-6.7045874E3],"split_indices":[3,3,2,59,2,59,0,0,0,0,0,0,0],"split_type":[0,0,0,0,0,0,0,0,0,0,0,0,0],"sum_hessian":[1.35E3,1.312E3,3.8E1,1.285E3,2.7E1,3.6E1,2E0,1.283E3,2E0,2.5E1,2E0,3.3E1,3E0],"tree_param":{"num_deleted":"0","num_feature":"61","num_nodes":"13","size_leaf_vector":"1"}},{"base_weights":[-1.9018925E1,-2.127914E3,7.934438E2,-4.254087E2,-2.3272432E4,1.9357807E4,1.4363722E2,-4.484809E3,2.246394E2,5.9688544E2,-5.8220405E3,6.223362E3,-1.3977994E3,-1.7584559E3,1.9172832E2],"categories":[],"categories_nodes":[],"categories_segments":[],"categories_sizes":[],"default_left":[0,0,0,0,0,0,0,0,0,0,0,0,0,0,0],"id":50,"left_children":[1,3,5,7,9,11,13,-1,-1,-1,-1,-1,-1,-1,-1],"loss_changes":[2.3164902E9,1.3525595E10,1.1770947E10,1.1914644E10,4.378759E9,1.0441275E10,6.8834017E9,0E0,0E0,0E0,0E0,0E0,0E0,0E0,0E0],"parents":[2147483647,0,0,1,1,2,2,3,3,4,4,5,5,6,6],"right_children":[2,4,6,8,10,12,14,-1,-1,-1,-1,-1,-1,-1,-1],"split_conditions":[8.42886E4,8.325504E4,8.523306E4,1.393E3,2.201E3,1.0589E4,8.747838E4,-4.484809E3,2.246394E2,5.9688544E2,-5.8220405E3,6.223362E3,-1.3977994E3,-1.7584559E3,1.9172832E2],"split_indices":[3,3,3,2,2,2,3,0,0,0,0,0,0,0,0],"split_type":[0,0,0,0,0,0,0,0,0,0,0,0,0,0,0],"sum_hessian":[1.35E3,3.75E2,9.75E2,3.48E2,2.7E1,3.2E1,9.43E2,2.2E1,3.26E2,5E0,2.2E1,2.2E1,1E1,7.8E1,8.65E2],"tree_param":{"num_deleted":"0","num_feature":"61","num_nodes":"15","size_leaf_vector":"1"}},{"base_weights":[-1.9817503E1,8.01775E2,-2.075876E3,7.682906E3,-8.708927E2,-2.644368E3,4.1772086E4,9.86541E2,9.567462E3,-1.4023775E4,-1.2041183E2,-1.4995152E2,-4.668648E3,1.0308667E4,3.6153625E3],"categories":[],"categories_nodes":[],"categories_segments":[],"categories_sizes":[],"default_left":[0,0,0,0,0,0,0,0,0,0,0,0,0,0,0],"id":51,"left_children":[1,3,5,7,9,11,13,-1,-1,-1,-1,-1,-1,-1,-1],"loss_changes":[2.2838308E9,1.1125201E10,9.732366E9,2.0635804E10,1.4441174E10,1.4963124E10,2.2592307E8,0E0,0E0,0E0,0E0,0E0,0E0,0E0,0E0],"parents":[2147483647,0,0,1,1,2,2,3,3,4,4,5,5,6,6],"right_children":[2,4,6,8,10,12,14,-1,-1,-1,-1,-1,-1,-1,-1],"split_conditions":[1.6741889E5,2.3165437E9,1.3072E4,2.2657354E9,1.95E2,1.8338642E9,1.8579133E5,9.86541E2,9.567462E3,-1.4023775E4,-1.2041183E2,-1.4995152E2,-4.668648E3,1.0308667E4,3.6153625E3],"split_indices":[3,0,2,0,2,0,3,0,0,0,0,0,0,0,0],"split_type":[0,0,0,0,0,0,0,0,0,0,0,0,0,0,0],"sum_hessian":[1.35E3,9.65E2,3.85E2,1.88E2,7.77E2,3.81E2,4E0,1.77E2,1.1E1,2E0,7.75E2,3.5E2,3.1E1,2E0,2E0],"tree_param":{"num_deleted":"0","num_feature":"61","num_nodes":"15","size_leaf_vector":"1"}},{"base_weights":[-1.1770853E1,-1.2534814E2,1.6937791E4,-1.1238284E1,-3.0658896E4,-2.159329E3,2.6404295E4,2.180521E1,-5.349627E3,-1.7346979E3,-8.484935E3,7.065771E3,3.15374E3],"categories":[],"categories_nodes":[],"categories_segments":[],"categories_sizes":[],"default_left":[0,0,0,0,0,0,0,0,0,0,0,0,0],"id":52,"left_children":[1,3,5,7,9,-1,11,-1,-1,-1,-1,-1,-1],"loss_changes":[2.6029133E9,4.678907E9,2.6480108E9,4.3084646E9,9.254072E8,0E0,1.0733619E8,0E0,0E0,0E0,0E0,0E0,0E0],"parents":[2147483647,0,0,1,1,2,2,3,3,4,4,6,6],"right_children":[2,4,6,8,10,-1,12,-1,-1,-1,-1,-1,-1],"split_conditions":[1.9712484E5,1.9364994E5,8.14521E8,8.240483E9,7.9229235E8,-2.159329E3,3.564E3,2.180521E1,-5.349627E3,-1.7346979E3,-8.484935E3,7.065771E3,3.15374E3],"split_indices":[3,3,0,0,0,0,59,0,0,0,0,0,0],"split_type":[0,0,0,0,0,0,0,0,0,0,0,0,0],"sum_hessian":[1.35E3,1.342E3,8E0,1.338E3,4E0,2E0,6E0,1.333E3,5E0,2E0,2E0,2E0,4E0],"tree_param":{"num_deleted":"0","num_feature":"61","num_nodes":"13","size_leaf_vector":"1"}},{"base_weights":[-1.4965631E1,-6.8064655E2,2.8488264E3,1.512979E2,-2.1076479E4,-3.1925252E4,4.5473516E3,6.723092E1,-6.444769E3,-1.3454109E3,-5.554364E3,-2.6084688E3,-8.709971E3,5.2617524E3,6.616723E2],"categories":[],"categories_nodes":[],"categories_segments":[],"categories_sizes":[],"default_left":[0,0,0,0,0,0,0,0,0,0,0,0,0,0,0],"id":53,"left_children":[1,3,5,7,9,11,13,-1,-1,-1,-1,-1,-1,-1,-1],"loss_changes":[2.5774472E9,1.8617303E10,1.5206659E10,6.324756E9,3.9443722E9,2.0660828E9,6.491731E9,0E0,0E0,0E0,0E0,0E0,0E0,0E0,0E0],"parents":[2147483647,0,0,1,1,2,2,3,3,4,4,5,5,6,6],"right_children":[2,4,6,8,10,12,14,-1,-1,-1,-1,-1,-1,-1,-1],"split_conditions":[4.437794E9,1.182E4,7.45E3,4.3933363E9,3.9582897E9,8.956332E4,7.897824E4,6.723092E1,-6.444769E3,-1.3454109E3,-5.554364E3,-2.6084688E3,-8.709971E3,5.2617524E3,6.616723E2],"split_indices":[0,2,2,0,0,3,3,0,0,0,0,0,0,0,0],"split_type":[0,0,0,0,0,0,0,0,0,0,0,0,0,0,0],"sum_hessian":[1.35E3,1.096E3,2.54E2,1.054E3,4.2E1,1.1E1,2.43E2,1.049E3,5E0,1.4E1,2.8E1,5E0,6E0,1.2E1,2.31E2],"tree_param":{"num_deleted":"0","num_feature":"61","num_nodes":"15","size_leaf_vector":"1"}},{"base_weights":[-2.5787556E1,-1.0175676E2,5.1164565E3,9.100526E1,-1.2286814E4,-2.4192022E1,5.0960073E3,1.0096967E4,-4.3102905E3],"categories":[],"categories_nodes":[],"categories_segments":[],"categories_sizes":[],"default_left":[0,0,0,0,0,0,0,0,0],"id":54,"left_children":[1,3,-1,5,7,-1,-1,-1,-1],"loss_changes":[2.630872E9,3.1673224E9,0E0,7.1498404E9,1.3300711E10,0E0,0E0,0E0,0E0],"parents":[2147483647,0,0,1,1,3,3,4,4],"right_children":[2,4,-1,6,8,-1,-1,-1,-1],"split_conditions":[1.47015E5,5.323765E9,5.1164565E3,5.2888346E9,8.257E3,-2.4192022E1,5.0960073E3,1.0096967E4,-4.3102905E3],"split_indices":[1,0,0,0,2,0,0,0,0],"split_type":[0,0,0,0,0,0,0,0,0],"sum_hessian":[1.35E3,1.347E3,3E0,1.327E3,2E1,1.317E3,1E1,2E0,1.8E1],"tree_param":{"num_deleted":"0","num_feature":"61","num_nodes":"9","size_leaf_vector":"1"}},{"base_weights":[-8.810152E0,-1.6408296E2,1.149912E4,1.0756494E2,-9.961487E3,1.920047E4,-5.276289E2,-5.325226E1,1.6221497E3,6.6605853E2,-3.5238054E3,2.2497927E3,5.2984976E3,-2.0376885E3,3.793975E3],"categories":[],"categories_nodes":[],"categories_segments":[],"categories_sizes":[],"default_left":[0,0,0,0,0,0,0,0,0,0,0,0,0,0,0],"id":55,"left_children":[1,3,5,7,9,11,13,-1,-1,-1,-1,-1,-1,-1,-1],"loss_changes":[2.415946E9,3.5514383E9,1.677331E9,3.8885071E9,3.7228403E9,3.3979494E8,1.7001674E9,0E0,0E0,0E0,0E0,0E0,0E0,0E0,0E0],"parents":[2147483647,0,0,1,1,2,2,3,3,4,4,5,5,6,6],"right_children":[2,4,6,8,10,12,14,-1,-1,-1,-1,-1,-1,-1,-1],"split_conditions":[2.13E4,1.7133E4,1.782E3,1.4155E4,4.6219745E9,1.637658E5,9.5123164E4,-5.325226E1,1.6221497E3,6.6605853E2,-3.5238054E3,2.2497927E3,5.2984976E3,-2.0376885E3,3.793975E3],"split_indices":[2,2,60,2,0,3,3,0,0,0,0,0,0,0,0],"split_type":[0,0,0,0,0,0,0,0,0,0,0,0,0,0,0],"sum_hessian":[1.35E3,1.333E3,1.7E1,1.298E3,3.5E1,1E1,7E0,1.241E3,5.7E1,1.3E1,2.2E1,6E0,4E0,5E0,2E0],"tree_param":{"num_deleted":"0","num_feature":"61","num_nodes":"15","size_leaf_vector":"1"}},{"base_weights":[-1.116216E0,-3.9233743E3,3.9846274E2,-7.0324194E3,3.1127869E3,4.3243384E3,-5.457361E2,-7.913773E2,-3.3019915E3,3.6822852E3,-8.737026E2,-4.672343E1,9.817159E3,-4.0079087E3,1.6014069E2],"categories":[],"categories_nodes":[],"categories_segments":[],"categories_sizes":[],"default_left":[0,0,0,0,0,0,0,0,0,0,0,0,0,0,0],"id":56,"left_children":[1,3,5,7,9,11,13,-1,-1,-1,-1,-1,-1,-1,-1],"loss_changes":[2.1189206E9,2.7563581E9,4.550612E9,2.47059E9,4.544125E9,4.8568394E10,2.6000804E10,0E0,0E0,0E0,0E0,0E0,0E0,0E0,0E0],"parents":[2147483647,0,0,1,1,2,2,3,3,4,4,5,5,6,6],"right_children":[2,4,6,8,10,12,14,-1,-1,-1,-1,-1,-1,-1,-1],"split_conditions":[4.7791546E8,1.7037702E5,1.4432748E9,1.6741889E5,1.7076906E5,1.3575356E9,1.7195453E9,-7.913773E2,-3.3019915E3,3.6822852E3,-8.737026E2,-4.672343E1,9.817159E3,-4.0079087E3,1.6014069E2],"split_indices":[0,3,0,3,3,0,0,0,0,0,0,0,0,0,0],"split_type":[0,0,0,0,0,0,0,0,0,0,0,0,0,0,0],"sum_hessian":[1.35E3,1.24E2,1.226E3,8.6E1,3.8E1,2.37E2,9.89E2,6.6E1,2E1,1.2E1,2.6E1,2.16E2,2.1E1,6.3E1,9.26E2],"tree_param":{"num_deleted":"0","num_feature":"61","num_nodes":"15","size_leaf_vector":"1"}},{"base_weights":[2.5351822E0,-1.6496808E2,9.270943E3,-6.631608E1,-2.189024E4,6.342943E3,1.6954926E3,6.762694E2,-1.3020403E2,-3.004E2,-8.3555625E3,-7.9690753E2,6.6634336E3],"categories":[],"categories_nodes":[],"categories_segments":[],"categories_sizes":[],"default_left":[0,0,0,0,0,0,0,0,0,0,0,0,0],"id":57,"left_children":[1,3,5,7,9,-1,11,-1,-1,-1,-1,-1,-1],"loss_changes":[2.0989416E9,2.8447729E9,4.026748E9,2.6691873E9,2.3700856E9,0E0,3.545383E9,0E0,0E0,0E0,0E0,0E0,0E0],"parents":[2147483647,0,0,1,1,2,2,3,3,4,4,6,6],"right_children":[2,4,6,8,10,-1,12,-1,-1,-1,-1,-1,-1],"split_conditions":[1.9236689E5,8.240483E9,1.92456E5,1.782E3,3.564E3,6.342943E3,3.489E3,6.762694E2,-1.3020403E2,-3.004E2,-8.3555625E3,-7.9690753E2,6.6634336E3],"split_indices":[3,0,3,60,59,0,2,0,0,0,0,0,0],"split_type":[0,0,0,0,0,0,0,0,0,0,0,0,0],"sum_hessian":[1.35E3,1.327E3,2.3E1,1.322E3,5E0,5E0,1.8E1,1.91E2,1.131E3,3E0,2E0,1.6E1,2E0],"tree_param":{"num_deleted":"0","num_feature":"61","num_nodes":"13","size_leaf_vector":"1"}},{"base_weights":[5.0698323E0,1.210948E3,-1.2115665E3,-1.43718E3,5.6755317E3,-1.0065542E4,9.4698755E2,2.4458069E2,-3.201112E3,4.1622495E3,-1.1569181E2,-4.235088E3,-3.2013562E2,3.1633618E3,-1.3940303E2],"categories":[],"categories_nodes":[],"categories_segments":[],"categories_sizes":[],"default_left":[0,0,0,0,0,0,0,0,0,0,0,0,0,0,0],"id":58,"left_children":[1,3,5,7,9,11,13,-1,-1,-1,-1,-1,-1,-1,-1],"loss_changes":[1.9835398E9,8.035831E9,1.2871763E10,1.6567151E10,2.396067E10,1.2379884E10,1.326077E10,0E0,0E0,0E0,0E0,0E0,0E0,0E0,0E0],"parents":[2147483647,0,0,1,1,2,2,3,3,4,4,5,5,6,6],"right_children":[2,4,6,8,10,12,14,-1,-1,-1,-1,-1,-1,-1,-1],"split_conditions":[2.352E3,1.7449495E9,3.0723185E9,1.4432748E9,2.2911396E9,3.453E3,3.949E3,2.4458069E2,-3.201112E3,4.1622495E3,-1.1569181E2,-4.235088E3,-3.2013562E2,3.1633618E3,-1.3940303E2],"split_indices":[2,0,0,0,0,2,2,0,0,0,0,0,0,0,0],"split_type":[0,0,0,0,0,0,0,0,0,0,0,0,0,0,0],"sum_hessian":[1.35E3,6.78E2,6.72E2,4.26E2,2.52E2,1.31E2,5.41E2,3.61E2,6.5E1,7.3E1,1.79E2,5.6E1,7.5E1,5.3E1,4.88E2],"tree_param":{"num_deleted":"0","num_feature":"61","num_nodes":"15","size_leaf_vector":"1"}},{"base_weights":[3.7205224E0,-2.0408755E3,7.913889E2,8.780962E1,-1.3713456E4,1.5738859E4,2.6802252E2,-1.8452324E2,5.202951E3,-5.8612783E3,-2.199723E3,2.3337537E2,5.8770054E3,-1.2998942E3,1.7701419E2],"categories":[],"categories_nodes":[],"categories_segments":[],"categories_sizes":[],"default_left":[0,0,0,0,0,0,0,0,0,0,0,0,0,0,0],"id":59,"left_children":[1,3,5,7,9,11,13,-1,-1,-1,-1,-1,-1,-1,-1],"loss_changes":[2.1773517E9,9.34377E9,7.6310333E9,8.3809265E9,2.132947E9,6.5278167E9,3.9477745E9,0E0,0E0,0E0,0E0,0E0,0E0,0E0,0E0],"parents":[2147483647,0,0,1,1,2,2,3,3,4,4,5,5,6,6],"right_children":[2,4,6,8,10,12,14,-1,-1,-1,-1,-1,-1,-1,-1],"split_conditions":[8.42886E4,8.207892E4,8.523306E4,8.193636E4,1.782E3,8.896E3,8.747838E4,-1.8452324E2,5.202951E3,-5.8612783E3,-2.199723E3,2.3337537E2,5.8770054E3,-1.2998942E3,1.7701419E2],"split_indices":[3,3,3,3,60,2,3,0,0,0,0,0,0,0,0],"split_type":[0,0,0,0,0,0,0,0,0,0,0,0,0,0,0],"sum_hessian":[1.35E3,3.75E2,9.75E2,3.18E2,5.7E1,3.2E1,9.43E2,3.07E2,1.1E1,7E0,5E1,1.6E1,1.6E1,7.8E1,8.65E2],"tree_param":{"num_deleted":"0","num_feature":"61","num_nodes":"15","size_leaf_vector":"1"}},{"base_weights":[4.4249716E0,-7.918212E3,1.903427E2,-1.444668E3,-4.1291707E4,1.5242031E4,-1.8318007E2,-3.4658813E3,9.962922E2,-1.0306722E4,-3.4571814E3,1.4321562E2,8.581659E3,-9.745454E2,7.1117516E1],"categories":[],"categories_nodes":[],"categories_segments":[],"categories_sizes":[],"default_left":[0,0,0,0,0,0,0,0,0,0,0,0,0,0,0],"id":60,"left_children":[1,3,5,7,9,11,13,-1,-1,-1,-1,-1,-1,-1,-1],"loss_changes":[1.9914742E9,6.6377354E9,7.4296504E9,2.842415E9,3.3852006E8,1.2829398E10,3.2610163E9,0E0,0E0,0E0,0E0,0E0,0E0,0E0,0E0],"parents":[2147483647,0,0,1,1,2,2,3,3,4,4,5,5,6,6],"right_children":[2,4,6,8,10,12,14,-1,-1,-1,-1,-1,-1,-1,-1],"split_conditions":[5.636466E4,3.6216842E9,6.399162E4,2.231E3,4.009E3,6.1871043E4,7.853274E4,-3.4658813E3,9.962922E2,-1.0306722E4,-3.4571814E3,1.4321562E2,8.581659E3,-9.745454E2,7.1117516E1],"split_indices":[3,0,3,2,2,3,3,0,0,0,0,0,0,0,0],"split_type":[0,0,0,0,0,0,0,0,0,0,0,0,0,0,0],"sum_hessian":[1.35E3,3E1,1.32E3,2.6E1,4E0,3.1E1,1.289E3,7E0,1.9E1,2E0,2E0,2.1E1,1E1,1.32E2,1.157E3],"tree_param":{"num_deleted":"0","num_feature":"61","num_nodes":"15","size_leaf_vector":"1"}},{"base_weights":[-2.6933074E0,-2.338786E3,6.157509E2,-7.357423E3,-8.385567E2,2.1604766E4,-1.5769704E2,-2.2768274E2,-5.9862144E3,-4.0616708E2,2.0999272E3,6.4775776E3,-2.2998857E4,-9.276398E3,1.1393678E2],"categories":[],"categories_nodes":[],"categories_segments":[],"categories_sizes":[],"default_left":[0,0,0,0,0,0,0,0,0,0,0,0,0,0,0],"id":61,"left_children":[1,3,5,7,9,11,13,-1,-1,-1,-1,-1,-1,-1,-1],"loss_changes":[1.9532881E9,2.1245672E9,1.7357457E10,9.090998E9,2.9818276E9,5.969707E10,3.4725016E10,0E0,0E0,0E0,0E0,0E0,0E0,0E0,0E0],"parents":[2147483647,0,0,1,1,2,2,3,3,4,4,5,5,6,6],"right_children":[2,4,6,8,10,12,14,-1,-1,-1,-1,-1,-1,-1,-1],"split_conditions":[1.1034938E9,1.6645662E5,1.2590944E9,1.6597548E5,1.782E3,1.782E3,1.3226048E9,-2.2768274E2,-5.9862144E3,-4.0616708E2,2.0999272E3,6.4775776E3,-2.2998857E4,-9.276398E3,1.1393678E2],"split_indices":[0,3,0,3,59,59,0,0,0,0,0,0,0,0,0],"split_type":[0,0,0,0,0,0,0,0,0,0,0,0,0,0,0],"sum_hessian":[1.35E3,2.82E2,1.068E3,6.4E1,2.18E2,3.7E1,1.031E3,5.1E1,1.3E1,1.98E2,2E1,3.5E1,2E0,1.5E1,1.016E3],"tree_param":{"num_deleted":"0","num_feature":"61","num_nodes":"15","size_leaf_vector":"1"}},{"base_weights":[-2.451223E1,-1.2589689E2,1.5107056E4,-2.6274696E1,-2.6779541E4,-1.7691125E3,4.642863E3,-3.5988914E1,3.3964094E3,-1.401102E3,-7.5254116E3],"categories":[],"categories_nodes":[],"categories_segments":[],"categories_sizes":[],"default_left":[0,0,0,0,0,0,0,0,0,0,0],"id":62,"left_children":[1,3,5,7,9,-1,-1,-1,-1,-1,-1],"loss_changes":[2.074483E9,3.5653568E9,1.9530541E9,3.502755E9,8.088988E8,0E0,0E0,0E0,0E0,0E0,0E0],"parents":[2147483647,0,0,1,1,2,2,3,3,4,4],"right_children":[2,4,6,8,10,-1,-1,-1,-1,-1,-1],"split_conditions":[1.9712484E5,1.9364994E5,8.14521E8,1.9236689E5,7.9229235E8,-1.7691125E3,4.642863E3,-3.5988914E1,3.3964094E3,-1.401102E3,-7.5254116E3],"split_indices":[3,3,0,3,0,0,0,0,0,0,0],"split_type":[0,0,0,0,0,0,0,0,0,0,0],"sum_hessian":[1.35E3,1.342E3,8E0,1.338E3,4E0,2E0,6E0,1.327E3,1.1E1,2E0,2E0],"tree_param":{"num_deleted":"0","num_feature":"61","num_nodes":"11","size_leaf_vector":"1"}},{"base_weights":[-2.1591856E1,-1.5198775E2,9.643393E3,3.996702E1,-1.596676E4,1.599954E4,-3.0173438E2,-2.6579865E1,4.121486E3,1.8000903E2,-6.5892144E3,5.492217E3,2.0802598E3,-1.7100751E3,3.259225E3],"categories":[],"categories_nodes":[],"categories_segments":[],"categories_sizes":[],"default_left":[0,0,0,0,0,0,0,0,0,0,0,0,0,0,0],"id":63,"left_children":[1,3,5,7,9,11,13,-1,-1,-1,-1,-1,-1,-1,-1],"loss_changes":[1.7040961E9,4.05029E9,1.142656E9,4.6923407E9,4.611841E9,4.2017843E8,1.2346162E9,0E0,0E0,0E0,0E0,0E0,0E0,0E0,0E0],"parents":[2147483647,0,0,1,1,2,2,3,3,4,4,5,5,6,6],"right_children":[2,4,6,8,10,12,14,-1,-1,-1,-1,-1,-1,-1,-1],"split_conditions":[2.13E4,5.323765E9,1.782E3,5.2888346E9,1.3193928E5,4.6219745E9,9.5123164E4,-2.6579865E1,4.121486E3,1.8000903E2,-6.5892144E3,5.492217E3,2.0802598E3,-1.7100751E3,3.259225E3],"split_indices":[2,0,60,0,3,0,3,0,0,0,0,0,0,0,0],"split_type":[0,0,0,0,0,0,0,0,0,0,0,0,0,0,0],"sum_hessian":[1.35E3,1.333E3,1.7E1,1.318E3,1.5E1,1E1,7E0,1.308E3,1E1,8E0,7E0,2E0,8E0,5E0,2E0],"tree_param":{"num_deleted":"0","num_feature":"61","num_nodes":"15","size_leaf_vector":"1"}},{"base_weights":[-1.2227248E1,-1.0379347E2,1.3652848E4,-1.874205E1,-2.2859807E4,-1.5296833E3,4.1663105E3,1.2626232E1,-4.3750283E3,-4.5758127E2,-7.162354E3],"categories":[],"categories_nodes":[],"categories_segments":[],"categories_sizes":[],"default_left":[0,0,0,0,0,0,0,0,0,0,0],"id":64,"left_children":[1,3,5,7,9,-1,-1,-1,-1,-1,-1],"loss_changes":[1.6918684E9,2.5988557E9,1.535568E9,2.3974595E9,1.2502986E9,0E0,0E0,0E0,0E0,0E0,0E0],"parents":[2147483647,0,0,1,1,2,2,3,3,4,4],"right_children":[2,4,6,8,10,-1,-1,-1,-1,-1,-1],"split_conditions":[1.9712484E5,2.6556E4,8.14521E8,1.9364994E5,1.5811686E5,-1.5296833E3,4.1663105E3,1.2626232E1,-4.3750283E3,-4.5758127E2,-7.162354E3],"split_indices":[3,2,0,3,3,0,0,0,0,0,0],"split_type":[0,0,0,0,0,0,0,0,0,0,0],"sum_hessian":[1.35E3,1.342E3,8E0,1.338E3,4E0,2E0,6E0,1.334E3,4E0,2E0,2E0],"tree_param":{"num_deleted":"0","num_feature":"61","num_nodes":"11","size_leaf_vector":"1"}},{"base_weights":[-1.6698015E1,-5.9386255E2,2.0335555E3,2.1548427E2,-1.2924152E4,2.380411E4,3.246606E1,1.7373158E2,-1.3881088E3,-3.2974915E3,1.2134579E3,6.8858643E3,8.846725E2,-4.4322246E3,4.5212155E2],"categories":[],"categories_nodes":[],"categories_segments":[],"categories_sizes":[],"default_left":[0,0,0,0,0,0,0,0,0,0,0,0,0,0,0],"id":65,"left_children":[1,3,5,7,9,11,13,-1,-1,-1,-1,-1,-1,-1,-1],"loss_changes":[1.5998915E9,1.0531138E10,1.293798E10,4.63809E9,4.498732E9,4.9958195E9,1.3550074E10,0E0,0E0,0E0,0E0,0E0,0E0,0E0,0E0],"parents":[2147483647,0,0,1,1,2,2,3,3,4,4,5,5,6,6],"right_children":[2,4,6,8,10,12,14,-1,-1,-1,-1,-1,-1,-1,-1],"split_conditions":[4.2409114E9,9.322E3,7.924554E4,1.782E3,8.74071E4,4.479076E9,8.141958E4,1.7373158E2,-1.3881088E3,-3.2974915E3,1.2134579E3,6.8858643E3,8.846725E2,-4.4322246E3,4.5212155E2],"split_indices":[0,2,3,59,3,0,3,0,0,0,0,0,0,0,0],"split_type":[0,0,0,0,0,0,0,0,0,0,0,0,0,0,0],"sum_hessian":[1.35E3,1.054E3,2.96E2,9.9E2,6.4E1,2.4E1,2.72E2,9.08E2,8.2E1,5.4E1,1E1,1.5E1,9E0,2.4E1,2.48E2],"tree_param":{"num_deleted":"0","num_feature":"61","num_nodes":"15","size_leaf_vector":"1"}},{"base_weights":[-1.29882765E1,3.0285957E3,-5.5346747E2,-8.1901387E3,7.328861E3,1.5222223E3,-1.9485405E3,8.738973E2,-7.599845E3,8.390689E3,1.1140807E3,1.3900542E2,9.675735E3,-2.4109575E3,9.988959E1],"categories":[],"categories_nodes":[],"categories_segments":[],"categories_sizes":[],"default_left":[0,0,0,0,0,0,0,0,0,0,0,0,0,0,0],"id":66,"left_children":[1,3,5,7,9,11,13,-1,-1,-1,-1,-1,-1,-1,-1],"loss_changes":[2.2226025E9,9.901705E9,3.3272745E9,2.1506322E10,8.777411E9,1.7873236E10,1.7002385E10,0E0,0E0,0E0,0E0,0E0,0E0,0E0,0E0],"parents":[2147483647,0,0,1,1,2,2,3,3,4,4,5,5,6,6],"right_children":[2,4,6,8,10,12,14,-1,-1,-1,-1,-1,-1,-1,-1],"split_conditions":[1.782E3,4.25E2,9.99E2,1.1511265E9,1.7735292E9,9.54E2,2.7706437E9,8.738973E2,-7.599845E3,8.390689E3,1.1140807E3,1.3900542E2,9.675735E3,-2.4109575E3,9.988959E1],"split_indices":[60,2,2,0,0,2,0,0,0,0,0,0,0,0,0],"split_type":[0,0,0,0,0,0,0,0,0,0,0,0,0,0,0],"sum_hessian":[1.35E3,2.03E2,1.147E3,5.6E1,1.47E2,4.61E2,6.86E2,4E1,1.6E1,6E0,1.41E2,4.54E2,7E0,1.33E2,5.53E2],"tree_param":{"num_deleted":"0","num_feature":"61","num_nodes":"15","size_leaf_vector":"1"}},{"base_weights":[-2.77134E0,-2.1334248E3,5.612864E2,-2.7553684E3,6.1829023E3,1.6976588E4,-4.369694E1,8.749549E2,-6.907982E2,3.0909055E3,3.358173E-1,5.1936235E3,-1.9316125E4,-7.5863374E3,1.1048413E2],"categories":[],"categories_nodes":[],"categories_segments":[],"categories_sizes":[],"default_left":[0,0,0,0,0,0,0,0,0,0,0,0,0,0,0],"id":67,"left_children":[1,3,5,7,9,11,13,-1,-1,-1,-1,-1,-1,-1,-1],"loss_changes":[1.6248448E9,1.4807932E9,1.0616963E10,1.3301682E9,1.1461737E9,4.1308033E10,2.3329395E10,0E0,0E0,0E0,0E0,0E0,0E0,0E0,0E0],"parents":[2147483647,0,0,1,1,2,2,3,3,4,4,5,5,6,6],"right_children":[2,4,6,8,10,12,14,-1,-1,-1,-1,-1,-1,-1,-1],"split_conditions":[1.1034938E9,1.9160064E5,1.2590944E9,1.6396183E5,1.92456E5,1.782E3,1.3226048E9,8.749549E2,-6.907982E2,3.0909055E3,3.358173E-1,5.1936235E3,-1.9316125E4,-7.5863374E3,1.1048413E2],"split_indices":[0,3,0,3,3,59,0,0,0,0,0,0,0,0,0],"split_type":[0,0,0,0,0,0,0,0,0,0,0,0,0,0,0],"sum_hessian":[1.35E3,2.82E2,1.068E3,2.63E2,1.9E1,3.7E1,1.031E3,2.3E1,2.4E2,7E0,1.2E1,3.5E1,2E0,1.5E1,1.016E3],"tree_param":{"num_deleted":"0","num_feature":"61","num_nodes":"15","size_leaf_vector":"1"}},{"base_weights":[-1.5772651E1,-1.1488113E2,1.4775167E4,2.2251425E2,-5.0489336E3,-1.3674667E3,4.3853857E3,-5.9709463E0,7.049808E3,-2.3297046E3,1.0774319E3],"categories":[],"categories_nodes":[],"categories_segments":[],"categories_sizes":[],"default_left":[0,0,0,0,0,0,0,0,0,0,0],"id":68,"left_children":[1,3,5,7,9,-1,-1,-1,-1,-1,-1],"loss_changes":[1.9821382E9,2.2368512E9,1.5410287E9,1.112128E10,5.98591E9,0E0,0E0,0E0,0E0,0E0,0E0],"parents":[2147483647,0,0,1,1,2,2,3,3,4,4],"right_children":[2,4,6,8,10,-1,-1,-1,-1,-1,-1],"split_conditions":[1.9712484E5,1.5094E4,8.14521E8,1.4668E4,9.129186E4,-1.3674667E3,4.3853857E3,-5.9709463E0,7.049808E3,-2.3297046E3,1.0774319E3],"split_indices":[3,2,0,2,3,0,0,0,0,0,0],"split_type":[0,0,0,0,0,0,0,0,0,0,0],"sum_hessian":[1.35E3,1.342E3,8E0,1.257E3,8.5E1,2E0,6E0,1.249E3,8E0,5.2E1,3.3E1],"tree_param":{"num_deleted":"0","num_feature":"61","num_nodes":"11","size_leaf_vector":"1"}},{"base_weights":[-6.094074E0,-7.8121924E3,1.409734E2,7.0387646E3,-1.5214923E4,9.138417E3,-2.0383951E2,-1.521981E3,5.4504155E3,-7.589657E3,1.269875E2,-6.4623047E3,2.5088198E3,-1.0309426E3,6.8332664E1],"categories":[],"categories_nodes":[],"categories_segments":[],"categories_sizes":[],"default_left":[0,0,0,0,0,0,0,0,0,0,0,0,0,0,0],"id":69,"left_children":[1,3,5,7,9,11,13,-1,-1,-1,-1,-1,-1,-1,-1],"loss_changes":[1.5520806E9,2.8555348E9,4.1187937E9,2.8722693E9,6.149546E9,7.322419E9,3.455976E9,0E0,0E0,0E0,0E0,0E0,0E0,0E0,0E0],"parents":[2147483647,0,0,1,1,2,2,3,3,4,4,5,5,6,6],"right_children":[2,4,6,8,10,12,14,-1,-1,-1,-1,-1,-1,-1,-1],"split_conditions":[5.499252E4,3.5264184E9,6.559542E4,2.231E3,4.761E3,3.4120996E9,7.88535E4,-1.521981E3,5.4504155E3,-7.589657E3,1.269875E2,-6.4623047E3,2.5088198E3,-1.0309426E3,6.8332664E1],"split_indices":[3,0,3,2,2,0,3,0,0,0,0,0,0,0,0],"split_type":[0,0,0,0,0,0,0,0,0,0,0,0,0,0,0],"sum_hessian":[1.35E3,2.4E1,1.326E3,8E0,1.6E1,4.8E1,1.278E3,5E0,3E0,6E0,1E1,3E0,4.5E1,1.26E2,1.152E3],"tree_param":{"num_deleted":"0","num_feature":"61","num_nodes":"15","size_leaf_vector":"1"}},{"base_weights":[-1.1135396E1,-5.657517E3,1.8775027E2,9.73379E3,-1.1376031E4,2.3624758E4,-1.2125504E2,-2.7382332E3,6.353641E3,1.9008551E3,-2.8953762E3,8.95769E3,-3.2781948E1,5.475637E2,-1.271973E2],"categories":[],"categories_nodes":[],"categories_segments":[],"categories_sizes":[],"default_left":[0,0,0,0,0,0,0,0,0,0,0,0,0,0,0],"id":70,"left_children":[1,3,5,7,9,11,13,-1,-1,-1,-1,-1,-1,-1,-1],"loss_changes":[1.5182141E9,4.159441E9,9.461125E9,7.144961E9,2.3389798E9,8.566094E9,1.9001764E9,0E0,0E0,0E0,0E0,0E0,0E0,0E0,0E0],"parents":[2147483647,0,0,1,1,2,2,3,3,4,4,5,5,6,6],"right_children":[2,4,6,8,10,12,14,-1,-1,-1,-1,-1,-1,-1,-1],"split_conditions":[5.998212E4,3.5264184E9,6.399162E4,3.4946632E9,1.99E3,5.125E3,1.782E3,-2.7382332E3,6.353641E3,1.9008551E3,-2.8953762E3,8.95769E3,-3.2781948E1,5.475637E2,-1.271973E2],"split_indices":[3,0,3,0,2,2,60,0,0,0,0,0,0,0,0],"split_type":[0,0,0,0,0,0,0,0,0,0,0,0,0,0,0],"sum_hessian":[1.35E3,4.5E1,1.305E3,1.2E1,3.3E1,1.6E1,1.289E3,6E0,6E0,4E0,2.9E1,8E0,8E0,1.96E2,1.093E3],"tree_param":{"num_deleted":"0","num_feature":"61","num_nodes":"15","size_leaf_vector":"1"}},{"base_weights":[-5.9299245E-2,1.4459863E2,-8.0044624E3,9.1259575E0,1.6363543E4,-7.8033784E3,-1.7161682E3,-1.1341861E1,4.3300376E3,-4.551577E3,5.5171694E3,1.0936338E4,-2.1061538E3],"categories":[],"categories_nodes":[],"categories_segments":[],"categories_sizes":[],"default_left":[0,0,0,0,0,0,0,0,0,0,0,0,0],"id":71,"left_children":[1,3,5,7,9,-1,11,-1,-1,-1,-1,-1,-1],"loss_changes":[1.5654808E9,2.9177638E9,4.6134067E9,1.8790417E9,5.4571535E9,0E0,1.1015457E10,0E0,0E0,0E0,0E0,0E0,0E0],"parents":[2147483647,0,0,1,1,2,2,3,3,4,4,6,6],"right_children":[2,4,6,8,10,-1,12,-1,-1,-1,-1,-1,-1],"split_conditions":[5.323765E9,5.2888346E9,8.091E3,9.801E4,8.257E3,-7.8033784E3,8.397E3,-1.1341861E1,4.3300376E3,-4.551577E3,5.5171694E3,1.0936338E4,-2.1061538E3],"split_indices":[0,0,2,1,2,0,2,0,0,0,0,0,0],"split_type":[0,0,0,0,0,0,0,0,0,0,0,0,0],"sum_hessian":[1.35E3,1.327E3,2.3E1,1.317E3,1E1,3E0,2E1,1.314E3,3E0,2E0,8E0,2E0,1.8E1],"tree_param":{"num_deleted":"0","num_feature":"61","num_nodes":"13","size_leaf_vector":"1"}},{"base_weights":[4.6191506E0,-1.0221111E2,1.021421E4,8.578975E1,-1.3893707E4,3.35225E3,1.8804781E4,-4.9258602E1,9.3709564E2,-1.3248446E3,-7.536169E3,1.8538466E3,-2.3142917E3,4.9460835E3,1.931872E3],"categories":[],"categories_nodes":[],"categories_segments":[],"categories_sizes":[],"default_left":[0,0,0,0,0,0,0,0,0,0,0,0,0,0,0],"id":72,"left_children":[1,3,5,7,9,11,13,-1,-1,-1,-1,-1,-1,-1,-1],"loss_changes":[1.4745706E9,3.470376E9,7.622358E8,2.0189514E9,2.8629576E9,9.019884E8,8.627456E7,0E0,0E0,0E0,0E0,0E0,0E0,0E0,0E0],"parents":[2147483647,0,0,1,1,2,2,3,3,4,4,5,5,6,6],"right_children":[2,4,6,8,10,12,14,-1,-1,-1,-1,-1,-1,-1,-1],"split_conditions":[2.1728E4,5.323765E9,1.5811686E5,4.9935104E9,1.7515278E5,9.588942E4,3.564E3,-4.9258602E1,9.3709564E2,-1.3248446E3,-7.536169E3,1.8538466E3,-2.3142917E3,4.9460835E3,1.931872E3],"split_indices":[2,0,3,0,3,3,59,0,0,0,0,0,0,0,0],"split_type":[0,0,0,0,0,0,0,0,0,0,0,0,0,0,0],"sum_hessian":[1.35E3,1.337E3,1.3E1,1.32E3,1.7E1,8E0,5E0,1.232E3,8.8E1,1.4E1,3E0,6E0,2E0,2E0,3E0],"tree_param":{"num_deleted":"0","num_feature":"61","num_nodes":"15","size_leaf_vector":"1"}},{"base_weights":[2.5342398E0,-8.974646E1,1.3772583E4,-9.707448E0,-2.1506244E4,-1.1692125E3,4.0426125E3,-1.44709425E1,4.1833813E3,-3.3431042E2,-6.8344375E3],"categories":[],"categories_nodes":[],"categories_segments":[],"categories_sizes":[],"default_left":[0,0,0,0,0,0,0,0,0,0,0],"id":73,"left_children":[1,3,5,7,9,-1,-1,-1,-1,-1,-1],"loss_changes":[1.7179649E9,2.3019018E9,1.255348E9,1.7569358E9,1.1990049E9,0E0,0E0,0E0,0E0,0E0,0E0],"parents":[2147483647,0,0,1,1,2,2,3,3,4,4],"right_children":[2,4,6,8,10,-1,-1,-1,-1,-1,-1],"split_conditions":[1.9712484E5,2.6556E4,8.14521E8,3.564E3,1.5811686E5,-1.1692125E3,4.0426125E3,-1.44709425E1,4.1833813E3,-3.3431042E2,-6.8344375E3],"split_indices":[3,2,0,59,3,0,0,0,0,0,0],"split_type":[0,0,0,0,0,0,0,0,0,0,0],"sum_hessian":[1.35E3,1.342E3,8E0,1.338E3,4E0,2E0,6E0,1.335E3,3E0,2E0,2E0],"tree_param":{"num_deleted":"0","num_feature":"61","num_nodes":"11","size_leaf_vector":"1"}},{"base_weights":[1.9381361E0,1.0269532E3,-1.0322181E3,1.2430819E3,-7.1511055E3,-1.2261008E4,-1.888604E2,-1.6938832E2,1.1275868E3,-4.137217E3,2.4872697E2,2.6825427E3,-1.2719399E2],"categories":[],"categories_nodes":[],"categories_segments":[],"categories_sizes":[],"default_left":[0,0,0,0,0,0,0,0,0,0,0,0,0],"id":74,"left_children":[1,3,5,7,-1,9,11,-1,-1,-1,-1,-1,-1],"loss_changes":[1.433155E9,5.4423255E9,6.370919E9,6.2140677E9,0E0,5.3732746E9,3.8215644E9,0E0,0E0,0E0,0E0,0E0,0E0],"parents":[2147483647,0,0,1,1,2,2,3,3,5,5,6,6],"right_children":[2,4,6,8,-1,10,12,-1,-1,-1,-1,-1,-1],"split_conditions":[2.352E3,3.5581737E9,2.7E3,1.9196033E9,-7.1511055E3,2.5737613E9,3.039E3,-1.6938832E2,1.1275868E3,-4.137217E3,2.4872697E2,2.6825427E3,-1.2719399E2],"split_indices":[2,0,2,0,0,0,2,0,0,0,0,0,0],"split_type":[0,0,0,0,0,0,0,0,0,0,0,0,0],"sum_hessian":[1.35E3,6.78E2,6.72E2,6.75E2,3E0,4.6E1,6.26E2,4.58E2,2.17E2,2.8E1,1.8E1,1.9E1,6.07E2],"tree_param":{"num_deleted":"0","num_feature":"61","num_nodes":"13","size_leaf_vector":"1"}},{"base_weights":[-4.0276084E0,1.332207E3,-9.691754E2,5.241888E2,3.865937E4,-1.0515711E4,3.4470306E2,4.15457E2,-1.7485399E3,4.553803E3,1.1270413E4,-7.427026E2,-7.167656E3,-5.3431396E3,2.2163094E2],"categories":[],"categories_nodes":[],"categories_segments":[],"categories_sizes":[],"default_left":[0,0,0,0,0,0,0,0,0,0,0,0,0,0,0],"id":75,"left_children":[1,3,5,7,9,11,13,-1,-1,-1,-1,-1,-1,-1,-1],"loss_changes":[1.7436271E9,1.708104E10,9.849868E9,8.020317E9,2.0906373E9,1.623058E10,1.4305186E10,0E0,0E0,0E0,0E0,0E0,0E0,0E0,0E0],"parents":[2147483647,0,0,1,1,2,2,3,3,4,4,5,5,6,6],"right_children":[2,4,6,8,10,12,14,-1,-1,-1,-1,-1,-1,-1,-1],"split_conditions":[2.3165437E9,2.2657354E9,2.6944312E9,1.09E3,3.216E3,9.398268E4,1.025E3,4.15457E2,-1.7485399E3,4.553803E3,1.1270413E4,-7.427026E2,-7.167656E3,-5.3431396E3,2.2163094E2],"split_indices":[0,0,0,2,2,3,2,0,0,0,0,0,0,0,0],"split_type":[0,0,0,0,0,0,0,0,0,0,0,0,0,0,0],"sum_hessian":[1.35E3,5.66E2,7.84E2,5.55E2,1.1E1,9.4E1,6.9E2,4.76E2,7.9E1,7E0,4E0,7.5E1,1.9E1,1.8E1,6.72E2],"tree_param":{"num_deleted":"0","num_feature":"61","num_nodes":"15","size_leaf_vector":"1"}},{"base_weights":[-2.1445587E0,-1.644951E3,6.3074207E2,1.8062259E2,-1.1657244E4,1.2945444E4,1.9958118E2,-1.2313293E2,4.120722E3,-6.0055874E3,-1.8715192E3,4.646181E3,-1.947475E3,-1.0932986E3,1.4324655E2],"categories":[],"categories_nodes":[],"categories_segments":[],"categories_sizes":[],"default_left":[0,0,0,0,0,0,0,0,0,0,0,0,0,0,0],"id":76,"left_children":[1,3,5,7,9,11,13,-1,-1,-1,-1,-1,-1,-1,-1],"loss_changes":[1.4056861E9,6.874701E9,5.1796035E9,5.2004424E9,2.1692877E9,7.925214E9,2.7673674E9,0E0,0E0,0E0,0E0,0E0,0E0,0E0,0E0],"parents":[2147483647,0,0,1,1,2,2,3,3,4,4,5,5,6,6],"right_children":[2,4,6,8,10,12,14,-1,-1,-1,-1,-1,-1,-1,-1],"split_conditions":[8.42886E4,8.207892E4,8.523306E4,8.193636E4,8.234622E4,1.0589E4,8.747838E4,-1.2313293E2,4.120722E3,-6.0055874E3,-1.8715192E3,4.646181E3,-1.947475E3,-1.0932986E3,1.4324655E2],"split_indices":[3,3,3,3,3,2,3,0,0,0,0,0,0,0,0],"split_type":[0,0,0,0,0,0,0,0,0,0,0,0,0,0,0],"sum_hessian":[1.35E3,3.75E2,9.75E2,3.18E2,5.7E1,3.2E1,9.43E2,3.07E2,1.1E1,5E0,5.2E1,2.2E1,1E1,7.8E1,8.65E2],"tree_param":{"num_deleted":"0","num_feature":"61","num_nodes":"15","size_leaf_vector":"1"}},{"base_weights":[-3.2959685E0,-1.9843009E3,5.2114526E2,-6.137658E3,-7.425085E2,1.0273758E4,-2.67471E2,-2.3156755E2,-4.839146E3,1.1302933E3,-4.8572052E2,2.7888423E3,-1.7716523E4,-3.2356091E3,9.089866E1],"categories":[],"categories_nodes":[],"categories_segments":[],"categories_sizes":[],"default_left":[0,0,0,0,0,0,0,0,0,0,0,0,0,0,0],"id":77,"left_children":[1,3,5,7,9,11,13,-1,-1,-1,-1,-1,-1,-1,-1],"loss_changes":[1.4046158E9,1.4550458E9,8.2245007E9,5.817172E9,2.37473E9,3.026303E10,1.1379351E10,0E0,0E0,0E0,0E0,0E0,0E0,0E0,0E0],"parents":[2147483647,0,0,1,1,2,2,3,3,4,4,5,5,6,6],"right_children":[2,4,6,8,10,12,14,-1,-1,-1,-1,-1,-1,-1,-1],"split_conditions":[1.1034938E9,1.6645662E5,1.4432748E9,1.6597548E5,1.6877322E5,1.782E3,1.6242797E9,-2.3156755E2,-4.839146E3,1.1302933E3,-4.8572052E2,2.7888423E3,-1.7716523E4,-3.2356091E3,9.089866E1],"split_indices":[0,3,0,3,3,59,0,0,0,0,0,0,0,0,0],"split_type":[0,0,0,0,0,0,0,0,0,0,0,0,0,0,0],"sum_hessian":[1.35E3,2.82E2,1.068E3,6.4E1,2.18E2,7.9E1,9.89E2,5.1E1,1.3E1,4.5E1,1.73E2,7.7E1,2E0,4.2E1,9.47E2],"tree_param":{"num_deleted":"0","num_feature":"61","num_nodes":"15","size_leaf_vector":"1"}},{"base_weights":[-1.9288713E1,-1.1166985E2,1.3768174E4,3.4026817E1,-9.285242E3,-1.00046674E3,3.969159E3,-3.799564E2,1.388539E2,8.079146E3,-3.3281821E3],"categories":[],"categories_nodes":[],"categories_segments":[],"categories_sizes":[],"default_left":[0,0,0,0,0,0,0,0,0,0,0],"id":78,"left_children":[1,3,5,7,9,-1,-1,-1,-1,-1,-1],"loss_changes":[1.7223081E9,1.7953147E9,1.1259955E9,1.690503E9,8.3463916E9,0E0,0E0,0E0,0E0,0E0,0E0],"parents":[2147483647,0,0,1,1,2,2,3,3,4,4],"right_children":[2,4,6,8,10,-1,-1,-1,-1,-1,-1],"split_conditions":[1.9712484E5,5.323765E9,8.14521E8,1.3575356E9,8.257E3,-1.00046674E3,3.969159E3,-3.799564E2,1.388539E2,8.079146E3,-3.3281821E3],"split_indices":[3,0,0,0,2,0,0,0,0,0,0],"split_type":[0,0,0,0,0,0,0,0,0,0,0],"sum_hessian":[1.35E3,1.342E3,8E0,1.322E3,2E1,2E0,6E0,3.36E2,9.86E2,2E0,1.8E1],"tree_param":{"num_deleted":"0","num_feature":"61","num_nodes":"11","size_leaf_vector":"1"}},{"base_weights":[-9.8918915E0,-1.0635653E3,1.0786548E3,-2.5297885E2,-1.2903432E4,2.4127928E4,4.732368E2,5.7600104E2,-3.3006253E2,-4.7880757E3,-8.6833734E2,-7.7009697E3,7.009191E3,7.7392975E2,-1.717409E2],"categories":[],"categories_nodes":[],"categories_segments":[],"categories_sizes":[],"default_left":[0,0,0,0,0,0,0,0,0,0,0,0,0,0,0],"id":79,"left_children":[1,3,5,7,9,11,13,-1,-1,-1,-1,-1,-1,-1,-1],"loss_changes":[1.5507073E9,6.590037E9,9.268286E9,2.8240717E9,4.0538604E9,1.2974489E10,2.939283E9,0E0,0E0,0E0,0E0,0E0,0E0,0E0,0E0],"parents":[2147483647,0,0,1,1,2,2,3,3,4,4,5,5,6,6],"right_children":[2,4,6,8,10,12,14,-1,-1,-1,-1,-1,-1,-1,-1],"split_conditions":[9.57825E4,9.398268E4,9.626364E4,3.949E3,8.209E3,6.33E2,1.6471027E5,5.7600104E2,-3.3006253E2,-4.7880757E3,-8.6833734E2,-7.7009697E3,7.009191E3,7.7392975E2,-1.717409E2],"split_indices":[3,3,3,2,2,2,3,0,0,0,0,0,0,0,0],"split_type":[0,0,0,0,0,0,0,0,0,0,0,0,0,0,0],"sum_hessian":[1.35E3,6.86E2,6.64E2,6.43E2,4.3E1,1.6E1,6.48E2,1.98E2,4.45E2,1.8E1,2.5E1,2E0,1.4E1,1.82E2,4.66E2],"tree_param":{"num_deleted":"0","num_feature":"61","num_nodes":"15","size_leaf_vector":"1"}},{"base_weights":[-1.1982637E1,-1.9817876E2,6.2569272E3,-2.3659138E1,-1.3501341E4,2.4057537E4,2.9316157E3,5.3885517E1,-8.307724E2,-5.920961E2,-6.466568E3,1.5853021E3,6.0282847E3,-1.075269E3,2.5228188E3],"categories":[],"categories_nodes":[],"categories_segments":[],"categories_sizes":[],"default_left":[0,0,0,0,0,0,0,0,0,0,0,0,0,0,0],"id":80,"left_children":[1,3,5,7,9,11,13,-1,-1,-1,-1,-1,-1,-1,-1],"loss_changes":[1.5781903E9,3.0480238E9,2.2379827E9,1.5711474E9,3.2787825E9,3.499195E8,2.802834E9,0E0,0E0,0E0,0E0,0E0,0E0,0E0,0E0],"parents":[2147483647,0,0,1,1,2,2,3,3,4,4,5,5,6,6],"right_children":[2,4,6,8,10,12,14,-1,-1,-1,-1,-1,-1,-1,-1],"split_conditions":[1.9047798E5,1.8923058E5,6.906756E8,1.5094E4,8.367497E8,6.493938E8,8.14521E8,5.3885517E1,-8.307724E2,-5.920961E2,-6.466568E3,1.5853021E3,6.0282847E3,-1.075269E3,2.5228188E3],"split_indices":[3,3,0,2,0,0,0,0,0,0,0,0,0,0,0],"split_type":[0,0,0,0,0,0,0,0,0,0,0,0,0,0,0],"sum_hessian":[1.35E3,1.312E3,3.8E1,1.296E3,1.6E1,5E0,3.3E1,1.211E3,8.5E1,1.1E1,5E0,2E0,3E0,1.8E1,1.5E1],"tree_param":{"num_deleted":"0","num_feature":"61","num_nodes":"15","size_leaf_vector":"1"}},{"base_weights":[-8.670458E0,2.5354949E3,-4.6076196E2,-6.103063E3,5.845375E3,5.0626284E3,-5.503994E2,7.7967377E2,-5.2622207E3,5.3351777E3,6.5909973E2,-8.17996E2,5.742015E0],"categories":[],"categories_nodes":[],"categories_segments":[],"categories_sizes":[],"default_left":[0,0,0,0,0,0,0,0,0,0,0,0,0],"id":81,"left_children":[1,3,5,7,9,-1,11,-1,-1,-1,-1,-1,-1],"loss_changes":[1.5550825E9,5.8685635E9,2.6661637E9,1.1622803E10,7.773145E9,0E0,2.3471437E9,0E0,0E0,0E0,0E0,0E0,0E0],"parents":[2147483647,0,0,1,1,2,2,3,3,4,4,6,6],"right_children":[2,4,6,8,10,-1,12,-1,-1,-1,-1,-1,-1],"split_conditions":[1.782E3,4.25E2,1.7464492E7,1.1352489E9,7.20819E4,5.0626284E3,7.88535E4,7.7967377E2,-5.2622207E3,5.3351777E3,6.5909973E2,-8.17996E2,5.742015E0],"split_indices":[60,2,0,0,3,0,3,0,0,0,0,0,0],"split_type":[0,0,0,0,0,0,0,0,0,0,0,0,0],"sum_hessian":[1.35E3,2.03E2,1.147E3,5.6E1,1.47E2,3E0,1.144E3,3.8E1,1.8E1,1.5E1,1.32E2,1.6E2,9.84E2],"tree_param":{"num_deleted":"0","num_feature":"61","num_nodes":"13","size_leaf_vector":"1"}},{"base_weights":[-2.6778543E0,1.2053685E3,-8.7523785E2,5.4181915E2,3.1849375E4,-8.311153E3,3.4885382E2,3.7951462E2,-1.5581694E3,3.652119E3,9.444311E3,7.930693E2,-3.3483152E3,-8.29983E3,1.0697587E2],"categories":[],"categories_nodes":[],"categories_segments":[],"categories_sizes":[],"default_left":[0,0,0,0,0,0,0,0,0,0,0,0,0,0,0],"id":82,"left_children":[1,3,5,7,9,11,13,-1,-1,-1,-1,-1,-1,-1,-1],"loss_changes":[1.4251346E9,1.1512014E10,7.1481595E9,6.295941E9,1.6443771E9,1.1554449E10,5.276934E9,0E0,0E0,0E0,0E0,0E0,0E0,0E0,0E0],"parents":[2147483647,0,0,1,1,2,2,3,3,4,4,5,5,6,6],"right_children":[2,4,6,8,10,12,14,-1,-1,-1,-1,-1,-1,-1,-1],"split_conditions":[2.3165437E9,2.2657354E9,2.754766E9,1.195E3,3.216E3,7.36E2,1.95E2,3.7951462E2,-1.5581694E3,3.652119E3,9.444311E3,7.930693E2,-3.3483152E3,-8.29983E3,1.0697587E2],"split_indices":[0,0,0,2,2,2,2,0,0,0,0,0,0,0,0],"split_type":[0,0,0,0,0,0,0,0,0,0,0,0,0,0,0],"sum_hessian":[1.35E3,5.66E2,7.84E2,5.55E2,1.1E1,1.1E2,6.74E2,4.78E2,7.7E1,7E0,4E0,4.5E1,6.5E1,2E0,6.72E2],"tree_param":{"num_deleted":"0","num_feature":"61","num_nodes":"15","size_leaf_vector":"1"}},{"base_weights":[-1.2756032E0,-1.8383903E3,6.183657E2,-2.0850797E2,-2.5462205E4,3.561587E4,-1.5998126E2,-3.5033365E2,3.1894019E3,-6.71247E3,-6.62025E2,3.950024E3,1.2182436E4,-2.5023662E3,8.009015E1],"categories":[],"categories_nodes":[],"categories_segments":[],"categories_sizes":[],"default_left":[0,0,0,0,0,0,0,0,0,0,0,0,0,0,0],"id":83,"left_children":[1,3,5,7,9,11,13,-1,-1,-1,-1,-1,-1,-1,-1],"loss_changes":[1.5390505E9,1.3124569E10,2.7545543E10,8.00571E9,3.8364764E9,7.6265656E9,6.8581586E9,0E0,0E0,0E0,0E0,0E0,0E0,0E0,0E0],"parents":[2147483647,0,0,1,1,2,2,3,3,4,4,5,5,6,6],"right_children":[2,4,6,8,10,12,14,-1,-1,-1,-1,-1,-1,-1,-1],"split_conditions":[1.3575356E9,1.2590944E9,1.4432748E9,1.1511265E9,1.3226048E9,1.8008892E5,1.6242797E9,-3.5033365E2,3.1894019E3,-6.71247E3,-6.62025E2,3.950024E3,1.2182436E4,-2.5023662E3,8.009015E1],"split_indices":[0,0,0,0,0,3,0,0,0,0,0,0,0,0,0],"split_type":[0,0,0,0,0,0,0,0,0,0,0,0,0,0,0],"sum_hessian":[1.35E3,3.4E2,1.01E3,3.19E2,2.1E1,2.1E1,9.89E2,2.92E2,2.7E1,1.5E1,6E0,1.4E1,7E0,4.2E1,9.47E2],"tree_param":{"num_deleted":"0","num_feature":"61","num_nodes":"15","size_leaf_vector":"1"}},{"base_weights":[5.7767873E0,-1.6273717E3,6.1426385E2,-7.501289E2,-5.9899893E3,4.629226E3,-2.8313992E2,-2.5666829E3,1.0403707E2,7.6873956E0,2.7168796E3,-6.8709624E3,2.8942871E1],"categories":[],"categories_nodes":[],"categories_segments":[],"categories_sizes":[],"default_left":[0,0,0,0,0,0,0,0,0,0,0,0,0],"id":84,"left_children":[1,3,5,7,-1,9,11,-1,-1,-1,-1,-1,-1],"loss_changes":[1.3435555E9,9.095934E9,3.550307E9,5.486472E9,0E0,7.399512E9,1.1754608E10,0E0,0E0,0E0,0E0,0E0,0E0],"parents":[2147483647,0,0,1,1,2,2,3,3,5,5,6,6],"right_children":[2,4,6,8,-1,10,12,-1,-1,-1,-1,-1,-1],"split_conditions":[8.3932195E4,8.33976E4,8.920692E4,1.586E3,-5.9899893E3,8.747838E4,8.967024E4,-2.5666829E3,1.0403707E2,7.6873956E0,2.7168796E3,-6.8709624E3,2.8942871E1],"split_indices":[3,3,3,2,0,3,3,0,0,0,0,0,0],"split_type":[0,0,0,0,0,0,0,0,0,0,0,0,0],"sum_hessian":[1.35E3,3.66E2,9.84E2,3.56E2,1E1,1.79E2,8.05E2,3.3E1,3.23E2,1.19E2,6E1,9E0,7.96E2],"tree_param":{"num_deleted":"0","num_feature":"61","num_nodes":"13","size_leaf_vector":"1"}},{"base_weights":[-4.6814637E0,6.5653436E2,-1.5783634E3,1.4860724E2,1.1390422E4,-1.1580786E4,4.3283627E2,1.6213423E2,-4.865273E3,-2.278684E3,4.32864E3,-4.1757095E3,-1.2492162E3,-1.6423405E2,2.458637E3],"categories":[],"categories_nodes":[],"categories_segments":[],"categories_sizes":[],"default_left":[0,0,0,0,0,0,0,0,0,0,0,0,0,0,0],"id":85,"left_children":[1,3,5,7,9,11,13,-1,-1,-1,-1,-1,-1,-1,-1],"loss_changes":[1.4068105E9,5.1886423E9,8.05176E9,1.4765355E10,1.0291289E10,3.1928453E9,4.9776614E9,0E0,0E0,0E0,0E0,0E0,0E0,0E0,0E0],"parents":[2147483647,0,0,1,1,2,2,3,3,4,4,5,5,6,6],"right_children":[2,4,6,8,10,12,14,-1,-1,-1,-1,-1,-1,-1,-1],"split_conditions":[7.562E3,6.542E3,3.9201836E9,3.8407954E9,3.542296E9,8.896E3,9.57825E4,1.6213423E2,-4.865273E3,-2.278684E3,4.32864E3,-4.1757095E3,-1.2492162E3,-1.6423405E2,2.458637E3],"split_indices":[2,2,0,0,0,2,3,0,0,0,0,0,0,0,0],"split_type":[0,0,0,0,0,0,0,0,0,0,0,0,0,0,0],"sum_hessian":[1.35E3,9.51E2,3.99E2,9.09E2,4.2E1,6.6E1,3.33E2,8.86E2,2.3E1,1.3E1,2.9E1,2.3E1,4.3E1,3.02E2,3.1E1],"tree_param":{"num_deleted":"0","num_feature":"61","num_nodes":"15","size_leaf_vector":"1"}},{"base_weights":[-8.018857E0,-1.6440596E3,5.4380896E2,-3.1594592E2,-2.0887346E4,2.9043607E4,-9.006922E1,-3.114992E2,2.5374546E3,-5.489707E3,-5.8128754E2,1.770009E2,7.9095547E3,-2.0600535E3,7.688348E1],"categories":[],"categories_nodes":[],"categories_segments":[],"categories_sizes":[],"default_left":[0,0,0,0,0,0,0,0,0,0,0,0,0,0,0],"id":86,"left_children":[1,3,5,7,9,11,13,-1,-1,-1,-1,-1,-1,-1,-1],"loss_changes":[1.220594E9,8.708431E9,1.8266737E10,5.1858867E9,2.5156977E9,6.4722166E9,4.8001157E9,0E0,0E0,0E0,0E0,0E0,0E0,0E0,0E0],"parents":[2147483647,0,0,1,1,2,2,3,3,4,4,5,5,6,6],"right_children":[2,4,6,8,10,12,14,-1,-1,-1,-1,-1,-1,-1,-1],"split_conditions":[1.3575356E9,1.2590944E9,1.4432748E9,1.1511265E9,1.3226048E9,1.7764758E5,2.15E2,-3.114992E2,2.5374546E3,-5.489707E3,-5.8128754E2,1.770009E2,7.9095547E3,-2.0600535E3,7.688348E1],"split_indices":[0,0,0,0,0,3,2,0,0,0,0,0,0,0,0],"split_type":[0,0,0,0,0,0,0,0,0,0,0,0,0,0,0],"sum_hessian":[1.35E3,3.4E2,1.01E3,3.19E2,2.1E1,2.1E1,9.89E2,2.92E2,2.7E1,1.5E1,6E0,6E0,1.5E1,4.3E1,9.46E2],"tree_param":{"num_deleted":"0","num_feature":"61","num_nodes":"15","size_leaf_vector":"1"}},{"base_weights":[-4.737343E0,-4.8708063E2,1.9645468E3,2.1376558E2,-2.2178375E4,-2.1194023E2,1.29507295E4,6.1127185E2,-1.6901654E2,-1.1752133E4,-2.4481433E3,3.1915042E2,-7.0392344E3,5.002905E3,-2.4080483E3],"categories":[],"categories_nodes":[],"categories_segments":[],"categories_sizes":[],"default_left":[0,0,0,0,0,0,0,0,0,0,0,0,0,0,0],"id":87,"left_children":[1,3,5,7,9,11,13,-1,-1,-1,-1,-1,-1,-1,-1],"loss_changes":[1.2842326E9,1.6514396E10,6.363146E9,3.1719813E9,1.1641166E10,1.4158846E10,1.3566563E10,0E0,0E0,0E0,0E0,0E0,0E0,0E0,0E0],"parents":[2147483647,0,0,1,1,2,2,3,3,4,4,5,5,6,6],"right_children":[2,4,6,8,10,12,14,-1,-1,-1,-1,-1,-1,-1,-1],"split_conditions":[1.735668E5,1.7185608E5,1.7195453E9,2.348299E9,1.782E3,4.72E2,1.8497418E9,6.1127185E2,-1.6901654E2,-1.1752133E4,-2.4481433E3,3.1915042E2,-7.0392344E3,5.002905E3,-2.4080483E3],"split_indices":[3,3,0,0,60,2,0,0,0,0,0,0,0,0,0],"split_type":[0,0,0,0,0,0,0,0,0,0,0,0,0,0,0],"sum_hessian":[1.35E3,1.085E3,2.65E2,1.052E3,3.3E1,2.22E2,4.3E1,2.85E2,7.67E2,6E0,2.7E1,2.12E2,1E1,2.9E1,1.4E1],"tree_param":{"num_deleted":"0","num_feature":"61","num_nodes":"15","size_leaf_vector":"1"}},{"base_weights":[-1.702813E1,-9.782744E1,1.2041917E4,4.1113304E1,-8.846436E3,-7.3195E2,3.4101855E3,-4.730707E1,7.695056E2,-1.8050493E2,-1.12418125E4],"categories":[],"categories_nodes":[],"categories_segments":[],"categories_sizes":[],"default_left":[0,0,0,0,0,0,0,0,0,0,0],"id":88,"left_children":[1,3,5,7,9,-1,-1,-1,-1,-1,-1],"loss_changes":[1.3175309E9,1.6328316E9,7.702506E8,1.3991173E9,7.850405E9,0E0,0E0,0E0,0E0,0E0,0E0],"parents":[2147483647,0,0,1,1,2,2,3,3,4,4],"right_children":[2,4,6,8,10,-1,-1,-1,-1,-1,-1],"split_conditions":[1.9712484E5,5.323765E9,8.14521E8,4.9935104E9,1.8579133E5,-7.3195E2,3.4101855E3,-4.730707E1,7.695056E2,-1.8050493E2,-1.12418125E4],"split_indices":[3,0,0,0,3,0,0,0,0,0,0],"split_type":[0,0,0,0,0,0,0,0,0,0,0],"sum_hessian":[1.35E3,1.342E3,8E0,1.322E3,2E1,2E0,6E0,1.233E3,8.9E1,1.8E1,2E0],"tree_param":{"num_deleted":"0","num_feature":"61","num_nodes":"11","size_leaf_vector":"1"}},{"base_weights":[-1.9554888E1,2.333687E3,-4.3770978E2,-2.4257475E4,3.2619924E3,-3.3548605E2,-3.9676763E3,-5.4814166E2,-1.0406585E4,3.615711E3,3.7202097E2,4.2323315E3,-8.212407E1],"categories":[],"categories_nodes":[],"categories_segments":[],"categories_sizes":[],"default_left":[0,0,0,0,0,0,0,0,0,0,0,0,0],"id":89,"left_children":[1,3,5,7,9,11,-1,-1,-1,-1,-1,-1,-1],"loss_changes":[1.330432E9,5.11481E9,2.2700682E9,4.0408579E9,4.0790607E9,1.8548314E9,0E0,0E0,0E0,0E0,0E0,0E0,0E0],"parents":[2147483647,0,0,1,1,2,2,3,3,4,4,5,5],"right_children":[2,4,6,8,10,12,-1,-1,-1,-1,-1,-1,-1],"split_conditions":[1.782E3,1.7464492E7,5.323765E9,4.9005E4,7.20819E4,1.7464492E7,-3.9676763E3,-5.4814166E2,-1.0406585E4,3.615711E3,3.7202097E2,4.2323315E3,-8.212407E1],"split_indices":[60,0,0,1,3,0,0,0,0,0,0,0,0],"split_type":[0,0,0,0,0,0,0,0,0,0,0,0,0],"sum_hessian":[1.35E3,2.03E2,1.147E3,6E0,1.97E2,1.142E3,5E0,4E0,2E0,1.6E1,1.81E2,3E0,1.139E3],"tree_param":{"num_deleted":"0","num_feature":"61","num_nodes":"13","size_leaf_vector":"1"}},{"base_weights":[-2.0664547E1,-1.8266562E2,5.4339014E3,-4.0331154E1,-1.1031203E4,3.4171597E3,5.69915E3,3.899793E1,-1.0715696E3,-3.372927E3,2.428722E3,1.2184138E3,-5.7858335E3],"categories":[],"categories_nodes":[],"categories_segments":[],"categories_sizes":[],"default_left":[0,0,0,0,0,0,0,0,0,0,0,0,0],"id":90,"left_children":[1,3,5,7,9,11,-1,-1,-1,-1,-1,-1,-1],"loss_changes":[1.1947978E9,2.0269856E9,1.7165073E9,1.6240096E9,2.5030052E9,3.3776072E9,0E0,0E0,0E0,0E0,0E0,0E0,0E0],"parents":[2147483647,0,0,1,1,2,2,3,3,4,4,5,5],"right_children":[2,4,6,8,10,12,-1,-1,-1,-1,-1,-1,-1],"split_conditions":[1.9047798E5,1.8923058E5,3.489E3,1.651E4,1.782E3,2.2657354E9,5.69915E3,3.899793E1,-1.0715696E3,-3.372927E3,2.428722E3,1.2184138E3,-5.7858335E3],"split_indices":[3,3,2,2,59,0,0,0,0,0,0,0,0],"split_type":[0,0,0,0,0,0,0,0,0,0,0,0,0],"sum_hessian":[1.35E3,1.312E3,3.8E1,1.296E3,1.6E1,3.6E1,2E0,1.242E3,5.4E1,1.3E1,3E0,3.4E1,2E0],"tree_param":{"num_deleted":"0","num_feature":"61","num_nodes":"13","size_leaf_vector":"1"}},{"base_weights":[-1.7158663E1,-1.250232E2,7.9777554E3,-6.1257748E1,-5.679042E3,3.2394753E3,1.9649387E4,2.7010313E1,-1.3146259E3,2.0942883E3,-1.6296771E3,5.04815E3,1.5016459E3],"categories":[],"categories_nodes":[],"categories_segments":[],"categories_sizes":[],"default_left":[0,0,0,0,0,0,0,0,0,0,0,0,0],"id":91,"left_children":[1,3,5,7,-1,9,11,-1,-1,-1,-1,-1,-1],"loss_changes":[1.1660561E9,2.4030106E9,9.318085E8,1.7036378E9,0E0,1.238318E9,1.4991475E8,0E0,0E0,0E0,0E0,0E0,0E0],"parents":[2147483647,0,0,1,1,2,2,3,3,5,5,6,6],"right_children":[2,4,6,8,-1,10,12,-1,-1,-1,-1,-1,-1],"split_conditions":[2.13E4,8.240483E9,1.637658E5,1.651E4,-5.679042E3,9.588942E4,1.8579133E5,2.7010313E1,-1.3146259E3,2.0942883E3,-1.6296771E3,5.04815E3,1.5016459E3],"split_indices":[2,0,3,2,0,3,3,0,0,0,0,0,0],"split_type":[0,0,0,0,0,0,0,0,0,0,0,0,0],"sum_hessian":[1.35E3,1.333E3,1.7E1,1.331E3,2E0,1.3E1,4E0,1.293E3,3.8E1,8E0,5E0,2E0,2E0],"tree_param":{"num_deleted":"0","num_feature":"61","num_nodes":"13","size_leaf_vector":"1"}},{"base_weights":[-1.3682058E1,-1.4704169E3,4.7767328E2,-3.9100372E2,-1.7104133E4,2.3358357E4,-3.126886E1,-2.8701395E2,2.109673E3,-2.4723396E3,-8.6038E3,2.2714387E3,8.588148E3,-1.7449521E3,7.4537125E1],"categories":[],"categories_nodes":[],"categories_segments":[],"categories_sizes":[],"default_left":[0,0,0,0,0,0,0,0,0,0,0,0,0,0,0],"id":92,"left_children":[1,3,5,7,9,11,13,-1,-1,-1,-1,-1,-1,-1,-1],"loss_changes":[9.6771354E8,5.7477683E9,1.1773769E10,3.6699927E9,2.1720038E9,4.6825636E9,3.4799086E9,0E0,