{"learner":{"attributes":{"scikit_learn":"{\"_estimator_type\": \"regressor\"}"},"feature_names":["store_nbr","onpromotion","oil_price","family_AUTOMOTIVE","family_BABY CARE","family_BEAUTY","family_BEVERAGES","family_BOOKS","family_BREAD/BAKERY","family_CELEBRATION","family_CLEANING","family_DAIRY","family_DELI","family_EGGS","family_FROZEN FOODS","family_GROCERY I","family_GROCERY II","family_HARDWARE","family_HOME AND KITCHEN I","family_HOME AND KITCHEN II","family_HOME APPLIANCES","family_HOME CARE","family_LADIESWEAR","family_LAWN AND GARDEN","family_LINGERIE","family_LIQUOR,WINE,BEER","family_MAGAZINES","family_MEATS","family_PERSONAL CARE","family_PET SUPPLIES","family_PLAYERS AND ELECTRONICS","family_POULTRY","family_PREPARED FOODS","family_PRODUCE","family_SCHOOL AND OFFICE SUPPLIES","family_SEAFOOD","store_city_Ambato","store_city_Babahoyo","store_city_Cayambe","store_city_Cuenca","store_city_Daule","store_city_El Carmen","store_city_Esmeraldas","store_city_Guaranda","store_city_Guayaquil","store_city_Ibarra","store_city_Latacunga","store_city_Libertad","store_city_Loja","store_city_Machala","store_city_Manta","store_city_Playas","store_city_Puyo","store_city_Quevedo","store_city_Quito","store_city_Riobamba","store_city_Salinas","store_city_Santo Domingo","holiday_type_Holiday","holiday_type_No Event"],"feature_types":["int","int","float","int","int","int","int","int","int","int","int","int","int","int","int","int","int","int","int","int","int","int","int","int","int","int","int","int","int","int","int","int","int","int","int","int","int","int","int","int","int","int","int","int","int","int","int","int","int","int","int","int","int","int","int","int","int","int","int","int"],"gradient_booster":{"model":{"gbtree_model_param":{"num_parallel_tree":"1","num_trees":"200"},"iteration_indptr":[0,1,2,3,4,5,6,7,8,9,10,11,12,13,14,15,16,17,18,19,20,21,22,23,24,25,26,27,28,29,30,31,32,33,34,35,36,37,38,39,40,41,42,43,44,45,46,47,48,49,50,51,52,53,54,55,56,57,58,59,60,61,62,63,64,65,66,67,68,69,70,71,72,73,74,75,76,77,78,79,80,81,82,83,84,85,86,87,88,89,90,91,92,93,94,95,96,97,98,99,100,101,102,103,104,105,106,107,108,109,110,111,112,113,114,115,116,117,118,119,120,121,122,123,124,125,126,127,128,129,130,131,132,133,134,135,136,137,138,139,140,141,142,143,144,145,146,147,148,149,150,151,152,153,154,155,156,157,158,159,160,161,162,163,164,165,166,167,168,169,170,171,172,173,174,175,176,177,178,179,180,181,182,183,184,185,186,187,188,189,190,191,192,193,194,195,196,197,198,199,200],"tree_info":[0,0,0,0,0,0,0,0,0,0,0,0,0,0,0,0,0,0,0,0,0,0,0,0,0,0,0,0,0,0,0,0,0,0,0,0,0,0,0,0,0,0,0,0,0,0,0,0,0,0,0,0,0,0,0,0,0,0,0,0,0,0,0,0,0,0,0,0,0,0,0,0,0,0,0,0,0,0,0,0,0,0,0,0,0,0,0,0,0,0,0,0,0,0,0,0,0,0,0,0,0,0,0,0,0,0,0,0,0,0,0,0,0,0,0,0,0,0,0,0,0,0,0,0,0,0,0,0,0,0,0,0,0,0,0,0,0,0,0,0,0,0,0,0,0,0,0,0,0,0,0,0,0,0,0,0,0,0,0,0,0,0,0,0,0,0,0,0,0,0,0,0,0,0,0,0,0,0,0,0,0,0,0,0,0,0,0,0,0,0,0,0,0,0,0,0,0,0,0,0],"trees":[{"base_weights":[5.111954E-3,-1.18238164E5,6.3832457E4,-7.420941E4,-1.1475183E5,5.1146605E4,1.4066498E5,-2.3410184E4,3.635594E4,3.5435408E3,1.598328E4],"categories":[],"categories_nodes":[],"categories_segments":[],"categories_sizes":[],"default_left":[0,0,0,0,0,0,0,0,0,0,0],"id":0,"left_children":[1,3,5,-1,7,9,-1,-1,-1,-1,-1],"loss_changes":[1.0204129E13,3.7519412E11,7.086808E12,0E0,3.4101894E11,8.276062E11,0E0,0E0,0E0,0E0,0E0],"parents":[2147483647,0,0,1,1,2,2,4,4,5,5],"right_children":[2,4,6,-1,8,10,-1,-1,-1,-1,-1],"split_conditions":[6.33E2,6.675372E4,9.801E4,-7.420941E4,9.801E4,5.648E3,1.4066498E5,-2.3410184E4,3.635594E4,3.5435408E3,1.598328E4],"split_indices":[1,2,0,0,0,1,0,0,0,0,0],"split_type":[0,0,0,0,0,0,0,0,0,0,0],"sum_hessian":[1.35E3,4.73E2,8.77E2,5E0,4.68E2,8.61E2,1.6E1,4.65E2,3E0,3.99E2,4.62E2],"tree_param":{"num_deleted":"0","num_feature":"60","num_nodes":"11","size_leaf_vector":"1"}},{"base_weights":[7.323346E1,-9.7254586E4,5.0099434E4,-6.1841176E4,-9.423926E4,3.994631E4,1.1418687E5,-1.9247305E4,3.090255E4,1.0847843E4,-2.3344812E3],"categories":[],"categories_nodes":[],"categories_segments":[],"categories_sizes":[],"default_left":[0,0,0,0,0,0,0,0,0,0,0],"id":1,"left_children":[1,3,5,-1,7,9,-1,-1,-1,-1,-1],"loss_changes":[6.5828123E12,2.6420943E11,4.6994686E12,0E0,2.4042825E11,6.4766765E11,0E0,0E0,0E0,0E0,0E0],"parents":[2147483647,0,0,1,1,2,2,4,4,5,5],"right_children":[2,4,6,-1,8,10,-1,-1,-1,-1,-1],"split_conditions":[5.92E2,6.675372E4,9.801E4,-6.1841176E4,9.801E4,9.92574E4,1.1418687E5,-1.9247305E4,3.090255E4,1.0847843E4,-2.3344812E3],"split_indices":[1,2,0,0,0,2,0,0,0,0,0],"split_type":[0,0,0,0,0,0,0,0,0,0,0],"sum_hessian":[1.35E3,4.58E2,8.92E2,5E0,4.53E2,8.76E2,1.6E1,4.5E2,3E0,6.86E2,1.9E2],"tree_param":{"num_deleted":"0","num_feature":"60","num_nodes":"11","size_leaf_vector":"1"}},{"base_weights":[1.1226168E2,-7.433561E4,4.283949E4,-8.378938E4,-3.0480367E4,3.4306316E4,9.269287E4,-5.54552E4,-1.6036977E4,-1.1424949E4,-5.034227E3,9.292929E3,-2.0837905E3],"categories":[],"categories_nodes":[],"categories_segments":[],"categories_sizes":[],"default_left":[0,0,0,0,0,0,0,0,0,0,0,0,0],"id":2,"left_children":[1,3,5,7,9,11,-1,-1,-1,-1,-1,-1,-1],"loss_changes":[4.300649E12,2.0184275E11,3.0672767E12,2.6022275E11,1.1152155E10,4.5889428E11,0E0,0E0,0E0,0E0,0E0,0E0,0E0],"parents":[2147483647,0,0,1,1,2,2,3,3,4,4,5,5],"right_children":[2,4,6,8,10,12,-1,-1,-1,-1,-1,-1,-1],"split_conditions":[7.12E2,2.15E2,9.801E4,9.588942E4,8.640918E4,9.727938E4,9.269287E4,-5.54552E4,-1.6036977E4,-1.1424949E4,-5.034227E3,9.292929E3,-2.0837905E3],"split_indices":[1,1,0,2,2,2,0,0,0,0,0,0,0],"split_type":[0,0,0,0,0,0,0,0,0,0,0,0,0],"sum_hessian":[1.35E3,4.92E2,8.58E2,4.04E2,8.8E1,8.42E2,1.6E1,6E0,3.98E2,1.3E1,7.5E1,6.62E2,1.8E2],"tree_param":{"num_deleted":"0","num_feature":"60","num_nodes":"13","size_leaf_vector":"1"}},{"base_weights":[9.864612E1,-5.8461598E4,3.534569E4,-5.9944445E4,2.8672713E4,2.8304293E4,7.52448E4,-1.3827219E4,-4.7677593E3,6.547773E3,-1.5243781E4],"categories":[],"categories_nodes":[],"categories_segments":[],"categories_sizes":[],"default_left":[0,0,0,0,0,0,0,0,0,0,0],"id":3,"left_children":[1,3,5,7,-1,9,-1,-1,-1,-1,-1],"loss_changes":[2.7906325E12,1.6062611E11,2.0151699E12,1.6594646E11,0E0,3.862863E11,0E0,0E0,0E0,0E0,0E0],"parents":[2147483647,0,0,1,1,2,2,3,3,5,5],"right_children":[2,4,6,8,-1,10,-1,-1,-1,-1,-1],"split_conditions":[7.69E2,9.801E4,9.801E4,2.15E2,2.8672713E4,1.6633188E5,7.52448E4,-1.3827219E4,-4.7677593E3,6.547773E3,-1.5243781E4],"split_indices":[1,0,0,1,0,2,0,0,0,0,0],"split_type":[0,0,0,0,0,0,0,0,0,0,0],"sum_hessian":[1.35E3,5.07E2,8.43E2,5.04E2,3E0,8.27E2,1.6E1,4.01E2,1.03E2,7.94E2,3.3E1],"tree_param":{"num_deleted":"0","num_feature":"60","num_nodes":"11","size_leaf_vector":"1"}},{"base_weights":[1.356293E2,-4.1658703E4,3.2495895E4,-5.249642E4,-1.0904494E4,2.6233219E4,3.054053E5,-3.998724E4,-1.0064419E4,-6.8410337E3,4.552121E3,6.871521E3,-4.6287607E3,5.0148105E4,8.407614E4],"categories":[],"categories_nodes":[],"categories_segments":[],"categories_sizes":[],"default_left":[0,0,0,0,0,0,0,0,0,0,0,0,0,0,0],"id":4,"left_children":[1,3,5,7,9,11,13,-1,-1,-1,-1,-1,-1,-1,-1],"loss_changes":[1.8285484E12,1.9607768E11,1.2943553E12,1.2971278E11,1.2236356E11,3.0005903E11,1.4403502E9,0E0,0E0,0E0,0E0,0E0,0E0,0E0,0E0],"parents":[2147483647,0,0,1,1,2,2,3,3,4,4,5,5,6,6],"right_children":[2,4,6,8,10,12,14,-1,-1,-1,-1,-1,-1,-1,-1],"split_conditions":[1.34E3,5.34E2,9.801E4,6.675372E4,1.0586862E5,1.016631E5,1.47015E5,-3.998724E4,-1.0064419E4,-6.8410337E3,4.552121E3,6.871521E3,-4.6287607E3,5.0148105E4,8.407614E4],"split_indices":[1,1,0,2,2,2,0,0,0,0,0,0,0,0,0],"split_type":[0,0,0,0,0,0,0,0,0,0,0,0,0,0,0],"sum_hessian":[1.35E3,5.89E2,7.61E2,4.35E2,1.54E2,7.45E2,1.6E1,5E0,4.3E2,9.1E1,6.3E1,6.4E2,1.05E2,1.3E1,3E0],"tree_param":{"num_deleted":"0","num_feature":"60","num_nodes":"15","size_leaf_vector":"1"}},{"base_weights":[1.7076297E2,-3.3415688E4,2.6175795E4,-4.3320805E4,-1.1668438E4,2.098957E4,2.5221978E5,-3.7578195E4,-8.135182E3,-5.202135E3,8.510483E2,5.3155664E3,-5.3057524E3,4.0834887E4,7.146473E4],"categories":[],"categories_nodes":[],"categories_segments":[],"categories_sizes":[],"default_left":[0,0,0,0,0,0,0,0,0,0,0,0,0,0,0],"id":5,"left_children":[1,3,5,7,9,11,13,-1,-1,-1,-1,-1,-1,-1,-1],"loss_changes":[1.1808605E12,1.265858E11,8.8801005E11,1.4721824E11,4.2589577E10,1.9880156E11,1.2889424E10,0E0,0E0,0E0,0E0,0E0,0E0,0E0,0E0],"parents":[2147483647,0,0,1,1,2,2,3,3,4,4,5,5,6,6],"right_children":[2,4,6,8,10,12,14,-1,-1,-1,-1,-1,-1,-1,-1],"split_conditions":[1.34E3,2.15E2,9.801E4,9.588942E4,1.0586862E5,1.073655E5,1.47015E5,-3.7578195E4,-8.135182E3,-5.202135E3,8.510483E2,5.3155664E3,-5.3057524E3,4.0834887E4,7.146473E4],"split_indices":[1,1,0,2,2,2,0,0,0,0,0,0,0,0,0],"split_type":[0,0,0,0,0,0,0,0,0,0,0,0,0,0,0],"sum_hessian":[1.35E3,5.89E2,7.61E2,4.04E2,1.85E2,7.45E2,1.6E1,6E0,3.98E2,9.7E1,8.8E1,6.67E2,7.8E1,1.3E1,3E0],"tree_param":{"num_deleted":"0","num_feature":"60","num_nodes":"15","size_leaf_vector":"1"}},{"base_weights":[1.8268529E2,-2.881168E3,2.0422617E5,-3.54366E4,1.300009E4,3.1152076E4,2.7198262E5,-9.659374E3,-4.552857E3,3.8990668E2,6.0791875E3,2.3317318E4,6.2164746E4],"categories":[],"categories_nodes":[],"categories_segments":[],"categories_sizes":[],"default_left":[0,0,0,0,0,0,0,0,0,0,0,0,0],"id":6,"left_children":[1,3,5,7,9,-1,11,-1,-1,-1,-1,-1,-1],"loss_changes":[8.451786E11,6.89133E11,2.3313318E10,7.011821E10,1.721822E11,0E0,6.012371E9,0E0,0E0,0E0,0E0,0E0,0E0],"parents":[2147483647,0,0,1,1,2,2,3,3,4,4,6,6],"right_children":[2,4,6,8,10,-1,12,-1,-1,-1,-1,-1,-1],"split_conditions":[9.801E4,5.64E2,2.1728E4,1.7338861E5,8.257E3,3.1152076E4,1.637658E5,-9.659374E3,-4.552857E3,3.8990668E2,6.0791875E3,2.3317318E4,6.2164746E4],"split_indices":[0,1,1,2,1,0,2,0,0,0,0,0,0],"split_type":[0,0,0,0,0,0,0,0,0,0,0,0,0],"sum_hessian":[1.35E3,1.331E3,1.9E1,4.36E2,8.95E2,1.3E1,6E0,2.15E2,2.21E2,5.48E2,3.47E2,2E0,4E0],"tree_param":{"num_deleted":"0","num_feature":"60","num_nodes":"13","size_leaf_vector":"1"}},{"base_weights":[2.2674667E2,-2.3107495E3,1.6921266E5,1.0967455E4,-2.7842932E4,1.3493069E5,5.452157E4,-2.6977498E3,3.222686E3,-7.5733423E3,-3.9727876E3,3.0324732E4,1.5811261E4],"categories":[],"categories_nodes":[],"categories_segments":[],"categories_sizes":[],"default_left":[0,0,0,0,0,0,0,0,0,0,0,0,0],"id":7,"left_children":[1,3,5,7,9,11,-1,-1,-1,-1,-1,-1,-1],"loss_changes":[5.7970124E11,4.5188206E11,3.4108604E10,1.1058869E11,3.571856E10,3.8692782E9,0E0,0E0,0E0,0E0,0E0,0E0,0E0],"parents":[2147483647,0,0,1,1,2,2,3,3,4,4,5,5],"right_children":[2,4,6,8,10,12,-1,-1,-1,-1,-1,-1,-1],"split_conditions":[9.801E4,1.6471027E5,1.47015E5,1.249E3,1.735668E5,1.8579133E5,5.452157E4,-2.6977498E3,3.222686E3,-7.5733423E3,-3.9727876E3,3.0324732E4,1.5811261E4],"split_indices":[0,2,0,1,2,2,0,0,0,0,0,0,0],"split_type":[0,0,0,0,0,0,0,0,0,0,0,0,0],"sum_hessian":[1.35E3,1.331E3,1.9E1,8.76E2,4.55E2,1.6E1,3E0,1.52E2,7.24E2,2E2,2.55E2,1.1E1,5E0],"tree_param":{"num_deleted":"0","num_feature":"60","num_nodes":"13","size_leaf_vector":"1"}},{"base_weights":[2.477437E2,-1.8568754E3,1.4040298E5,-2.3290186E4,8.456992E3,9.9364766E4,2.0242186E5,-2.5000146E4,-4.3619844E3,9.448713E1,4.2241587E3,2.2738436E4,7.0246406E3,1.6165042E4,4.6979094E4],"categories":[],"categories_nodes":[],"categories_segments":[],"categories_sizes":[],"default_left":[0,0,0,0,0,0,0,0,0,0,0,0,0,0,0],"id":8,"left_children":[1,3,5,7,9,11,13,-1,-1,-1,-1,-1,-1,-1,-1],"loss_changes":[3.9876978E11,2.946493E11,3.0789272E10,6.2465606E10,9.099336E10,8.89258E9,8.655307E9,0E0,0E0,0E0,0E0,0E0,0E0,0E0,0E0],"parents":[2147483647,0,0,1,1,2,2,3,3,4,4,5,5,6,6],"right_children":[2,4,6,8,10,12,14,-1,-1,-1,-1,-1,-1,-1,-1],"split_conditions":[9.801E4,5.34E2,2.1728E4,6.675372E4,8.257E3,1.6204E4,1.637658E5,-2.5000146E4,-4.3619844E3,9.448713E1,4.2241587E3,2.2738436E4,7.0246406E3,1.6165042E4,4.6979094E4],"split_indices":[0,1,1,2,1,1,2,0,0,0,0,0,0,0,0],"split_type":[0,0,0,0,0,0,0,0,0,0,0,0,0,0,0],"sum_hessian":[1.35E3,1.331E3,1.9E1,4.32E2,8.99E2,1.3E1,6E0,5E0,4.27E2,5.52E2,3.47E2,1E1,3E0,2E0,4E0],"tree_param":{"num_deleted":"0","num_feature":"60","num_nodes":"15","size_leaf_vector":"1"}},{"base_weights":[2.4842212E2,-1.5043069E3,1.1696775E5,7.192942E3,-1.897394E4,8.852614E4,4.172053E4,-5.673584E3,1.815195E3,-2.5614402E3,-6.7446055E3,2.0793262E4,8.578292E3],"categories":[],"categories_nodes":[],"categories_segments":[],"categories_sizes":[],"default_left":[0,0,0,0,0,0,0,0,0,0,0,0,0],"id":9,"left_children":[1,3,5,7,9,11,-1,-1,-1,-1,-1,-1,-1],"loss_changes":[2.7656E11,2.0251754E11,3.3658094E10,5.9853894E10,3.9860617E10,7.5190354E9,0E0,0E0,0E0,0E0,0E0,0E0,0E0],"parents":[2147483647,0,0,1,1,2,2,3,3,4,4,5,5],"right_children":[2,4,6,8,10,12,-1,-1,-1,-1,-1,-1,-1],"split_conditions":[9.801E4,1.6529833E5,1.47015E5,4.25E2,1.8368856E5,1.8579133E5,4.172053E4,-5.673584E3,1.815195E3,-2.5614402E3,-6.7446055E3,2.0793262E4,8.578292E3],"split_indices":[0,2,0,1,2,2,0,0,0,0,0,0,0],"split_type":[0,0,0,0,0,0,0,0,0,0,0,0,0],"sum_hessian":[1.35E3,1.331E3,1.9E1,8.89E2,4.42E2,1.6E1,3E0,4.4E1,8.45E2,3.13E2,1.29E2,1.1E1,5E0],"tree_param":{"num_deleted":"0","num_feature":"60","num_nodes":"13","size_leaf_vector":"1"}},{"base_weights":[2.4161832E2,-1.2133256E3,9.71288E4,-8.790796E3,1.2702781E4,5.5777426E4,1.4147188E5,7.209642E3,-2.7089521E3,1.4110922E3,6.9841133E3,1.802457E4,1.2823063E3,1.5142846E4,3.5787027E4],"categories":[],"categories_nodes":[],"categories_segments":[],"categories_sizes":[],"default_left":[0,0,0,0,0,0,0,0,0,0,0,0,0,0,0],"id":10,"left_children":[1,3,5,7,9,11,13,-1,-1,-1,-1,-1,-1,-1,-1],"loss_changes":[1.905621E11,1.4056958E11,2.8782002E10,1.8444801E11,5.8724975E10,1.9768087E10,8.623522E9,0E0,0E0,0E0,0E0,0E0,0E0,0E0,0E0],"parents":[2147483647,0,0,1,1,2,2,3,3,4,4,5,5,6,6],"right_children":[2,4,6,8,10,12,14,-1,-1,-1,-1,-1,-1,-1,-1],"split_conditions":[9.801E4,5.373E3,1.8245E4,7.26165E4,9.179082E4,8.257E3,1.637658E5,7.209642E3,-2.7089521E3,1.4110922E3,6.9841133E3,1.802457E4,1.2823063E3,1.5142846E4,3.5787027E4],"split_indices":[0,1,1,2,2,1,2,0,0,0,0,0,0,0,0],"split_type":[0,0,0,0,0,0,0,0,0,0,0,0,0,0,0],"sum_hessian":[1.35E3,1.331E3,1.9E1,8.62E2,4.69E2,1.1E1,8E0,8.2E1,7.8E2,3.75E2,9.4E1,6E0,5E0,4E0,4E0],"tree_param":{"num_deleted":"0","num_feature":"60","num_nodes":"15","size_leaf_vector":"1"}},{"base_weights":[2.5481998E2,-9.209863E2,8.738098E4,-6.330933E3,1.0664831E4,7.7089844E3,1.1743105E5,5.329461E3,-2.0234996E3,-9.815679E2,3.4047188E3,-2.481875E2,2.498836E3,1.722391E4,3.0061107E4],"categories":[],"categories_nodes":[],"categories_segments":[],"categories_sizes":[],"default_left":[0,0,0,0,0,0,0,0,0,0,0,0,0,0,0],"id":11,"left_children":[1,3,5,7,9,11,13,-1,-1,-1,-1,-1,-1,-1,-1],"loss_changes":[1.3848161E11,8.3680846E10,4.2189414E10,1.1390516E11,4.2168283E10,2.7246723E8,4.3728896E8,0E0,0E0,0E0,0E0,0E0,0E0,0E0,0E0],"parents":[2147483647,0,0,1,1,2,2,3,3,4,4,5,5,6,6],"right_children":[2,4,6,8,10,12,14,-1,-1,-1,-1,-1,-1,-1,-1],"split_conditions":[2.13E4,6.542E3,9.1095836E4,7.26165E4,8.157996E4,8.059986E4,1.637658E5,5.329461E3,-2.0234996E3,-9.815679E2,3.4047188E3,-2.481875E2,2.498836E3,1.722391E4,3.0061107E4],"split_indices":[1,1,2,2,2,2,2,0,0,0,0,0,0,0,0],"split_type":[0,0,0,0,0,0,0,0,0,0,0,0,0,0,0],"sum_hessian":[1.35E3,1.333E3,1.7E1,9.09E2,4.24E2,5E0,1.2E1,9.3E1,8.16E2,1.23E2,3.01E2,2E0,3E0,8E0,4E0],"tree_param":{"num_deleted":"0","num_feature":"60","num_nodes":"15","size_leaf_vector":"1"}},{"base_weights":[2.4476012E2,-8.2145325E2,7.124233E4,1.5039742E3,-2.2334283E4,4.7849875E4,3.0569938E4,-2.147015E4,3.913319E2,-6.8312305E3,-1.2205189E3,1.9038217E4,5.1921924E3],"categories":[],"categories_nodes":[],"categories_segments":[],"categories_sizes":[],"default_left":[0,0,0,0,0,0,0,0,0,0,0,0,0],"id":12,"left_children":[1,3,5,7,9,11,-1,-1,-1,-1,-1,-1,-1],"loss_changes":[1.0232727E11,6.666892E10,3.0866096E10,5.9490193E10,2.4737124E10,1.5144956E10,0E0,0E0,0E0,0E0,0E0,0E0,0E0],"parents":[2147483647,0,0,1,1,2,2,3,3,4,4,5,5],"right_children":[2,4,6,8,10,12,-1,-1,-1,-1,-1,-1,-1],"split_conditions":[9.801E4,1.8368856E5,1.47015E5,4.9005E4,5E0,8.257E3,3.0569938E4,-2.147015E4,3.913319E2,-6.8312305E3,-1.2205189E3,1.9038217E4,5.1921924E3],"split_indices":[0,2,0,0,1,1,0,0,0,0,0,0,0],"split_type":[0,0,0,0,0,0,0,0,0,0,0,0,0],"sum_hessian":[1.35E3,1.331E3,1.9E1,1.202E3,1.29E2,1.6E1,3E0,4E0,1.198E3,7.4E1,5.5E1,4E0,1.2E1],"tree_param":{"num_deleted":"0","num_feature":"60","num_nodes":"13","size_leaf_vector":"1"}},{"base_weights":[2.1479916E2,-7.100378E2,6.8743555E4,-4.7989824E3,8.046785E3,6.216172E3,1.8462877E4,4.3835254E3,-1.5733981E3,3.4161154E2,3.8154841E3,2.152625E3,-3.8369794E2],"categories":[],"categories_nodes":[],"categories_segments":[],"categories_sizes":[],"default_left":[0,0,0,0,0,0,0,0,0,0,0,0,0],"id":13,"left_children":[1,3,5,7,9,11,-1,-1,-1,-1,-1,-1,-1],"loss_changes":[8.567239E10,4.7804043E10,2.5954951E10,7.476219E10,2.9683495E10,2.4257646E8,0E0,0E0,0E0,0E0,0E0,0E0,0E0],"parents":[2147483647,0,0,1,1,2,2,3,3,4,4,5,5],"right_children":[2,4,6,8,10,12,-1,-1,-1,-1,-1,-1,-1],"split_conditions":[2.13E4,6.542E3,9.1095836E4,7.26165E4,8.765658E4,8.0849336E4,1.8462877E4,4.3835254E3,-1.5733981E3,3.4161154E2,3.8154841E3,2.152625E3,-3.8369794E2],"split_indices":[1,1,2,2,2,2,0,0,0,0,0,0,0],"split_type":[0,0,0,0,0,0,0,0,0,0,0,0,0],"sum_hessian":[1.35E3,1.333E3,1.7E1,9.09E2,4.24E2,5E0,1.2E1,9.3E1,8.16E2,2.7E2,1.54E2,3E0,2E0],"tree_param":{"num_deleted":"0","num_feature":"60","num_nodes":"13","size_leaf_vector":"1"}},{"base_weights":[1.9197224E2,-1.8176428E2,2.5218639E4,-1.8736291E4,1.6621205E2,8.065305E2,-1.4996908E3],"categories":[],"categories_nodes":[],"categories_segments":[],"categories_sizes":[],"default_left":[0,0,0,0,0,0,0],"id":14,"left_children":[1,3,-1,-1,5,-1,-1],"loss_changes":[6.359272E10,4.3873665E10,0E0,0E0,3.9859642E10,0E0,0E0],"parents":[2147483647,0,0,1,1,4,4],"right_children":[2,4,-1,-1,6,-1,-1],"split_conditions":[1.47015E5,4.9005E4,2.5218639E4,-1.8736291E4,1.6529833E5,8.065305E2,-1.4996908E3],"split_indices":[0,0,0,0,2,0,0],"split_type":[0,0,0,0,0,0,0],"sum_hessian":[1.35E3,1.347E3,3E0,4E0,1.343E3,8.93E2,4.5E2],"tree_param":{"num_deleted":"0","num_feature":"60","num_nodes":"7","size_leaf_vector":"1"}},{"base_weights":[1.5786488E2,-5.722289E2,5.4257156E4,-1.5738484E4,-2.781137E2,4.595651E3,7.300422E4,3.2505867E3,-3.8619772E2,-6.6182916E2,1.8750673E3,1.0239898E4,1.9530379E4],"categories":[],"categories_nodes":[],"categories_segments":[],"categories_sizes":[],"default_left":[0,0,0,0,0,0,0,0,0,0,0,0,0],"id":15,"left_children":[1,3,5,-1,7,9,11,-1,-1,-1,-1,-1,-1],"loss_changes":[5.3392245E10,3.062854E10,1.6422633E10,0E0,3.6371976E10,2.5771894E8,1.9869368E9,0E0,0E0,0E0,0E0,0E0,0E0],"parents":[2147483647,0,0,1,1,2,2,4,4,5,5,6,6],"right_children":[2,4,6,-1,8,10,12,-1,-1,-1,-1,-1,-1],"split_conditions":[2.13E4,4.9005E4,9.1095836E4,-1.5738484E4,7.26165E4,8.059986E4,1.637658E5,3.2505867E3,-3.8619772E2,-6.6182916E2,1.8750673E3,1.0239898E4,1.9530379E4],"split_indices":[1,0,2,0,2,2,2,0,0,0,0,0,0],"split_type":[0,0,0,0,0,0,0,0,0,0,0,0,0],"sum_hessian":[1.35E3,1.333E3,1.7E1,4E0,1.329E3,5E0,1.2E1,1.2E2,1.209E3,2E0,3E0,8E0,4E0],"tree_param":{"num_deleted":"0","num_feature":"60","num_nodes":"13","size_leaf_vector":"1"}},{"base_weights":[1.3968712E2,-3.2148648E2,6.8941516E4,9.7147186E2,-2.1021117E4,2.2113357E4,3.1045342E4,-2.2382803E2,3.23466E3,-3.3842576E3,-9.523563E3,9.823768E3,-6.0533794E3],"categories":[],"categories_nodes":[],"categories_segments":[],"categories_sizes":[],"default_left":[0,0,0,0,0,0,0,0,0,0,0,0,0],"id":16,"left_children":[1,3,5,7,9,11,-1,-1,-1,-1,-1,-1,-1],"loss_changes":[4.2888835E10,3.5964146E10,3.2932606E10,4.022122E10,7.808561E9,1.1388551E10,0E0,0E0,0E0,0E0,0E0,0E0,0E0],"parents":[2147483647,0,0,1,1,2,2,3,3,4,4,5,5],"right_children":[2,4,6,8,10,12,-1,-1,-1,-1,-1,-1,-1],"split_conditions":[1.9712484E5,1.8668233E5,1.434E3,1.7470728E5,6.8E2,3.564E3,3.1045342E4,-2.2382803E2,3.23466E3,-3.3842576E3,-9.523563E3,9.823768E3,-6.0533794E3],"split_indices":[2,2,1,2,1,58,0,0,0,0,0,0,0],"split_type":[0,0,0,0,0,0,0,0,0,0,0,0,0],"sum_hessian":[1.35E3,1.342E3,8E0,1.264E3,7.8E1,6E0,2E0,1.112E3,1.52E2,6.9E1,9E0,4E0,2E0],"tree_param":{"num_deleted":"0","num_feature":"60","num_nodes":"13","size_leaf_vector":"1"}},{"base_weights":[1.3018214E2,-2.5468713E3,1.0907575E4,1.1669833E4,-4.264356E3,9.377269E3,2.8693797E4,-1.5359952E4,3.2610164E3,-2.6974738E2,-2.0937312E3,8.69029E2,5.1205586E3],"categories":[],"categories_nodes":[],"categories_segments":[],"categories_sizes":[],"default_left":[0,0,0,0,0,0,0,0,0,0,0,0,0],"id":17,"left_children":[1,3,5,7,9,11,-1,-1,-1,-1,-1,-1,-1],"loss_changes":[3.9006368E10,2.6493344E10,5.3223875E10,4.9231405E10,1.7478306E10,2.1688994E10,0E0,0E0,0E0,0E0,0E0,0E0,0E0],"parents":[2147483647,0,0,1,1,2,2,3,3,4,4,5,5],"right_children":[2,4,6,8,10,12,-1,-1,-1,-1,-1,-1,-1],"split_conditions":[9.983E3,7.26165E4,1.8867816E5,1.7E2,2.404E3,9.179082E4,2.8693797E4,-1.5359952E4,3.2610164E3,-2.6974738E2,-2.0937312E3,8.69029E2,5.1205586E3],"split_indices":[1,2,2,1,1,2,0,0,0,0,0,0,0],"split_type":[0,0,0,0,0,0,0,0,0,0,0,0,0],"sum_hessian":[1.35E3,1.082E3,2.68E2,1.16E2,9.66E2,2.66E2,2E0,5E0,1.11E2,6.58E2,3.08E2,2.04E2,6.2E1],"tree_param":{"num_deleted":"0","num_feature":"60","num_nodes":"13","size_leaf_vector":"1"}},{"base_weights":[1.19112366E2,-3.1575933E3,6.8650015E3,1.0400915E4,-5.998346E3,6.048435E3,2.4867959E4,-1.1418144E4,2.7815503E3,-2.8376743E2,-5.8433667E3,-1.2237616E3,2.157756E3],"categories":[],"categories_nodes":[],"categories_segments":[],"categories_sizes":[],"default_left":[0,0,0,0,0,0,0,0,0,0,0,0,0],"id":18,"left_children":[1,3,5,7,9,11,-1,-1,-1,-1,-1,-1,-1],"loss_changes":[2.9884578E10,3.511229E10,4.1647235E10,3.818977E10,8.0024486E10,2.5443869E10,0E0,0E0,0E0,0E0,0E0,0E0,0E0],"parents":[2147483647,0,0,1,1,2,2,3,3,4,4,5,5],"right_children":[2,4,6,8,10,12,-1,-1,-1,-1,-1,-1,-1],"split_conditions":[6.542E3,8.118792E4,1.8867816E5,6.09E2,2.404E3,8.141958E4,2.4867959E4,-1.1418144E4,2.7815503E3,-2.8376743E2,-5.8433667E3,-1.2237616E3,2.157756E3],"split_indices":[1,2,2,1,1,2,0,0,0,0,0,0,0],"split_type":[0,0,0,0,0,0,0,0,0,0,0,0,0],"sum_hessian":[1.35E3,9.09E2,4.41E2,1.57E2,7.52E2,4.39E2,2E0,7E0,1.5E2,6.29E2,1.23E2,1.23E2,3.16E2],"tree_param":{"num_deleted":"0","num_feature":"60","num_nodes":"13","size_leaf_vector":"1"}},{"base_weights":[1.034664E2,-2.5994632E2,5.4321223E4,1.2355159E3,-1.4105257E4,1.870375E4,2.3864318E4,-1.9886179E2,5.159102E3,-2.4711873E3,-1.6924855E4,8.340527E3,-5.1724624E3],"categories":[],"categories_nodes":[],"categories_segments":[],"categories_sizes":[],"default_left":[0,0,0,0,0,0,0,0,0,0,0,0,0],"id":19,"left_children":[1,3,5,7,9,11,-1,-1,-1,-1,-1,-1,-1],"loss_changes":[2.6633443E10,2.7824427E10,1.8604573E10,6.6454966E10,1.5114588E10,8.253315E9,0E0,0E0,0E0,0E0,0E0,0E0,0E0],"parents":[2147483647,0,0,1,1,2,2,3,3,4,4,5,5],"right_children":[2,4,6,8,10,12,-1,-1,-1,-1,-1,-1,-1],"split_conditions":[1.9712484E5,1.8368856E5,1.434E3,1.7470728E5,3.564E3,3.564E3,2.3864318E4,-1.9886179E2,5.159102E3,-2.4711873E3,-1.6924855E4,8.340527E3,-5.1724624E3],"split_indices":[2,2,1,2,58,58,0,0,0,0,0,0,0],"split_type":[0,0,0,0,0,0,0,0,0,0,0,0,0],"sum_hessian":[1.35E3,1.342E3,8E0,1.212E3,1.3E2,6E0,2E0,1.112E3,1E2,1.28E2,2E0,4E0,2E0],"tree_param":{"num_deleted":"0","num_feature":"60","num_nodes":"13","size_leaf_vector":"1"}},{"base_weights":[9.210838E1,-3.9424994E2,3.6131547E4,2.2562815E3,-5.5886523E3,3.3994114E3,9.691867E3,1.7651018E1,3.5997954E3,-3.4588997E3,5.689566E2,1.7977969E3,-1.037298E3],"categories":[],"categories_nodes":[],"categories_segments":[],"categories_sizes":[],"default_left":[0,0,0,0,0,0,0,0,0,0,0,0,0],"id":20,"left_children":[1,3,5,7,9,11,-1,-1,-1,-1,-1,-1,-1],"loss_changes":[2.369468E10,1.8379024E10,7.098534E9,3.016984E10,4.4572144E10,3.3457037E8,0E0,0E0,0E0,0E0,0E0,0E0,0E0],"parents":[2147483647,0,0,1,1,2,2,3,3,4,4,5,5],"right_children":[2,4,6,8,10,12,-1,-1,-1,-1,-1,-1,-1],"split_conditions":[2.13E4,1.6529833E5,9.1095836E4,1.0934352E5,1.735668E5,8.0849336E4,9.691867E3,1.7651018E1,3.5997954E3,-3.4588997E3,5.689566E2,1.7977969E3,-1.037298E3],"split_indices":[1,2,2,2,2,2,0,0,0,0,0,0,0],"split_type":[0,0,0,0,0,0,0,0,0,0,0,0,0],"sum_hessian":[1.35E3,1.333E3,1.7E1,8.83E2,4.5E2,5E0,1.2E1,7.77E2,1.06E2,1.88E2,2.62E2,3E0,2E0],"tree_param":{"num_deleted":"0","num_feature":"60","num_nodes":"13","size_leaf_vector":"1"}},{"base_weights":[8.196395E1,-2.6433582E3,5.2804126E3,-1.0051922E3,-1.9621191E4,4.6421357E3,2.0405533E4,6.895893E3,-6.176975E2,-5.008273E3,-3.255295E1,-2.7799615E2,1.8714346E3],"categories":[],"categories_nodes":[],"categories_segments":[],"categories_sizes":[],"default_left":[0,0,0,0,0,0,0,0,0,0,0,0,0],"id":21,"left_children":[1,3,5,7,9,11,-1,-1,-1,-1,-1,-1,-1],"loss_changes":[1.9154178E10,2.4649974E10,2.8240835E10,5.9985756E10,8.222429E9,1.3181492E10,0E0,0E0,0E0,0E0,0E0,0E0,0E0],"parents":[2147483647,0,0,1,1,2,2,3,3,4,4,5,5],"right_children":[2,4,6,8,10,12,-1,-1,-1,-1,-1,-1,-1],"split_conditions":[5.986E3,1.782E3,1.8867816E5,1.782E3,1.8368856E5,8.42886E4,2.0405533E4,6.895893E3,-6.176975E2,-5.008273E3,-3.255295E1,-2.7799615E2,1.8714346E3],"split_indices":[1,58,2,59,2,2,0,0,0,0,0,0,0],"split_type":[0,0,0,0,0,0,0,0,0,0,0,0,0],"sum_hessian":[1.35E3,8.86E2,4.64E2,8.09E2,7.7E1,4.62E2,2E0,4.4E1,7.65E2,6E1,1.7E1,2.03E2,2.59E2],"tree_param":{"num_deleted":"0","num_feature":"60","num_nodes":"13","size_leaf_vector":"1"}},{"base_weights":[8.2766174E1,-4.093888E4,3.8837994E2,-9.377288E3,-2.2864854E3,1.0175624E2,4.282923E4,2.8627682E2,-2.4238835E3,3.0245984E3,1.8640143E4],"categories":[],"categories_nodes":[],"categories_segments":[],"categories_sizes":[],"default_left":[0,0,0,0,0,0,0,0,0,0,0],"id":22,"left_children":[1,3,5,-1,-1,7,9,-1,-1,-1,-1],"loss_changes":[1.6953089E10,1.2188887E9,1.6320473E10,0E0,0E0,2.1694335E10,1.1150962E10,0E0,0E0,0E0,0E0],"parents":[2147483647,0,0,1,1,2,2,5,5,6,6],"right_children":[2,4,6,-1,-1,8,10,-1,-1,-1,-1],"split_conditions":[5.1767098E4,5.714E3,1.9712484E5,-9.377288E3,-2.2864854E3,1.8368856E5,1.434E3,2.8627682E2,-2.4238835E3,3.0245984E3,1.8640143E4],"split_indices":[2,1,2,0,0,2,1,0,0,0,0],"split_type":[0,0,0,0,0,0,0,0,0,0,0],"sum_hessian":[1.35E3,9E0,1.341E3,7E0,2E0,1.333E3,8E0,1.203E3,1.3E2,6E0,2E0],"tree_param":{"num_deleted":"0","num_feature":"60","num_nodes":"11","size_leaf_vector":"1"}},{"base_weights":[7.2035194E1,-2.7865616E2,2.6058158E4,-3.3917477E4,-2.4567936E1,2.1229114E3,3.5100723E4,-7.7362627E3,-1.9816188E3,2.1290476E3,-2.094876E2,1.5268844E3,-1.1866813E3,5.0941265E3,9.082948E3],"categories":[],"categories_nodes":[],"categories_segments":[],"categories_sizes":[],"default_left":[0,0,0,0,0,0,0,0,0,0,0,0,0,0,0],"id":23,"left_children":[1,3,5,7,9,11,13,-1,-1,-1,-1,-1,-1,-1,-1],"loss_changes":[1.231907E10,1.140117E10,3.8213315E9,7.605084E8,1.4471968E10,3.11713E8,1.3448192E8,0E0,0E0,0E0,0E0,0E0,0E0,0E0,0E0],"parents":[2147483647,0,0,1,1,2,2,3,3,4,4,5,5,6,6],"right_children":[2,4,6,8,10,12,14,-1,-1,-1,-1,-1,-1,-1,-1],"split_conditions":[2.13E4,5.1767098E4,9.1095836E4,5.714E3,7.26165E4,8.0849336E4,1.637658E5,-7.7362627E3,-1.9816188E3,2.1290476E3,-2.094876E2,1.5268844E3,-1.1866813E3,5.0941265E3,9.082948E3],"split_indices":[1,2,2,1,2,2,2,0,0,0,0,0,0,0,0],"split_type":[0,0,0,0,0,0,0,0,0,0,0,0,0,0,0],"sum_hessian":[1.35E3,1.333E3,1.7E1,9E0,1.324E3,5E0,1.2E1,7E0,2E0,1.15E2,1.209E3,3E0,2E0,8E0,4E0],"tree_param":{"num_deleted":"0","num_feature":"60","num_nodes":"15","size_leaf_vector":"1"}},{"base_weights":[6.2611145E1,-1.7708932E2,3.5824293E4,5.0740344E2,-1.5350893E4,-2.8462834E3,5.215898E4,-1.8885716E2,1.8750287E3,-2.0559585E3,-1.6248163E4,5.26658E3,1.5563226E4],"categories":[],"categories_nodes":[],"categories_segments":[],"categories_sizes":[],"default_left":[0,0,0,0,0,0,0,0,0,0,0,0,0],"id":24,"left_children":[1,3,5,7,9,-1,11,-1,-1,-1,-1,-1,-1],"loss_changes":[1.158724E10,1.3956669E10,8.1010975E9,1.6563792E10,1.854466E10,0E0,2.5892413E9,0E0,0E0,0E0,0E0,0E0,0E0],"parents":[2147483647,0,0,1,1,2,2,3,3,4,4,6,6],"right_children":[2,4,6,8,10,-1,12,-1,-1,-1,-1,-1,-1],"split_conditions":[1.9712484E5,1.8794755E5,9.801E4,1.7438652E5,2.352E3,-2.8462834E3,1.434E3,-1.8885716E2,1.8750287E3,-2.0559585E3,-1.6248163E4,5.26658E3,1.5563226E4],"split_indices":[2,2,0,2,1,0,1,0,0,0,0,0,0],"split_type":[0,0,0,0,0,0,0,0,0,0,0,0,0],"sum_hessian":[1.35E3,1.342E3,8E0,1.285E3,5.7E1,2E0,6E0,1.105E3,1.8E2,5.4E1,3E0,4E0,2E0],"tree_param":{"num_deleted":"0","num_feature":"60","num_nodes":"13","size_leaf_vector":"1"}},{"base_weights":[5.109543E1,-2.051835E3,4.0623816E3,3.2753564E2,-1.1734346E4,3.5596985E3,1.6057808E4,-3.72929E2,2.9924246E3,-1.91811E4,-9.898638E2,7.8504486E2,-1.0759196E4],"categories":[],"categories_nodes":[],"categories_segments":[],"categories_sizes":[],"default_left":[0,0,0,0,0,0,0,0,0,0,0,0,0],"id":25,"left_children":[1,3,5,7,9,11,-1,-1,-1,-1,-1,-1,-1],"loss_changes":[1.1404636E10,2.04388E10,1.7532006E10,2.290212E10,9.946845E10,9.917944E9,0E0,0E0,0E0,0E0,0E0,0E0,0E0],"parents":[2147483647,0,0,1,1,2,2,3,3,4,4,5,5],"right_children":[2,4,6,8,10,12,-1,-1,-1,-1,-1,-1,-1],"split_conditions":[5.986E3,2.598E3,1.8867816E5,1.638E3,2.7E3,1.7515278E5,1.6057808E4,-3.72929E2,2.9924246E3,-1.91811E4,-9.898638E2,7.8504486E2,-1.0759196E4],"split_indices":[1,1,2,1,1,2,0,0,0,0,0,0,0],"split_type":[0,0,0,0,0,0,0,0,0,0,0,0,0],"sum_hessian":[1.35E3,8.86E2,4.64E2,7.12E2,1.74E2,4.62E2,2E0,6.2E2,9.2E1,1.2E1,1.62E2,4.6E2,2E0],"tree_param":{"num_deleted":"0","num_feature":"60","num_nodes":"13","size_leaf_vector":"1"}},{"base_weights":[3.2391464E1,-1.846337E4,3.808177E2,-8.0255493E3,-1.1040888E4,1.9974053E4,-3.7012E2,3.1599106E2,-3.312535E3,8.71875E-1,8.896423E3,1.2463679E3,-3.1269815E2],"categories":[],"categories_nodes":[],"categories_segments":[],"categories_sizes":[],"default_left":[0,0,0,0,0,0,0,0,0,0,0,0,0],"id":26,"left_children":[1,3,5,-1,7,9,11,-1,-1,-1,-1,-1,-1],"loss_changes":[8.713427E9,3.57704E9,1.953194E10,0E0,1.4199603E9,2.398131E10,1.0086454E10,0E0,0E0,0E0,0E0,0E0,0E0],"parents":[2147483647,0,0,1,1,2,2,4,4,5,5,6,6],"right_children":[2,4,6,-1,8,10,12,-1,-1,-1,-1,-1,-1],"split_conditions":[5.499252E4,1.782E3,6.559542E4,-8.0255493E3,3.159E3,6.1871043E4,1.782E3,3.1599106E2,-3.312535E3,8.71875E-1,8.896423E3,1.2463679E3,-3.1269815E2],"split_indices":[2,59,2,0,1,2,59,0,0,0,0,0,0],"split_type":[0,0,0,0,0,0,0,0,0,0,0,0,0],"sum_hessian":[1.35E3,2.4E1,1.326E3,5E0,1.9E1,4.8E1,1.278E3,6E0,1.3E1,2.7E1,2.1E1,1.95E2,1.083E3],"tree_param":{"num_deleted":"0","num_feature":"60","num_nodes":"13","size_leaf_vector":"1"}},{"base_weights":[2.5021847E1,9.1238385E2,-8.60935E3,2.5939746E4,-8.1067706E2,-1.762295E4,8.0067485E3,-5.862226E3,5.8554546E3,3.6983418E1,-2.0043148E3,-4.879325E3,-1.7450648E3,1.3973656E4,5.3474545E1],"categories":[],"categories_nodes":[],"categories_segments":[],"categories_sizes":[],"default_left":[0,0,0,0,0,0,0,0,0,0,0,0,0,0,0],"id":27,"left_children":[1,3,5,7,9,11,13,-1,-1,-1,-1,-1,-1,-1,-1],"loss_changes":[1.0358965E10,5.289065E10,1.901223E10,1.542586E10,1.0529374E10,4.7292436E9,2.1525955E10,0E0,0E0,0E0,0E0,0E0,0E0,0E0,0E0],"parents":[2147483647,0,0,1,1,2,2,3,3,4,4,5,5,6,6],"right_children":[2,4,6,8,10,12,14,-1,-1,-1,-1,-1,-1,-1,-1],"split_conditions":[1.782E3,1.782E3,7.45E3,4.9005E4,1.8368856E5,6.8E2,8.257E3,-5.862226E3,5.8554546E3,3.6983418E1,-2.0043148E3,-4.879325E3,-1.7450648E3,1.3973656E4,5.3474545E1],"split_indices":[58,59,1,0,2,1,1,0,0,0,0,0,0,0,0],"split_type":[0,0,0,0,0,0,0,0,0,0,0,0,0,0,0],"sum_hessian":[1.35E3,1.225E3,1.25E2,7.8E1,1.147E3,8.1E1,4.4E1,4E0,7.4E1,1.036E3,1.11E2,4.5E1,3.6E1,4E0,4E1],"tree_param":{"num_deleted":"0","num_feature":"60","num_nodes":"15","size_leaf_vector":"1"}},{"base_weights":[2.403952E1,-1.830537E2,3.0924277E4,7.553269E2,-9.75301E3,-2.1081208E3,4.4277188E4,4.1503413E3,-1.24758255E2,-5.013263E3,-2.3720442E2,1.3539218E4,4.2740825E3],"categories":[],"categories_nodes":[],"categories_segments":[],"categories_sizes":[],"default_left":[0,0,0,0,0,0,0,0,0,0,0,0,0],"id":28,"left_children":[1,3,5,7,9,-1,11,-1,-1,-1,-1,-1,-1],"loss_changes":[8.651019E9,1.2067858E10,5.4498007E9,3.376765E10,1.5712939E10,0E0,2.3084657E9,0E0,0E0,0E0,0E0,0E0,0E0],"parents":[2147483647,0,0,1,1,2,2,3,3,4,4,6,6],"right_children":[2,4,6,8,10,-1,12,-1,-1,-1,-1,-1,-1],"split_conditions":[1.9712484E5,1.782E3,9.801E4,1.782E3,6.8E2,-2.1081208E3,3.564E3,4.1503413E3,-1.24758255E2,-5.013263E3,-2.3720442E2,1.3539218E4,4.2740825E3],"split_indices":[2,58,0,59,1,0,58,0,0,0,0,0,0],"split_type":[0,0,0,0,0,0,0,0,0,0,0,0,0],"sum_hessian":[1.35E3,1.342E3,8E0,1.223E3,1.19E2,2E0,6E0,7.8E1,1.145E3,4.2E1,7.7E1,2E0,4E0],"tree_param":{"num_deleted":"0","num_feature":"60","num_nodes":"13","size_leaf_vector":"1"}},{"base_weights":[2.9943537E1,-1.0467504E3,4.8705674E3,1.1693864E3,-1.0851283E4,3.0913371E4,-1.7640049E3,-1.8144609E2,2.894115E3,-5.8300825E3,-1.4807499E3,1.3087555E4,4.754262E3,4.0332153E2,-4.747005E3],"categories":[],"categories_nodes":[],"categories_segments":[],"categories_sizes":[],"default_left":[0,0,0,0,0,0,0,0,0,0,0,0,0,0,0],"id":29,"left_children":[1,3,5,7,9,11,13,-1,-1,-1,-1,-1,-1,-1,-1],"loss_changes":[7.0463345E9,2.4044065E10,4.2559115E10,2.4955316E10,1.2653898E10,1.077323E10,1.6411453E10,0E0,0E0,0E0,0E0,0E0,0E0,0E0,0E0],"parents":[2147483647,0,0,1,1,2,2,3,3,4,4,5,5,6,6],"right_children":[2,4,6,8,10,12,14,-1,-1,-1,-1,-1,-1,-1,-1],"split_conditions":[1.7438652E5,1.6558344E5,1.7887716E5,1.0823868E5,1.6645662E5,1.782E3,7.69E2,-1.8144609E2,2.894115E3,-5.8300825E3,-1.4807499E3,1.3087555E4,4.754262E3,4.0332153E2,-4.747005E3],"split_indices":[2,2,2,2,2,59,1,0,0,0,0,0,0,0,0],"split_type":[0,0,0,0,0,0,0,0,0,0,0,0,0,0,0],"sum_hessian":[1.35E3,1.105E3,2.45E2,9.02E2,2.03E2,4.9E1,1.96E2,7.81E2,1.21E2,3.1E1,1.72E2,7E0,4.2E1,1.68E2,2.8E1],"tree_param":{"num_deleted":"0","num_feature":"60","num_nodes":"15","size_leaf_vector":"1"}},{"base_weights":[3.0538414E1,-1.558652E2,2.7842709E4,5.987608E2,-7.8517515E3,9.026536E3,1.2493241E4,3.2056648E3,-9.308105E1,-4.012304E3,-2.040125E2,5.8796426E3,-5.587021E3],"categories":[],"categories_nodes":[],"categories_segments":[],"categories_sizes":[],"default_left":[0,0,0,0,0,0,0,0,0,0,0,0,0],"id":30,"left_children":[1,3,5,7,9,11,-1,-1,-1,-1,-1,-1,-1],"loss_changes":[7.0083144E9,7.8041953E9,5.299482E9,2.0105073E10,9.989134E9,6.092036E9,0E0,0E0,0E0,0E0,0E0,0E0,0E0],"parents":[2147483647,0,0,1,1,2,2,3,3,4,4,5,5],"right_children":[2,4,6,8,10,12,-1,-1,-1,-1,-1,-1,-1],"split_conditions":[1.9712484E5,1.782E3,1.434E3,1.782E3,6.8E2,3.564E3,1.2493241E4,3.2056648E3,-9.308105E1,-4.012304E3,-2.040125E2,5.8796426E3,-5.587021E3],"split_indices":[2,58,1,59,1,58,0,0,0,0,0,0,0],"split_type":[0,0,0,0,0,0,0,0,0,0,0,0,0],"sum_hessian":[1.35E3,1.342E3,8E0,1.223E3,1.19E2,6E0,2E0,7.8E1,1.145E3,4.2E1,7.7E1,4E0,2E0],"tree_param":{"num_deleted":"0","num_feature":"60","num_nodes":"13","size_leaf_vector":"1"}},{"base_weights":[3.3081608E1,-2.0933347E2,1.7996895E4,2.4987897E2,-1.6773434E4,9.916011E3,7.404798E3,-1.5710815E2,1.6739065E3,-2.246409E3,-8.521675E3,3.756573E3,-1.0073875E3],"categories":[],"categories_nodes":[],"categories_segments":[],"categories_sizes":[],"default_left":[0,0,0,0,0,0,0,0,0,0,0,0,0],"id":31,"left_children":[1,3,5,7,9,11,-1,-1,-1,-1,-1,-1,-1],"loss_changes":[5.886965E9,1.0151184E10,2.400473E9,1.0927591E10,4.675232E9,1.9508065E9,0E0,0E0,0E0,0E0,0E0,0E0,0E0],"parents":[2147483647,0,0,1,1,2,2,3,3,4,4,5,5],"right_children":[2,4,6,8,10,12,-1,-1,-1,-1,-1,-1,-1],"split_conditions":[2.13E4,1.7133E4,1.637658E5,1.1407E4,1.782E3,9.588942E4,7.404798E3,-1.5710815E2,1.6739065E3,-2.246409E3,-8.521675E3,3.756573E3,-1.0073875E3],"split_indices":[1,1,2,1,58,2,0,0,0,0,0,0,0],"split_type":[0,0,0,0,0,0,0,0,0,0,0,0,0],"sum_hessian":[1.35E3,1.333E3,1.7E1,1.298E3,3.5E1,1.3E1,4E0,1.152E3,1.46E2,3E1,5E0,8E0,5E0],"tree_param":{"num_deleted":"0","num_feature":"60","num_nodes":"13","size_leaf_vector":"1"}},{"base_weights":[2.7123566E1,-2.3743666E4,2.0423293E2,-5.453678E3,-1.2859688E3,1.0420636E4,-3.0714627E2,-5.7015076E2,7.177301E3,-5.116152E2,3.35884E2],"categories":[],"categories_nodes":[],"categories_segments":[],"categories_sizes":[],"default_left":[0,0,0,0,0,0,0,0,0,0,0],"id":32,"left_children":[1,3,5,-1,-1,7,9,-1,-1,-1,-1],"loss_changes":[5.6925993E9,4.3493274E8,7.0144205E9,0E0,0E0,2.173222E10,5.723499E9,0E0,0E0,0E0,0E0],"parents":[2147483647,0,0,1,1,2,2,5,5,6,6],"right_children":[2,4,6,-1,-1,8,10,-1,-1,-1,-1],"split_conditions":[5.1767098E4,5.714E3,6.559542E4,-5.453678E3,-1.2859688E3,6.1871043E4,9.490932E4,-5.7015076E2,7.177301E3,-5.116152E2,3.35884E2],"split_indices":[2,1,2,0,0,2,2,0,0,0,0],"split_type":[0,0,0,0,0,0,0,0,0,0,0],"sum_hessian":[1.35E3,9E0,1.341E3,7E0,2E0,6.3E1,1.278E3,4.2E1,2.1E1,5.99E2,6.79E2],"tree_param":{"num_deleted":"0","num_feature":"60","num_nodes":"11","size_leaf_vector":"1"}},{"base_weights":[2.1479206E1,-1.304862E2,2.2695709E4,4.972671E0,-3.6380273E4,-2.6886042E3,3.4941492E4,2.541697E1,-6.5199946E3,-2.2884958E3,-9.838263E3,1.0872434E4,3.2601575E3],"categories":[],"categories_nodes":[],"categories_segments":[],"categories_sizes":[],"default_left":[0,0,0,0,0,0,0,0,0,0,0,0,0],"id":33,"left_children":[1,3,5,7,9,-1,11,-1,-1,-1,-1,-1,-1],"loss_changes":[4.6581E9,6.5947884E9,4.4526423E9,5.3353185E9,1.0345247E9,0E0,1.64796E9,0E0,0E0,0E0,0E0,0E0,0E0],"parents":[2147483647,0,0,1,1,2,2,3,3,4,4,6,6],"right_children":[2,4,6,8,10,-1,12,-1,-1,-1,-1,-1,-1],"split_conditions":[1.9712484E5,2.6556E4,9.801E4,1.9364994E5,1.5811686E5,-2.6886042E3,3.564E3,2.541697E1,-6.5199946E3,-2.2884958E3,-9.838263E3,1.0872434E4,3.2601575E3],"split_indices":[2,1,0,2,2,0,58,0,0,0,0,0,0],"split_type":[0,0,0,0,0,0,0,0,0,0,0,0,0],"sum_hessian":[1.35E3,1.342E3,8E0,1.338E3,4E0,2E0,6E0,1.334E3,4E0,2E0,2E0,2E0,4E0],"tree_param":{"num_deleted":"0","num_feature":"60","num_nodes":"13","size_leaf_vector":"1"}},{"base_weights":[1.1874398E1,-9.225726E2,3.7739346E3,1.2440515E3,-4.5527334E3,3.0799968E3,1.2855284E4,-1.1171111E2,4.0392341E3,-4.919274E3,-3.8319092E2,3.9173555E3,1.6574767E2],"categories":[],"categories_nodes":[],"categories_segments":[],"categories_sizes":[],"default_left":[0,0,0,0,0,0,0,0,0,0,0,0,0],"id":34,"left_children":[1,3,5,7,9,11,-1,-1,-1,-1,-1,-1,-1],"loss_changes":[4.7528484E9,8.523668E9,1.1095982E10,2.320811E10,2.1357384E10,9.905763E9,0E0,0E0,0E0,0E0,0E0,0E0,0E0],"parents":[2147483647,0,0,1,1,2,2,3,3,4,4,5,5],"right_children":[2,4,6,8,10,12,-1,-1,-1,-1,-1,-1,-1],"split_conditions":[9.983E3,2.352E3,1.8867816E5,1.638E3,2.7E3,1.0589E4,1.2855284E4,-1.1171111E2,4.0392341E3,-4.919274E3,-3.8319092E2,3.9173555E3,1.6574767E2],"split_indices":[1,1,2,1,1,1,0,0,0,0,0,0,0],"split_type":[0,0,0,0,0,0,0,0,0,0,0,0,0],"sum_hessian":[1.35E3,1.082E3,2.68E2,6.78E2,4.04E2,2.66E2,2E0,6.2E2,5.8E1,4.6E1,3.58E2,3.1E1,2.35E2],"tree_param":{"num_deleted":"0","num_feature":"60","num_nodes":"13","size_leaf_vector":"1"}},{"base_weights":[2.1021923E1,-1.3070037E4,2.6763492E2,-5.6611025E3,-6.769071E3,1.3383307E4,-2.3505121E2,3.2986138E3,-2.8143691E3,1.9999911E2,5.707111E3,-3.382137E2,4.8290402E2],"categories":[],"categories_nodes":[],"categories_segments":[],"categories_sizes":[],"default_left":[0,0,0,0,0,0,0,0,0,0,0,0,0],"id":35,"left_children":[1,3,5,-1,7,9,11,-1,-1,-1,-1,-1,-1],"loss_changes":[4.3651005E9,2.208353E9,8.752144E9,0E0,3.4597732E9,9.165578E9,4.9382364E9,0E0,0E0,0E0,0E0,0E0,0E0],"parents":[2147483647,0,0,1,1,2,2,4,4,5,5,6,6],"right_children":[2,4,6,-1,8,10,12,-1,-1,-1,-1,-1,-1],"split_conditions":[5.499252E4,9.54E2,6.559542E4,-5.6611025E3,3.159E3,6.1871043E4,5.373E3,3.2986138E3,-2.8143691E3,1.9999911E2,5.707111E3,-3.382137E2,4.8290402E2],"split_indices":[2,1,2,0,1,2,1,0,0,0,0,0,0],"split_type":[0,0,0,0,0,0,0,0,0,0,0,0,0],"sum_hessian":[1.35E3,2.4E1,1.326E3,6E0,1.8E1,4.8E1,1.278E3,4E0,1.4E1,2.7E1,2.1E1,8.25E2,4.53E2],"tree_param":{"num_deleted":"0","num_feature":"60","num_nodes":"13","size_leaf_vector":"1"}},{"base_weights":[1.747325E1,-8.541042E2,4.0762524E3,4.0111066E2,-1.105344E4,2.9223615E4,-1.4334576E3,-4.3464394E0,4.9307344E3,-3.9135847E3,-6.5094376E1,1.0471702E4,4.654152E3,4.104033E2,-4.3391855E3],"categories":[],"categories_nodes":[],"categories_segments":[],"categories_sizes":[],"default_left":[0,0,0,0,0,0,0,0,0,0,0,0,0,0,0],"id":36,"left_children":[1,3,5,7,9,11,13,-1,-1,-1,-1,-1,-1,-1,-1],"loss_changes":[4.782698E9,1.4253459E10,3.3156458E10,1.0173518E10,1.113749E10,4.703482E9,1.3957511E10,0E0,0E0,0E0,0E0,0E0,0E0,0E0,0E0],"parents":[2147483647,0,0,1,1,2,2,3,3,4,4,5,5,6,6],"right_children":[2,4,6,8,10,12,14,-1,-1,-1,-1,-1,-1,-1,-1],"split_conditions":[1.7470728E5,1.6877322E5,1.7887716E5,1.6809606E5,1.7224812E5,1.782E3,7.69E2,-4.3464394E0,4.9307344E3,-3.9135847E3,-6.5094376E1,1.0471702E4,4.654152E3,4.104033E2,-4.3391855E3],"split_indices":[2,2,2,2,2,59,1,0,0,0,0,0,0,0,0],"split_type":[0,0,0,0,0,0,0,0,0,0,0,0,0,0,0],"sum_hessian":[1.35E3,1.112E3,2.38E2,9.91E2,1.21E2,4.2E1,1.96E2,9.75E2,1.6E1,6.7E1,5.4E1,7E0,3.5E1,1.68E2,2.8E1],"tree_param":{"num_deleted":"0","num_feature":"60","num_nodes":"15","size_leaf_vector":"1"}},{"base_weights":[2.2973232E1,-1.8568109E2,1.5485301E4,1.9505103E2,-1.3918606E4,7.88923E3,6.7314478E3,-6.4468735E1,2.254214E3,-1.8398555E3,-7.1964087E3,3.0743923E3,-9.2994794E2],"categories":[],"categories_nodes":[],"categories_segments":[],"categories_sizes":[],"default_left":[0,0,0,0,0,0,0,0,0,0,0,0,0],"id":37,"left_children":[1,3,5,7,9,11,-1,-1,-1,-1,-1,-1,-1],"loss_changes":[4.361581E9,6.9776215E9,2.2191063E9,7.4477783E9,3.4174776E9,1.385036E9,0E0,0E0,0E0,0E0,0E0,0E0,0E0],"parents":[2147483647,0,0,1,1,2,2,3,3,4,4,5,5],"right_children":[2,4,6,8,10,12,-1,-1,-1,-1,-1,-1,-1],"split_conditions":[2.13E4,1.7133E4,1.637658E5,1.4155E4,9.31095E4,9.588942E4,6.7314478E3,-6.4468735E1,2.254214E3,-1.8398555E3,-7.1964087E3,3.0743923E3,-9.2994794E2],"split_indices":[1,1,2,1,2,2,0,0,0,0,0,0,0],"split_type":[0,0,0,0,0,0,0,0,0,0,0,0,0],"sum_hessian":[1.35E3,1.333E3,1.7E1,1.298E3,3.5E1,1.3E1,4E0,1.241E3,5.7E1,3E1,5E0,8E0,5E0],"tree_param":{"num_deleted":"0","num_feature":"60","num_nodes":"13","size_leaf_vector":"1"}},{"base_weights":[1.9876822E1,-1.7464575E3,1.7654015E3,6.297103E2,-1.1380925E4,8.70383E3,-1.4178728E3,-1.6463672E2,4.744025E3,-6.6013945E3,4.0889783E2,1.366529E3,1.7110568E4,7.209255E1,-3.4634102E3],"categories":[],"categories_nodes":[],"categories_segments":[],"categories_sizes":[],"default_left":[0,0,0,0,0,0,0,0,0,0,0,0,0,0,0],"id":38,"left_children":[1,3,5,7,9,11,13,-1,-1,-1,-1,-1,-1,-1,-1],"loss_changes":[4.1684595E9,1.5391337E10,1.5031449E10,1.8135405E10,3.8682518E10,3.0188374E10,1.3210235E10,0E0,0E0,0E0,0E0,0E0,0E0,0E0,0E0],"parents":[2147483647,0,0,1,1,2,2,3,3,4,4,5,5,6,6],"right_children":[2,4,6,8,10,12,14,-1,-1,-1,-1,-1,-1,-1,-1],"split_conditions":[9.490932E4,8.90109E4,1.6471027E5,8.815554E4,7.235E3,1.6426477E5,9.99E2,-1.6463672E2,4.744025E3,-6.6013945E3,4.0889783E2,1.366529E3,1.7110568E4,7.209255E1,-3.4634102E3],"split_indices":[2,2,2,2,1,2,1,0,0,0,0,0,0,0,0],"split_type":[0,0,0,0,0,0,0,0,0,0,0,0,0,0,0],"sum_hessian":[1.35E3,6.71E2,6.79E2,5.39E2,1.32E2,2.13E2,4.66E2,5.08E2,3.1E1,5E1,8.2E1,2.09E2,4E0,4.2E2,4.6E1],"tree_param":{"num_deleted":"0","num_feature":"60","num_nodes":"15","size_leaf_vector":"1"}},{"base_weights":[2.5871496E1,-8.048049E2,3.4816401E3,-8.598945E3,1.064932E3,5.4080617E4,1.8805677E3,-1.0247292E4,-1.014892E3,3.2592453E2,-9.645222E3,1.3485033E4,1.8729281E3,-1.1426193E4,6.5786444E2],"categories":[],"categories_nodes":[],"categories_segments":[],"categories_sizes":[],"default_left":[0,0,0,0,0,0,0,0,0,0,0,0,0,0,0],"id":39,"left_children":[1,3,5,7,9,11,13,-1,-1,-1,-1,-1,-1,-1,-1],"loss_changes":[3.8810168E9,1.5893719E10,2.1123604E10,3.1448097E10,2.4572674E10,4.1423053E9,2.1386777E10,0E0,0E0,0E0,0E0,0E0,0E0,0E0,0E0],"parents":[2147483647,0,0,1,1,2,2,3,3,4,4,5,5,6,6],"right_children":[2,4,6,8,10,12,14,-1,-1,-1,-1,-1,-1,-1,-1],"split_conditions":[1.7370936E5,4.25E2,1.7386973E5,1.6121755E5,1.7037702E5,1.782E3,1.7433306E5,-1.0247292E4,-1.014892E3,3.2592453E2,-9.645222E3,1.3485033E4,1.8729281E3,-1.1426193E4,6.5786444E2],"split_indices":[2,1,2,2,2,58,2,0,0,0,0,0,0,0,0],"split_type":[0,0,0,0,0,0,0,0,0,0,0,0,0,0,0],"sum_hessian":[1.35E3,1.089E3,2.61E2,2.1E2,8.79E2,7E0,2.54E2,1.5E1,1.95E2,8.7E2,9E0,5E0,2E0,5E0,2.49E2],"tree_param":{"num_deleted":"0","num_feature":"60","num_nodes":"15","size_leaf_vector":"1"}},{"base_weights":[8.852254E0,1.5673978E3,-1.730196E3,-2.0616436E3,6.318836E3,-7.035669E4,-3.0455872E2,-8.9037295E3,-8.551713E1,1.9029965E3,-1.4770854E3,-2.3759146E4,6.1809854E3,-1.714181E2,4.7899326E3],"categories":[],"categories_nodes":[],"categories_segments":[],"categories_sizes":[],"default_left":[0,0,0,0,0,0,0,0,0,0,0,0,0,0,0],"id":40,"left_children":[1,3,5,7,9,11,13,-1,-1,-1,-1,-1,-1,-1,-1],"loss_changes":[3.6644431E9,1.2307405E10,6.249609E10,2.8078727E10,1.3604729E10,6.7436573E10,8.423098E9,0E0,0E0,0E0,0E0,0E0,0E0,0E0,0E0],"parents":[2147483647,0,0,1,1,2,2,3,3,4,4,5,5,6,6],"right_children":[2,4,6,8,10,12,14,-1,-1,-1,-1,-1,-1,-1,-1],"split_conditions":[2.598E3,2.15E2,2.7E3,1.6121755E5,1.7037702E5,9.129186E4,1.7470728E5,-8.9037295E3,-8.551713E1,1.9029965E3,-1.4770854E3,-2.3759146E4,6.1809854E3,-1.714181E2,4.7899326E3],"split_indices":[1,1,1,2,2,2,2,0,0,0,0,0,0,0,0],"split_type":[0,0,0,0,0,0,0,0,0,0,0,0,0,0,0],"sum_hessian":[1.35E3,7.12E2,6.38E2,4.04E2,3.08E2,1.2E1,6.26E2,1.4E1,3.9E2,2.5E2,5.8E1,8E0,4E0,6.13E2,1.3E1],"tree_param":{"num_deleted":"0","num_feature":"60","num_nodes":"15","size_leaf_vector":"1"}},{"base_weights":[-8.844218E0,-2.172508E2,1.15233545E4,2.831858E2,-1.5178743E4,5.1075005E3,1.0946366E4,3.1598255E1,1.0754409E4,-2.1503418E3,-1.4124394E4,2.885036E3,-8.085669E3],"categories":[],"categories_nodes":[],"categories_segments":[],"categories_sizes":[],"default_left":[0,0,0,0,0,0,0,0,0,0,0,0,0],"id":41,"left_children":[1,3,5,7,9,11,-1,-1,-1,-1,-1,-1,-1],"loss_changes":[3.2494781E9,9.947404E9,6.37372E9,8.603217E9,9.795003E9,9.917528E9,0E0,0E0,0E0,0E0,0E0,0E0,0E0],"parents":[2147483647,0,0,1,1,2,2,3,3,4,4,5,5],"right_children":[2,4,6,8,10,12,-1,-1,-1,-1,-1,-1,-1],"split_conditions":[1.9236689E5,1.8794755E5,3.489E3,3.564E3,2.352E3,3.564E3,1.0946366E4,3.1598255E1,1.0754409E4,-2.1503418E3,-1.4124394E4,2.885036E3,-8.085669E3],"split_indices":[2,2,1,58,1,58,0,0,0,0,0,0,0],"split_type":[0,0,0,0,0,0,0,0,0,0,0,0,0],"sum_hessian":[1.35E3,1.327E3,2.3E1,1.285E3,4.2E1,2.1E1,2E0,1.283E3,2E0,4E1,2E0,1.8E1,3E0],"tree_param":{"num_deleted":"0","num_feature":"60","num_nodes":"13","size_leaf_vector":"1"}},{"base_weights":[-6.888232E0,-1.5897523E3,1.5573641E3,2.719693E3,-5.468632E3,3.813197E2,1.5183706E4,2.8327756E2,8.570038E3,-3.7034119E3,2.6040045E2,-1.1543695E4,1.8823097E2,6.1006147E3,-2.6162947E1],"categories":[],"categories_nodes":[],"categories_segments":[],"categories_sizes":[],"default_left":[0,0,0,0,0,0,0,0,0,0,0,0,0,0,0],"id":42,"left_children":[1,3,5,7,9,11,13,-1,-1,-1,-1,-1,-1,-1,-1],"loss_changes":[3.3475502E9,1.1247904E10,1.0891335E10,1.6623736E10,3.1298634E10,2.0448317E10,1.2672863E10,0E0,0E0,0E0,0E0,0E0,0E0,0E0,0E0],"parents":[2147483647,0,0,1,1,2,2,3,3,4,4,5,5,6,6],"right_children":[2,4,6,8,10,12,14,-1,-1,-1,-1,-1,-1,-1,-1],"split_conditions":[9.490932E4,8.207892E4,5.555E3,8.200764E4,7.235E3,9.619236E4,9.626364E4,2.8327756E2,8.570038E3,-3.7034119E3,2.6040045E2,-1.1543695E4,1.8823097E2,6.1006147E3,-2.6162947E1],"split_indices":[2,2,1,2,1,2,2,0,0,0,0,0,0,0,0],"split_type":[0,0,0,0,0,0,0,0,0,0,0,0,0,0,0],"sum_hessian":[1.35E3,6.71E2,6.79E2,3.18E2,3.53E2,6.26E2,5.3E1,3.09E2,9E0,1.2E2,2.33E2,5E0,6.21E2,2.6E1,2.7E1],"tree_param":{"num_deleted":"0","num_feature":"60","num_nodes":"15","size_leaf_vector":"1"}},{"base_weights":[-5.4057655E0,1.6831667E3,-1.7090244E3,2.945984E2,1.6269909E4,-1.2893615E4,-4.515705E0,1.6012166E2,-1.2441189E4,4.801351E3,-2.5906602E3,2.7277585E3,-6.586058E3,5.9524204E3,-2.996346E2],"categories":[],"categories_nodes":[],"categories_segments":[],"categories_sizes":[],"default_left":[0,0,0,0,0,0,0,0,0,0,0,0,0,0,0],"id":43,"left_children":[1,3,5,7,9,11,13,-1,-1,-1,-1,-1,-1,-1,-1],"loss_changes":[3.8892764E9,1.3748141E10,1.2830171E10,1.9689482E10,1.3650601E10,4.7763415E10,2.6054347E10,0E0,0E0,0E0,0E0,0E0,0E0,0E0,0E0],"parents":[2147483647,0,0,1,1,2,2,3,3,4,4,5,5,6,6],"right_children":[2,4,6,8,10,12,14,-1,-1,-1,-1,-1,-1,-1,-1],"split_conditions":[2.352E3,1.638E3,3.374E3,1.586E3,1.0693782E5,8.32194E4,3.949E3,1.6012166E2,-1.2441189E4,4.801351E3,-2.5906602E3,2.7277585E3,-6.586058E3,5.9524204E3,-2.996346E2],"split_indices":[1,1,1,1,2,2,1,0,0,0,0,0,0,0,0],"split_type":[0,0,0,0,0,0,0,0,0,0,0,0,0,0,0],"sum_hessian":[1.35E3,6.78E2,6.72E2,6.2E2,5.8E1,8.8E1,5.84E2,6.16E2,4E0,4.6E1,1.2E1,3.8E1,5E1,2.7E1,5.57E2],"tree_param":{"num_deleted":"0","num_feature":"60","num_nodes":"15","size_leaf_vector":"1"}},{"base_weights":[-1.0455487E1,-1.505265E3,1.8630566E3,-1.5720037E4,4.7546756E2,1.1711725E4,-9.6688904E2,-1.1005428E3,-8.288936E3,2.5115225E3,-3.0994327E2,5.476949E3,-1.3861783E3,-1.4386069E3,5.510197E2],"categories":[],"categories_nodes":[],"categories_segments":[],"categories_sizes":[],"default_left":[0,0,0,0,0,0,0,0,0,0,0,0,0,0,0],"id":44,"left_children":[1,3,5,7,9,11,13,-1,-1,-1,-1,-1,-1,-1,-1],"loss_changes":[3.786339E9,2.1180533E10,1.6734041E10,2.3952937E10,1.6193182E10,3.934274E10,1.0841907E10,0E0,0E0,0E0,0E0,0E0,0E0,0E0,0E0],"parents":[2147483647,0,0,1,1,2,2,3,3,4,4,5,5,6,6],"right_children":[2,4,6,8,10,12,14,-1,-1,-1,-1,-1,-1,-1,-1],"split_conditions":[1.0586862E5,1.249E3,1.6471027E5,9.427671E4,2.598E3,2.282E3,1.7224812E5,-1.1005428E3,-8.288936E3,2.5115225E3,-3.0994327E2,5.476949E3,-1.3861783E3,-1.4386069E3,5.510197E2],"split_indices":[2,1,2,2,1,1,2,0,0,0,0,0,0,0,0],"split_type":[0,0,0,0,0,0,0,0,0,0,0,0,0,0,0],"sum_hessian":[1.35E3,7.51E2,5.99E2,9.1E1,6.6E2,1.33E2,4.66E2,6.6E1,2.5E1,9.4E1,5.66E2,7.2E1,6.1E1,1.74E2,2.92E2],"tree_param":{"num_deleted":"0","num_feature":"60","num_nodes":"15","size_leaf_vector":"1"}},{"base_weights":[-1.1320015E1,-1.7768005E3,1.4357715E3,-3.109771E2,-2.1063896E4,7.5844505E1,1.2103819E4,1.8480363E2,-2.736723E3,2.6196233E3,-6.362587E3,-2.5875146E3,2.7497897E2,7.858072E3,1.1248555E3],"categories":[],"categories_nodes":[],"categories_segments":[],"categories_sizes":[],"default_left":[0,0,0,0,0,0,0,0,0,0,0,0,0,0,0],"id":45,"left_children":[1,3,5,7,9,11,13,-1,-1,-1,-1,-1,-1,-1,-1],"loss_changes":[3.454102E9,1.721078E10,1.0778353E10,9.376729E9,1.6206666E10,1.1175143E10,1.4576152E10,0E0,0E0,0E0,0E0,0E0,0E0,0E0,0E0],"parents":[2147483647,0,0,1,1,2,2,3,3,4,4,5,5,6,6],"right_children":[2,4,6,8,10,12,14,-1,-1,-1,-1,-1,-1,-1,-1],"split_conditions":[9.216504E4,9.015138E4,8.209E3,1.5094E4,1.99E3,1.0301742E5,9.265E3,1.8480363E2,-2.736723E3,2.6196233E3,-6.362587E3,-2.5875146E3,2.7497897E2,7.858072E3,1.1248555E3],"split_indices":[2,2,1,1,1,2,1,0,0,0,0,0,0,0,0],"split_type":[0,0,0,0,0,0,0,0,0,0,0,0,0,0,0],"sum_hessian":[1.35E3,6.08E2,7.42E2,5.66E2,4.2E1,6.59E2,8.3E1,5.19E2,4.7E1,1E1,3.2E1,5.9E1,6E2,1.5E1,6.8E1],"tree_param":{"num_deleted":"0","num_feature":"60","num_nodes":"15","size_leaf_vector":"1"}},{"base_weights":[-8.778196E0,5.278232E2,-4.6914307E3,-5.272584E2,1.280963E4,-1.377917E4,6.8171997E3,-1.2284972E3,1.8363019E2,4.408431E3,-2.578989E3,-4.8608184E3,-2.919103E2,3.950238E3,-2.896917E3],"categories":[],"categories_nodes":[],"categories_segments":[],"categories_sizes":[],"default_left":[0,0,0,0,0,0,0,0,0,0,0,0,0,0,0],"id":46,"left_children":[1,3,5,7,9,11,13,-1,-1,-1,-1,-1,-1,-1,-1],"loss_changes":[3.3971581E9,1.5725182E10,1.4631589E10,9.079666E9,2.3066776E10,1.0078242E10,1.7368146E10,0E0,0E0,0E0,0E0,0E0,0E0,0E0,0E0],"parents":[2147483647,0,0,1,1,2,2,3,3,4,4,5,5,6,6],"right_children":[2,4,6,8,10,12,14,-1,-1,-1,-1,-1,-1,-1,-1],"split_conditions":[1.8368856E5,1.7515278E5,5E0,4.25E2,4.5E1,1.8974736E5,7.69E2,-1.2284972E3,1.8363019E2,4.408431E3,-2.578989E3,-4.8608184E3,-2.919103E2,3.950238E3,-2.896917E3],"split_indices":[2,2,1,1,1,2,1,0,0,0,0,0,0,0,0],"split_type":[0,0,0,0,0,0,0,0,0,0,0,0,0,0,0],"sum_hessian":[1.35E3,1.212E3,1.38E2,1.117E3,9.5E1,7.7E1,6.1E1,2.28E2,8.89E2,7E1,2.5E1,4.1E1,3.6E1,3.8E1,2.3E1],"tree_param":{"num_deleted":"0","num_feature":"60","num_nodes":"15","size_leaf_vector":"1"}},{"base_weights":[-9.473292E0,-3.7321653E3,6.330464E2,6.3184924E2,-1.4615006E4,3.723366E4,1.17894455E2,7.424314E2,-6.091356E3,-8.930542E3,-9.450788E2,-1.2381825E3,1.0444886E4,-4.7250464E3,6.98655E1],"categories":[],"categories_nodes":[],"categories_segments":[],"categories_sizes":[],"default_left":[0,0,0,0,0,0,0,0,0,0,0,0,0,0,0],"id":47,"left_children":[1,3,5,7,9,11,13,-1,-1,-1,-1,-1,-1,-1,-1],"loss_changes":[3.233823E9,9.460316E9,2.1735283E10,1.3807104E10,1.672149E10,1.0738799E10,6.261499E9,0E0,0E0,0E0,0E0,0E0,0E0,0E0,0E0],"parents":[2147483647,0,0,1,1,2,2,3,3,4,4,5,5,6,6],"right_children":[2,4,6,8,10,12,14,-1,-1,-1,-1,-1,-1,-1,-1],"split_conditions":[7.88535E4,7.574E3,7.924554E4,7.714278E4,9.027E3,1.782E3,7.967322E4,7.424314E2,-6.091356E3,-8.930542E3,-9.450788E2,-1.2381825E3,1.0444886E4,-4.7250464E3,6.98655E1],"split_indices":[2,1,2,2,1,59,2,0,0,0,0,0,0,0,0],"split_type":[0,0,0,0,0,0,0,0,0,0,0,0,0,0,0],"sum_hessian":[1.35E3,1.98E2,1.152E3,1.42E2,5.6E1,1.5E1,1.137E3,1.3E2,1.2E1,1.3E1,4.3E1,4E0,1.1E1,1E1,1.127E3],"tree_param":{"num_deleted":"0","num_feature":"60","num_nodes":"15","size_leaf_vector":"1"}},{"base_weights":[-1.5487345E1,-1.367349E2,1.8079062E4,-9.853164E0,-6.8176636E3,-2.913829E3,2.9488428E4,2.160426E1,-6.2960728E3,8.839059E3,2.953325E3],"categories":[],"categories_nodes":[],"categories_segments":[],"categories_sizes":[],"default_left":[0,0,0,0,0,0,0,0,0,0,0],"id":48,"left_children":[1,3,5,7,-1,-1,9,-1,-1,-1,-1],"loss_changes":[2.9664576E9,5.785087E9,3.7820795E9,4.9705134E9,0E0,0E0,8.6296576E8,0E0,0E0,0E0,0E0],"parents":[2147483647,0,0,1,1,2,2,3,3,6,6],"right_children":[2,4,6,8,-1,-1,10,-1,-1,-1,-1],"split_conditions":[1.9712484E5,1.9364994E5,9.801E4,2.6556E4,-6.8176636E3,-2.913829E3,3.564E3,2.160426E1,-6.2960728E3,8.839059E3,2.953325E3],"split_indices":[2,2,0,1,0,0,58,0,0,0,0],"split_type":[0,0,0,0,0,0,0,0,0,0,0],"sum_hessian":[1.35E3,1.342E3,8E0,1.338E3,4E0,2E0,6E0,1.334E3,4E0,2E0,4E0],"tree_param":{"num_deleted":"0","num_feature":"60","num_nodes":"11","size_leaf_vector":"1"}},{"base_weights":[-1.5506222E1,-1.835305E2,1.2437821E4,-9.149854E1,-8.196909E3,5.178471E3,6.0552876E3,4.0783955E1,-1.9781962E3,2.5235286E3,-1.368673E3],"categories":[],"categories_nodes":[],"categories_segments":[],"categories_sizes":[],"default_left":[0,0,0,0,0,0,0,0,0,0,0],"id":49,"left_children":[1,3,5,7,-1,9,-1,-1,-1,-1,-1],"loss_changes":[2.8291978E9,5.0054154E9,2.174156E9,3.858086E9,0E0,1.338402E9,0E0,0E0,0E0,0E0,0E0],"parents":[2147483647,0,0,1,1,2,2,3,3,5,5],"right_children":[2,4,6,8,-1,10,-1,-1,-1,-1,-1],"split_conditions":[2.13E4,1.47015E5,1.637658E5,1.651E4,-8.196909E3,9.588942E4,6.0552876E3,4.0783955E1,-1.9781962E3,2.5235286E3,-1.368673E3],"split_indices":[1,0,2,1,0,2,0,0,0,0,0],"split_type":[0,0,0,0,0,0,0,0,0,0,0],"sum_hessian":[1.35E3,1.333E3,1.7E1,1.331E3,2E0,1.3E1,4E0,1.293E3,3.8E1,8E0,5E0],"tree_param":{"num_deleted":"0","num_feature":"60","num_nodes":"11","size_leaf_vector":"1"}},{"base_weights":[-1.4573843E1,-8.38322E3,2.1436676E2,-1.3983616E4,-1.3013878E3,1.7540639E4,-1.4844229E2,-1.7964499E2,-5.975414E3,1.3602098E3,-3.457873E3,6.579178E3,-8.789511E2,-1.1442098E3,1.03731865E2],"categories":[],"categories_nodes":[],"categories_segments":[],"categories_sizes":[],"default_left":[0,0,0,0,0,0,0,0,0,0,0,0,0,0,0],"id":50,"left_children":[1,3,5,7,9,11,13,-1,-1,-1,-1,-1,-1,-1,-1],"loss_changes":[2.590209E9,1.4096003E9,8.275148E9,4.1326044E9,2.319793E9,9.238806E9,4.7985357E9,0E0,0E0,0E0,0E0,0E0,0E0,0E0,0E0],"parents":[2147483647,0,0,1,1,2,2,3,3,4,4,5,5,6,6],"right_children":[2,4,6,8,10,12,14,-1,-1,-1,-1,-1,-1,-1,-1],"split_conditions":[5.714874E4,4.761E3,6.399162E4,3.159E3,9.265E3,5.125E3,7.88535E4,-1.7964499E2,-5.975414E3,1.3602098E3,-3.457873E3,6.579178E3,-8.789511E2,-1.1442098E3,1.03731865E2],"split_indices":[2,1,2,1,1,1,2,0,0,0,0,0,0,0,0],"split_type":[0,0,0,0,0,0,0,0,0,0,0,0,0,0,0],"sum_hessian":[1.35E3,3.5E1,1.315E3,1.9E1,1.6E1,2.6E1,1.289E3,1.1E1,8E0,1.1E1,5E0,1.5E1,1.1E1,1.37E2,1.152E3],"tree_param":{"num_deleted":"0","num_feature":"60","num_nodes":"15","size_leaf_vector":"1"}},{"base_weights":[-1.4313762E1,-2.213037E3,9.2602124E2,-3.698908E4,-8.732578E2,1.1633312E4,-7.4649E2,-4.6094136E3,-1.7014957E4,3.521446E2,-1.8197441E3,-9.760971E2,4.909032E3,-5.350406E0,-3.2840083E3],"categories":[],"categories_nodes":[],"categories_segments":[],"categories_sizes":[],"default_left":[0,0,0,0,0,0,0,0,0,0,0,0,0,0,0],"id":51,"left_children":[1,3,5,7,9,11,13,-1,-1,-1,-1,-1,-1,-1,-1],"loss_changes":[2.795291E9,1.883755E10,1.6967621E10,8.095447E9,8.4873134E9,2.741242E10,9.249858E9,0E0,0E0,0E0,0E0,0E0,0E0,0E0,0E0],"parents":[2147483647,0,0,1,1,2,2,3,3,4,4,5,5,6,6],"right_children":[2,4,6,8,10,12,14,-1,-1,-1,-1,-1,-1,-1,-1],"split_conditions":[2.15E2,1.6121755E5,9.99E2,5E0,1.8368856E5,1.0301742E5,1.7037702E5,-4.6094136E3,-1.7014957E4,3.521446E2,-1.8197441E3,-9.760971E2,4.909032E3,-5.350406E0,-3.2840083E3],"split_indices":[1,2,1,1,2,2,2,0,0,0,0,0,0,0,0],"split_type":[0,0,0,0,0,0,0,0,0,0,0,0,0,0,0],"sum_hessian":[1.35E3,4.04E2,9.46E2,1.4E1,3.9E2,1.27E2,8.19E2,1.2E1,2E0,2.96E2,9.4E1,5.6E1,7.1E1,7.84E2,3.5E1],"tree_param":{"num_deleted":"0","num_feature":"60","num_nodes":"15","size_leaf_vector":"1"}},{"base_weights":[-2.8066002E1,-1.5280727E2,1.8589223E4,-4.9216705E1,-2.78638E4,-2.30195E3,2.8833178E4,1.0352744E1,-5.4002295E3,-1.683971E3,-7.6039624E3,2.8544802E3,8.698017E3],"categories":[],"categories_nodes":[],"categories_segments":[],"categories_sizes":[],"default_left":[0,0,0,0,0,0,0,0,0,0,0,0,0],"id":52,"left_children":[1,3,5,7,9,-1,11,-1,-1,-1,-1,-1,-1],"loss_changes":[3.1403277E9,3.853841E9,3.1068557E9,3.6456433E9,6.672438E8,0E0,8.732042E8,0E0,0E0,0E0,0E0,0E0,0E0],"parents":[2147483647,0,0,1,1,2,2,3,3,4,4,6,6],"right_children":[2,4,6,8,10,-1,12,-1,-1,-1,-1,-1,-1],"split_conditions":[1.9712484E5,2.6556E4,9.801E4,1.9364994E5,1.5811686E5,-2.30195E3,1.434E3,1.0352744E1,-5.4002295E3,-1.683971E3,-7.6039624E3,2.8544802E3,8.698017E3],"split_indices":[2,1,0,2,2,0,1,0,0,0,0,0,0],"split_type":[0,0,0,0,0,0,0,0,0,0,0,0,0],"sum_hessian":[1.35E3,1.342E3,8E0,1.338E3,4E0,2E0,6E0,1.334E3,4E0,2E0,2E0,4E0,2E0],"tree_param":{"num_deleted":"0","num_feature":"60","num_nodes":"13","size_leaf_vector":"1"}},{"base_weights":[-2.6468618E1,-6.201504E2,3.2575513E3,-3.5026453E2,-3.464683E4,2.6149121E4,2.5399033E2,-1.0565352E2,4.9672905E3,-1.5534125E3,-8.243437E3,1.01691925E3,9.357986E3,-1.09179436E2,9.739167E3],"categories":[],"categories_nodes":[],"categories_segments":[],"categories_sizes":[],"default_left":[0,0,0,0,0,0,0,0,0,0,0,0,0,0,0],"id":53,"left_children":[1,3,5,7,9,11,13,-1,-1,-1,-1,-1,-1,-1,-1],"loss_changes":[2.6360148E9,1.0502767E10,1.4225896E10,5.110648E9,1.2693494E9,1.0197025E10,7.156219E9,0E0,0E0,0E0,0E0,0E0,0E0,0E0,0E0],"parents":[2147483647,0,0,1,1,2,2,3,3,4,4,5,5,6,6],"right_children":[2,4,6,8,10,12,14,-1,-1,-1,-1,-1,-1,-1,-1],"split_conditions":[1.1248E4,1.1038E4,1.182E4,1.0854E4,7.637652E4,1.1524E4,1.8867816E5,-1.0565352E2,4.9672905E3,-1.5534125E3,-8.243437E3,1.01691925E3,9.357986E3,-1.09179436E2,9.739167E3],"split_indices":[1,1,1,1,2,1,2,0,0,0,0,0,0,0,0],"split_type":[0,0,0,0,0,0,0,0,0,0,0,0,0,0,0],"sum_hessian":[1.35E3,1.144E3,2.06E2,1.136E3,8E0,2.3E1,1.83E2,1.129E3,7E0,2E0,6E0,1.2E1,1.1E1,1.81E2,2E0],"tree_param":{"num_deleted":"0","num_feature":"60","num_nodes":"15","size_leaf_vector":"1"}},{"base_weights":[-1.0021579E1,-1.572553E2,1.0902189E4,-7.3752205E1,-7.4360415E3,1.9668693E4,-2.5145273E3,3.0551914E1,-1.6464838E3,7.220854E3,2.4009514E3,-2.7141072E3,4.0871333E3],"categories":[],"categories_nodes":[],"categories_segments":[],"categories_sizes":[],"default_left":[0,0,0,0,0,0,0,0,0,0,0,0,0],"id":54,"left_children":[1,3,5,7,-1,9,11,-1,-1,-1,-1,-1,-1],"loss_changes":[2.172292E9,4.1213604E9,2.166576E9,2.462839E9,0E0,9.521503E8,2.3072233E9,0E0,0E0,0E0,0E0,0E0,0E0],"parents":[2147483647,0,0,1,1,2,2,3,3,5,5,6,6],"right_children":[2,4,6,8,-1,10,12,-1,-1,-1,-1,-1,-1],"split_conditions":[2.13E4,1.47015E5,1.782E3,1.7133E4,-7.4360415E3,9.801E4,9.5123164E4,3.0551914E1,-1.6464838E3,7.220854E3,2.4009514E3,-2.7141072E3,4.0871333E3],"split_indices":[1,0,59,1,0,0,2,0,0,0,0,0,0],"split_type":[0,0,0,0,0,0,0,0,0,0,0,0,0],"sum_hessian":[1.35E3,1.333E3,1.7E1,1.331E3,2E0,1E1,7E0,1.296E3,3.5E1,2E0,8E0,5E0,2E0],"tree_param":{"num_deleted":"0","num_feature":"60","num_nodes":"13","size_leaf_vector":"1"}},{"base_weights":[-6.5893903E0,-1.1564679E2,1.6267931E4,3.844357E2,-5.2155244E3,-1.9850126E3,2.516951E4,2.541955E3,-9.3110466E1,-3.0515945E3,-2.1356721E2,7.5132837E3,2.5394927E3],"categories":[],"categories_nodes":[],"categories_segments":[],"categories_sizes":[],"default_left":[0,0,0,0,0,0,0,0,0,0,0,0,0],"id":55,"left_children":[1,3,5,7,9,-1,11,-1,-1,-1,-1,-1,-1],"loss_changes":[2.399713E9,3.4271383E9,2.34824E9,1.282902E10,4.98206E9,0E0,6.0530534E8,0E0,0E0,0E0,0E0,0E0,0E0],"parents":[2147483647,0,0,1,1,2,2,3,3,4,4,6,6],"right_children":[2,4,6,8,10,-1,12,-1,-1,-1,-1,-1,-1],"split_conditions":[1.9712484E5,1.782E3,9.801E4,1.782E3,1.95E2,-1.9850126E3,3.564E3,2.541955E3,-9.3110466E1,-3.0515945E3,-2.1356721E2,7.5132837E3,2.5394927E3],"split_indices":[2,58,0,59,1,0,58,0,0,0,0,0,0],"split_type":[0,0,0,0,0,0,0,0,0,0,0,0,0],"sum_hessian":[1.35E3,1.342E3,8E0,1.223E3,1.19E2,2E0,6E0,7.8E1,1.145E3,3.4E1,8.5E1,2E0,4E0],"tree_param":{"num_deleted":"0","num_feature":"60","num_nodes":"13","size_leaf_vector":"1"}},{"base_weights":[1.0828206E-1,-6.5222617E3,2.2983946E2,3.0224736E3,-1.2221675E4,2.5837389E4,-1.0780253E2,-1.0797814E3,5.199569E3,-8.0696187E3,-1.4848938E3,7.821987E3,-1.00278644E3,-9.260625E2,8.671603E1],"categories":[],"categories_nodes":[],"categories_segments":[],"categories_sizes":[],"default_left":[0,0,0,0,0,0,0,0,0,0,0,0,0,0,0],"id":56,"left_children":[1,3,5,7,9,11,13,-1,-1,-1,-1,-1,-1,-1,-1],"loss_changes":[2.0258263E9,2.5393116E9,1.1294701E10,3.623078E9,3.613355E9,7.1571794E9,3.1604547E9,0E0,0E0,0E0,0E0,0E0,0E0,0E0,0E0],"parents":[2147483647,0,0,1,1,2,2,3,3,4,4,5,5,6,6],"right_children":[2,4,6,8,10,12,14,-1,-1,-1,-1,-1,-1,-1,-1],"split_conditions":[5.998212E4,3.159E3,6.399162E4,2.486E3,3.374E3,7.562E3,7.88535E4,-1.0797814E3,5.199569E3,-8.0696187E3,-1.4848938E3,7.821987E3,-1.00278644E3,-9.260625E2,8.671603E1],"split_indices":[2,1,2,1,1,1,2,0,0,0,0,0,0,0,0],"split_type":[0,0,0,0,0,0,0,0,0,0,0,0,0,0,0],"sum_hessian":[1.35E3,4.5E1,1.305E3,1.7E1,2.8E1,1.6E1,1.289E3,1.3E1,4E0,3E0,2.5E1,1.1E1,5E0,1.37E2,1.152E3],"tree_param":{"num_deleted":"0","num_feature":"60","num_nodes":"15","size_leaf_vector":"1"}},{"base_weights":[4.933209E-1,-1.6201913E2,8.992829E3,1.7082474E2,-1.3647534E4,6.5106064E3,1.079458E3,-9.344207E1,8.265566E2,-1.6314688E3,-8.332619E3,-1.1902196E3,8.1118916E3],"categories":[],"categories_nodes":[],"categories_segments":[],"categories_sizes":[],"default_left":[0,0,0,0,0,0,0,0,0,0,0,0,0],"id":57,"left_children":[1,3,5,7,9,-1,11,-1,-1,-1,-1,-1,-1],"loss_changes":[1.9757632E9,5.963154E9,4.439435E9,3.2805757E9,4.582084E9,0E0,5.5151345E9,0E0,0E0,0E0,0E0,0E0,0E0],"parents":[2147483647,0,0,1,1,2,2,3,3,4,4,6,6],"right_children":[2,4,6,8,10,-1,12,-1,-1,-1,-1,-1,-1],"split_conditions":[1.9236689E5,1.8923058E5,1.92456E5,1.7515278E5,3.6E2,6.5106064E3,3.489E3,-9.344207E1,8.265566E2,-1.6314688E3,-8.332619E3,-1.1902196E3,8.1118916E3],"split_indices":[2,2,2,2,1,0,1,0,0,0,0,0,0],"split_type":[0,0,0,0,0,0,0,0,0,0,0,0,0],"sum_hessian":[1.35E3,1.327E3,2.3E1,1.296E3,3.1E1,5E0,1.8E1,1.117E3,1.79E2,2.7E1,4E0,1.6E1,2E0],"tree_param":{"num_deleted":"0","num_feature":"60","num_nodes":"13","size_leaf_vector":"1"}},{"base_weights":[3.5005746E0,4.5302014E2,-3.2081482E3,-3.7385593E2,1.3844243E4,-2.8909078E4,-2.7398834E2,-1.001938E2,9.407366E3,4.411799E3,-2.131277E3,-7.1728696E3,-2.0360729E3,9.255382E3,-4.3966855E2],"categories":[],"categories_nodes":[],"categories_segments":[],"categories_sizes":[],"default_left":[0,0,0,0,0,0,0,0,0,0,0,0,0,0,0],"id":58,"left_children":[1,3,5,7,9,11,13,-1,-1,-1,-1,-1,-1,-1,-1],"loss_changes":[1.9518906E9,1.3137614E10,1.2510246E10,6.761213E9,1.412246E10,1.8493624E9,1.3538799E10,0E0,0E0,0E0,0E0,0E0,0E0,0E0,0E0],"parents":[2147483647,0,0,1,1,2,2,3,3,4,4,5,5,6,6],"right_children":[2,4,6,8,10,12,14,-1,-1,-1,-1,-1,-1,-1,-1],"split_conditions":[1.8206694E5,1.7515278E5,1.8318961E5,3.564E3,4.5E1,5E0,1.8333216E5,-1.001938E2,9.407366E3,4.411799E3,-2.131277E3,-7.1728696E3,-2.0360729E3,9.255382E3,-4.3966855E2],"split_indices":[2,2,2,58,1,1,2,0,0,0,0,0,0,0,0],"split_type":[0,0,0,0,0,0,0,0,0,0,0,0,0,0,0],"sum_hessian":[1.35E3,1.185E3,1.65E2,1.117E3,6.8E1,1.6E1,1.49E2,1.115E3,2E0,5.1E1,1.7E1,1.1E1,5E0,5E0,1.44E2],"tree_param":{"num_deleted":"0","num_feature":"60","num_nodes":"15","size_leaf_vector":"1"}},{"base_weights":[1.1079846E1,-1.9905259E3,8.670875E2,-3.0518168E4,-8.9102423E2,9.568178E3,-4.921889E2,-3.7544216E3,-1.424901E4,3.1417166E3,-3.7512396E2,-6.455533E2,4.0433286E3,-4.1159224E3,1.9968321E0],"categories":[],"categories_nodes":[],"categories_segments":[],"categories_sizes":[],"default_left":[0,0,0,0,0,0,0,0,0,0,0,0,0,0,0],"id":59,"left_children":[1,3,5,7,9,11,13,-1,-1,-1,-1,-1,-1,-1,-1],"loss_changes":[2.3165158E9,1.2676114E10,1.1205055E10,5.838287E9,6.4199276E9,1.750617E10,8.271843E9,0E0,0E0,0E0,0E0,0E0,0E0,0E0,0E0],"parents":[2147483647,0,0,1,1,2,2,3,3,4,4,5,5,6,6],"right_children":[2,4,6,8,10,12,14,-1,-1,-1,-1,-1,-1,-1,-1],"split_conditions":[2.15E2,1.6121755E5,9.99E2,5E0,1.6471027E5,1.043361E5,1.058E3,-3.7544216E3,-1.424901E4,3.1417166E3,-3.7512396E2,-6.455533E2,4.0433286E3,-4.1159224E3,1.9968321E0],"split_indices":[1,2,1,1,2,2,1,0,0,0,0,0,0,0,0],"split_type":[0,0,0,0,0,0,0,0,0,0,0,0,0,0,0],"sum_hessian":[1.35E3,4.04E2,9.46E2,1.4E1,3.9E2,1.27E2,8.19E2,1.2E1,2E0,2.1E1,3.69E2,5.8E1,6.9E1,1.9E1,8E2],"tree_param":{"num_deleted":"0","num_feature":"60","num_nodes":"15","size_leaf_vector":"1"}},{"base_weights":[-2.9462738E0,-9.984371E1,1.4456632E4,-6.9361305E0,-2.4960525E4,-1.4645751E3,2.1725473E4,1.725466E1,-4.978493E3,-1.3895625E3,-6.930613E3,6.7672915E3,2.0227574E3],"categories":[],"categories_nodes":[],"categories_segments":[],"categories_sizes":[],"default_left":[0,0,0,0,0,0,0,0,0,0,0,0,0],"id":60,"left_children":[1,3,5,7,9,-1,11,-1,-1,-1,-1,-1,-1],"loss_changes":[1.8943241E9,3.1018156E9,1.583899E9,3.1080463E9,6.3218176E8,0E0,6.42188E8,0E0,0E0,0E0,0E0,0E0,0E0],"parents":[2147483647,0,0,1,1,2,2,3,3,4,4,6,6],"right_children":[2,4,6,8,10,-1,12,-1,-1,-1,-1,-1,-1],"split_conditions":[1.9712484E5,2.6556E4,9.801E4,1.9364994E5,1.5811686E5,-1.4645751E3,3.564E3,1.725466E1,-4.978493E3,-1.3895625E3,-6.930613E3,6.7672915E3,2.0227574E3],"split_indices":[2,1,0,2,2,0,58,0,0,0,0,0,0],"split_type":[0,0,0,0,0,0,0,0,0,0,0,0,0],"sum_hessian":[1.35E3,1.342E3,8E0,1.338E3,4E0,2E0,6E0,1.334E3,4E0,2E0,2E0,2E0,4E0],"tree_param":{"num_deleted":"0","num_feature":"60","num_nodes":"13","size_leaf_vector":"1"}},{"base_weights":[-6.7609186E0,-8.657205E2,1.6317422E3,3.254058E2,-1.322401E4,-3.0414893E3,5.2642134E3,-1.3625629E2,4.397621E3,-4.780088E3,4.1180264E2,-7.287221E1,-4.620954E3,4.0046626E3,6.538804E2],"categories":[],"categories_nodes":[],"categories_segments":[],"categories_sizes":[],"default_left":[0,0,0,0,0,0,0,0,0,0,0,0,0,0,0],"id":61,"left_children":[1,3,5,7,9,11,13,-1,-1,-1,-1,-1,-1,-1,-1],"loss_changes":[1.9028207E9,1.3061195E10,7.9095613E9,1.7679106E10,1.2776327E10,1.0948824E10,7.6482417E9,0E0,0E0,0E0,0E0,0E0,0E0,0E0,0E0],"parents":[2147483647,0,0,1,1,2,2,3,3,4,4,5,5,6,6],"right_children":[2,4,6,8,10,12,14,-1,-1,-1,-1,-1,-1,-1,-1],"split_conditions":[5.986E3,4.319E3,8.42886E4,3.489E3,1.0102158E5,8.3041195E4,8.541126E4,-1.3625629E2,4.397621E3,-4.780088E3,4.1180264E2,-7.287221E1,-4.620954E3,4.0046626E3,6.538804E2],"split_indices":[1,1,2,1,2,2,2,0,0,0,0,0,0,0,0],"split_type":[0,0,0,0,0,0,0,0,0,0,0,0,0,0,0],"sum_hessian":[1.35E3,8.86E2,4.64E2,8.09E2,7.7E1,2.03E2,2.61E2,7.74E2,3.5E1,4.5E1,3.2E1,1.8E2,2.3E1,3E1,2.31E2],"tree_param":{"num_deleted":"0","num_feature":"60","num_nodes":"15","size_leaf_vector":"1"}},{"base_weights":[-5.516746E0,2.1713975E3,-6.7776276E2,1.1275591E3,3.4313246E4,-6.893553E3,5.8933984E2,1.2602726E3,-1.4011829E3,1.3813063E3,1.4739338E4,-2.7309793E2,-3.7859915E3,3.3686003E3,-7.443871E1],"categories":[],"categories_nodes":[],"categories_segments":[],"categories_sizes":[],"default_left":[0,0,0,0,0,0,0,0,0,0,0,0,0,0,0],"id":62,"left_children":[1,3,5,7,9,11,13,-1,-1,-1,-1,-1,-1,-1,-1],"loss_changes":[1.9785545E9,1.0664045E10,8.140017E9,1.3089255E10,1.028472E10,1.1618302E10,1.3431098E10,0E0,0E0,0E0,0E0,0E0,0E0,0E0,0E0],"parents":[2147483647,0,0,1,1,2,2,3,3,4,4,5,5,6,6],"right_children":[2,4,6,8,10,12,14,-1,-1,-1,-1,-1,-1,-1,-1],"split_conditions":[8.207892E4,8.200764E4,8.765658E4,7.574E3,1.0113E4,8.6159695E4,8.90109E4,1.2602726E3,-1.4011829E3,1.3813063E3,1.4739338E4,-2.7309793E2,-3.7859915E3,3.3686003E3,-7.443871E1],"split_indices":[2,2,2,1,1,2,2,0,0,0,0,0,0,0,0],"split_type":[0,0,0,0,0,0,0,0,0,0,0,0,0,0,0],"sum_hessian":[1.35E3,3.18E2,1.032E3,3.09E2,9E0,1.74E2,8.58E2,1.89E2,1.2E2,6E0,3E0,1.2E2,5.4E1,4.7E1,8.11E2],"tree_param":{"num_deleted":"0","num_feature":"60","num_nodes":"15","size_leaf_vector":"1"}},{"base_weights":[6.84975E0,-8.5357275E2,1.6058022E3,1.6815846E2,-1.2664269E4,-2.2868955E3,4.7227354E3,-1.235606E2,3.4166985E3,-4.96658E3,3.4637234E2,-2.3734734E1,-4.597496E3,3.2634514E3,4.509042E2],"categories":[],"categories_nodes":[],"categories_segments":[],"categories_sizes":[],"default_left":[0,0,0,0,0,0,0,0,0,0,0,0,0,0,0],"id":63,"left_children":[1,3,5,7,9,11,13,-1,-1,-1,-1,-1,-1,-1,-1],"loss_changes":[1.8600422E9,1.0609336E10,5.749841E9,1.0779342E10,1.230569E10,9.467683E9,7.489685E9,0E0,0E0,0E0,0E0,0E0,0E0,0E0,0E0],"parents":[2147483647,0,0,1,1,2,2,3,3,4,4,5,5,6,6],"right_children":[2,4,6,8,10,12,14,-1,-1,-1,-1,-1,-1,-1,-1],"split_conditions":[5.714E3,4.319E3,8.42886E4,3.489E3,1.0102158E5,8.325504E4,1.782E3,-1.235606E2,3.4166985E3,-4.96658E3,3.4637234E2,-2.3734734E1,-4.597496E3,3.2634514E3,4.509042E2],"split_indices":[1,1,2,1,2,2,59,0,0,0,0,0,0,0,0],"split_type":[0,0,0,0,0,0,0,0,0,0,0,0,0,0,0],"sum_hessian":[1.35E3,8.78E2,4.72E2,8.09E2,6.9E1,2.1E2,2.62E2,7.74E2,3.5E1,3.7E1,3.2E1,1.91E2,1.9E1,4.5E1,2.17E2],"tree_param":{"num_deleted":"0","num_feature":"60","num_nodes":"15","size_leaf_vector":"1"}},{"base_weights":[3.83309E0,3.6521603E2,-3.5125107E3,1.0212368E4,-3.1273712E2,-1.9198432E4,-1.5380382E3,5.407473E3,9.608758E2,3.5814365E2,-3.7303864E2,-6.5305634E2,-7.9796836E3,2.0929692E3,-1.3240077E3],"categories":[],"categories_nodes":[],"categories_segments":[],"categories_sizes":[],"default_left":[0,0,0,0,0,0,0,0,0,0,0,0,0,0,0],"id":64,"left_children":[1,3,5,7,9,11,13,-1,-1,-1,-1,-1,-1,-1,-1],"loss_changes":[1.7180616E9,8.1878564E9,3.8728707E9,7.058265E9,3.7521592E9,4.4871444E9,6.962126E9,0E0,0E0,0E0,0E0,0E0,0E0,0E0,0E0],"parents":[2147483647,0,0,1,1,2,2,3,3,4,4,5,5,6,6],"right_children":[2,4,6,8,10,12,14,-1,-1,-1,-1,-1,-1,-1,-1],"split_conditions":[1.782E3,1.782E3,7.532514E4,7.637652E4,1.169E3,7.20819E4,9.015138E4,5.407473E3,9.608758E2,3.5814365E2,-3.7303864E2,-6.5305634E2,-7.9796836E3,2.0929692E3,-1.3240077E3],"split_indices":[58,59,2,2,1,2,2,0,0,0,0,0,0,0,0],"split_type":[0,0,0,0,0,0,0,0,0,0,0,0,0,0,0],"sum_hessian":[1.35E3,1.225E3,1.25E2,7.8E1,1.147E3,1.3E1,1.12E2,1.8E1,6E1,4.87E2,6.6E2,8E0,5E0,3.3E1,7.9E1],"tree_param":{"num_deleted":"0","num_feature":"60","num_nodes":"15","size_leaf_vector":"1"}},{"base_weights":[1.945233E0,8.0541113E2,-1.5872933E3,-4.1227798E2,9.35466E3,-1.6779148E4,-3.8515625E1,-2.0222584E3,2.028465E2,4.1790024E3,-1.2935575E3,-1.3668422E3,-2.19095E4,5.4155645E3,-2.9747647E2],"categories":[],"categories_nodes":[],"categories_segments":[],"categories_sizes":[],"default_left":[0,0,0,0,0,0,0,0,0,0,0,0,0,0,0],"id":65,"left_children":[1,3,5,7,9,11,13,-1,-1,-1,-1,-1,-1,-1,-1],"loss_changes":[1.7263689E9,9.352331E9,1.0681431E10,1.0898986E10,2.0585964E10,3.7999497E10,1.6266203E10,0E0,0E0,0E0,0E0,0E0,0E0,0E0,0E0],"parents":[2147483647,0,0,1,1,2,2,3,3,4,4,5,5,6,6],"right_children":[2,4,6,8,10,12,14,-1,-1,-1,-1,-1,-1,-1,-1],"split_conditions":[1.6529833E5,1.0934352E5,1.6659917E5,1.249E3,1.434E3,1.782E3,1.6716942E5,-2.0222584E3,2.028465E2,4.1790024E3,-1.2935575E3,-1.3668422E3,-2.19095E4,5.4155645E3,-2.9747647E2],"split_indices":[2,2,2,1,1,58,2,0,0,0,0,0,0,0,0],"split_type":[0,0,0,0,0,0,0,0,0,0,0,0,0,0,0],"sum_hessian":[1.35E3,8.97E2,4.53E2,7.86E2,1.11E2,4.1E1,4.12E2,1E2,6.86E2,6.4E1,4.7E1,3.8E1,3E0,2E1,3.92E2],"tree_param":{"num_deleted":"0","num_feature":"60","num_nodes":"15","size_leaf_vector":"1"}},{"base_weights":[-1.1103647E1,-1.6583667E2,8.551253E3,9.268115E1,-1.0638705E4,5.3094585E3,2.4182278E3,3.6866352E1,-4.72534E3,-4.227802E3,2.3655724E2,-6.929006E2,6.989525E3],"categories":[],"categories_nodes":[],"categories_segments":[],"categories_sizes":[],"default_left":[0,0,0,0,0,0,0,0,0,0,0,0,0],"id":66,"left_children":[1,3,5,7,9,-1,11,-1,-1,-1,-1,-1,-1],"loss_changes":[1.7913302E9,3.596444E9,2.5846866E9,2.8238976E9,3.9971384E9,0E0,3.7569482E9,0E0,0E0,0E0,0E0,0E0,0E0],"parents":[2147483647,0,0,1,1,2,2,3,3,4,4,6,6],"right_children":[2,4,6,8,10,-1,12,-1,-1,-1,-1,-1,-1],"split_conditions":[1.9236689E5,1.8923058E5,1.92456E5,2.6556E4,1.9047798E5,5.3094585E3,3.489E3,3.6866352E1,-4.72534E3,-4.227802E3,2.3655724E2,-6.929006E2,6.989525E3],"split_indices":[2,2,2,1,2,0,1,0,0,0,0,0,0],"split_type":[0,0,0,0,0,0,0,0,0,0,0,0,0],"sum_hessian":[1.35E3,1.327E3,2.3E1,1.296E3,3.1E1,5E0,1.8E1,1.292E3,4E0,1.6E1,1.5E1,1.6E1,2E0],"tree_param":{"num_deleted":"0","num_feature":"60","num_nodes":"13","size_leaf_vector":"1"}},{"base_weights":[-6.724973E0,-1.6690742E3,7.042129E2,-1.3559016E4,1.2085234E3,7.9634307E3,-4.297921E2,-1.4223202E3,-6.708996E3,6.3401235E3,-1.1317675E2,1.0784779E3,8.271831E3,4.1499523E1,-2.862862E3],"categories":[],"categories_nodes":[],"categories_segments":[],"categories_sizes":[],"default_left":[0,0,0,0,0,0,0,0,0,0,0,0,0,0,0],"id":67,"left_children":[1,3,5,7,9,11,13,-1,-1,-1,-1,-1,-1,-1,-1],"loss_changes":[1.5978237E9,1.3873246E10,7.799117E9,9.941207E9,1.7710402E10,1.0767283E10,7.2587075E9,0E0,0E0,0E0,0E0,0E0,0E0,0E0,0E0],"parents":[2147483647,0,0,1,1,2,2,3,3,4,4,5,5,6,6],"right_children":[2,4,6,8,10,12,14,-1,-1,-1,-1,-1,-1,-1,-1],"split_conditions":[2.15E2,1.6659917E5,9.99E2,1.6597548E5,1.6716942E5,9.54E2,1.7037702E5,-1.4223202E3,-6.708996E3,6.3401235E3,-1.1317675E2,1.0784779E3,8.271831E3,4.1499523E1,-2.862862E3],"split_indices":[1,2,1,2,2,1,2,0,0,0,0,0,0,0,0],"split_type":[0,0,0,0,0,0,0,0,0,0,0,0,0,0,0],"sum_hessian":[1.35E3,4.04E2,9.46E2,7.8E1,3.26E2,1.27E2,8.19E2,6E1,1.8E1,1.7E1,3.09E2,1.19E2,8E0,7.84E2,3.5E1],"tree_param":{"num_deleted":"0","num_feature":"60","num_nodes":"15","size_leaf_vector":"1"}},{"base_weights":[-1.9539183E0,-9.618219E1,1.4059215E4,-1.6068201E1,-4.3062944E3,-1.1253458E3,2.048759E4,-2.8561533E1,2.802221E3,6.233225E3,1.9965901E3],"categories":[],"categories_nodes":[],"categories_segments":[],"categories_sizes":[],"default_left":[0,0,0,0,0,0,0,0,0,0,0],"id":68,"left_children":[1,3,5,7,-1,-1,9,-1,-1,-1,-1],"loss_changes":[1.7913727E9,2.3059428E9,1.254216E9,2.3824701E9,0E0,0E0,4.7408947E8,0E0,0E0,0E0,0E0],"parents":[2147483647,0,0,1,1,2,2,3,3,6,6],"right_children":[2,4,6,8,-1,-1,10,-1,-1,-1,-1],"split_conditions":[1.9712484E5,1.9364994E5,9.801E4,1.9236689E5,-4.3062944E3,-1.1253458E3,3.564E3,-2.8561533E1,2.802221E3,6.233225E3,1.9965901E3],"split_indices":[2,2,0,2,0,0,58,0,0,0,0],"split_type":[0,0,0,0,0,0,0,0,0,0,0],"sum_hessian":[1.35E3,1.342E3,8E0,1.338E3,4E0,2E0,6E0,1.327E3,1.1E1,2E0,4E0],"tree_param":{"num_deleted":"0","num_feature":"60","num_nodes":"11","size_leaf_vector":"1"}},{"base_weights":[2.5613916E0,1.8577496E3,-5.7034045E2,9.7333167E2,2.9088932E4,-6.5617656E3,-3.8162326E2,1.052104E3,-1.1533323E3,1.1396608E3,1.255006E4,-3.279962E2,6.1057745E2],"categories":[],"categories_nodes":[],"categories_segments":[],"categories_sizes":[],"default_left":[0,0,0,0,0,0,0,0,0,0,0,0,0],"id":69,"left_children":[1,3,5,7,9,-1,11,-1,-1,-1,-1,-1,-1],"loss_changes":[1.4369576E9,7.654402E9,6.272207E9,8.987978E9,7.516034E9,0E0,4.4478607E9,0E0,0E0,0E0,0E0,0E0,0E0],"parents":[2147483647,0,0,1,1,2,2,3,3,4,4,6,6],"right_children":[2,4,6,8,10,-1,12,-1,-1,-1,-1,-1,-1],"split_conditions":[8.207892E4,8.200764E4,8.234622E4,7.574E3,1.0113E4,-6.5617656E3,7.235E3,1.052104E3,-1.1533323E3,1.1396608E3,1.255006E4,-3.279962E2,6.1057745E2],"split_indices":[2,2,2,1,1,0,1,0,0,0,0,0,0],"split_type":[0,0,0,0,0,0,0,0,0,0,0,0,0],"sum_hessian":[1.35E3,3.18E2,1.032E3,3.09E2,9E0,5E0,1.027E3,1.89E2,1.2E2,6E0,3E0,7.52E2,2.75E2],"tree_param":{"num_deleted":"0","num_feature":"60","num_nodes":"13","size_leaf_vector":"1"}},{"base_weights":[7.4639473E0,-5.9933447E3,2.1881903E2,7.9221855E3,-9.592316E3,2.0980004E4,-5.49476E1,-2.0453704E3,7.5404907E3,-8.685682E2,-5.6157627E3,7.162496E3,7.632834E2,-1.5466206E3,4.1929653E1],"categories":[],"categories_nodes":[],"categories_segments":[],"categories_sizes":[],"default_left":[0,0,0,0,0,0,0,0,0,0,0,0,0,0,0],"id":70,"left_children":[1,3,5,7,9,11,13,-1,-1,-1,-1,-1,-1,-1,-1],"loss_changes":[1.7147867E9,2.3797458E9,7.4240906E9,5.790409E9,3.468702E9,4.1911583E9,2.6223956E9,0E0,0E0,0E0,0E0,0E0,0E0,0E0,0E0],"parents":[2147483647,0,0,1,1,2,2,3,3,4,4,5,5,6,6],"right_children":[2,4,6,8,10,12,14,-1,-1,-1,-1,-1,-1,-1,-1],"split_conditions":[5.998212E4,1.99E3,6.399162E4,5.499252E4,5.714874E4,5.125E3,7.033554E4,-2.0453704E3,7.5404907E3,-8.685682E2,-5.6157627E3,7.162496E3,7.632834E2,-1.5466206E3,4.1929653E1],"split_indices":[2,1,2,2,2,1,2,0,0,0,0,0,0,0,0],"split_type":[0,0,0,0,0,0,0,0,0,0,0,0,0,0,0],"sum_hessian":[1.35E3,4.5E1,1.305E3,9E0,3.6E1,1.6E1,1.289E3,6E0,3E0,2.9E1,7E0,8E0,8E0,4.2E1,1.247E3],"tree_param":{"num_deleted":"0","num_feature":"60","num_nodes":"15","size_leaf_vector":"1"}},{"base_weights":[9.985026E0,-1.1657625E3,9.3688385E2,-4.323888E2,-4.894998E4,2.41879E2,1.3708078E4,3.958056E3,-2.881898E2,-1.4097822E4,-3.5241711E3,1.029201E2,-7.750225E3,6.2779336E3,2.6983646E2],"categories":[],"categories_nodes":[],"categories_segments":[],"categories_sizes":[],"default_left":[0,0,0,0,0,0,0,0,0,0,0,0,0,0,0],"id":71,"left_children":[1,3,5,7,9,11,13,-1,-1,-1,-1,-1,-1,-1,-1],"loss_changes":[1.4734106E9,2.0864872E10,6.7069727E9,1.2021235E10,4.831138E9,7.655318E9,8.480121E9,0E0,0E0,0E0,0E0,0E0,0E0,0E0,0E0],"parents":[2147483647,0,0,1,1,2,2,3,3,4,4,5,5,6,6],"right_children":[2,4,6,8,10,12,14,-1,-1,-1,-1,-1,-1,-1,-1],"split_conditions":[9.179082E4,9.1095836E4,1.4155E4,6.48E2,9.645E3,3.564E3,1.651E4,3.958056E3,-2.881898E2,-1.4097822E4,-3.5241711E3,1.029201E2,-7.750225E3,6.2779336E3,2.6983646E2],"split_indices":[2,2,1,1,1,58,1,0,0,0,0,0,0,0,0],"split_type":[0,0,0,0,0,0,0,0,0,0,0,0,0,0,0],"sum_hessian":[1.35E3,5.95E2,7.55E2,5.87E2,8E0,7.17E2,3.8E1,2.7E1,5.6E2,4E0,4E0,7.13E2,4E0,1.5E1,2.3E1],"tree_param":{"num_deleted":"0","num_feature":"60","num_nodes":"15","size_leaf_vector":"1"}},{"base_weights":[-3.1477897E0,-1.0164006E2,1.46944375E4,2.1498218E2,-4.731979E3,5.2620444E3,6.361042E3,-3.781566E1,4.1996606E3,-2.3827324E3,1.3542125E2,2.6853975E3,-2.0200416E3],"categories":[],"categories_nodes":[],"categories_segments":[],"categories_sizes":[],"default_left":[0,0,0,0,0,0,0,0,0,0,0,0,0],"id":72,"left_children":[1,3,5,7,9,11,-1,-1,-1,-1,-1,-1,-1],"loss_changes":[1.9571992E9,1.969947E9,1.2851991E9,1.05683E10,3.3488517E9,1.0136387E9,0E0,0E0,0E0,0E0,0E0,0E0,0E0],"parents":[2147483647,0,0,1,1,2,2,3,3,4,4,5,5],"right_children":[2,4,6,8,10,12,-1,-1,-1,-1,-1,-1,-1],"split_conditions":[1.9712484E5,1.5094E4,1.434E3,1.4155E4,8.787042E4,3.564E3,6.361042E3,-3.781566E1,4.1996606E3,-2.3827324E3,1.3542125E2,2.6853975E3,-2.0200416E3],"split_indices":[2,1,1,1,2,58,0,0,0,0,0,0,0],"split_type":[0,0,0,0,0,0,0,0,0,0,0,0,0],"sum_hessian":[1.35E3,1.342E3,8E0,1.257E3,8.5E1,6E0,2E0,1.234E3,2.3E1,3.6E1,4.9E1,4E0,2E0],"tree_param":{"num_deleted":"0","num_feature":"60","num_nodes":"13","size_leaf_vector":"1"}},{"base_weights":[4.0965776E0,1.8916381E3,-5.787977E2,-1.7487699E3,7.863122E3,1.3045784E3,-3.4670688E3,-2.1039065E3,3.3484528E2,4.8829595E3,3.781427E2,3.511847E1,5.0820444E3,-5.8432993E3,-6.743646E0],"categories":[],"categories_nodes":[],"categories_segments":[],"categories_sizes":[],"default_left":[0,0,0,0,0,0,0,0,0,0,0,0,0,0,0],"id":73,"left_children":[1,3,5,7,9,11,13,-1,-1,-1,-1,-1,-1,-1,-1],"loss_changes":[1.4875154E9,6.948376E9,5.6237343E9,5.9920466E9,1.1915098E10,1.7032088E10,3.6068995E10,0E0,0E0,0E0,0E0,0E0,0E0,0E0,0E0],"parents":[2147483647,0,0,1,1,2,2,3,3,4,4,5,5,6,6],"right_children":[2,4,6,8,10,12,14,-1,-1,-1,-1,-1,-1,-1,-1],"split_conditions":[8.207892E4,7.88535E4,2.404E3,2.7E3,3.667E3,1.881E3,3.489E3,-2.1039065E3,3.3484528E2,4.8829595E3,3.781427E2,3.511847E1,5.0820444E3,-5.8432993E3,-6.743646E0],"split_indices":[2,2,1,1,1,1,1,0,0,0,0,0,0,0,0],"split_type":[0,0,0,0,0,0,0,0,0,0,0,0,0,0,0],"sum_hessian":[1.35E3,3.18E2,1.032E3,1.98E2,1.2E2,6.25E2,4.07E2,5.5E1,1.43E2,3.1E1,8.9E1,5.98E2,2.7E1,4.7E1,3.6E2],"tree_param":{"num_deleted":"0","num_feature":"60","num_nodes":"15","size_leaf_vector":"1"}},{"base_weights":[5.318197E0,-5.5483486E1,4.0988315E3,1.6614172E1,-1.9424238E4,-2.0096326E2,2.0669473E2,-1.0474667E3,-5.4272793E3],"categories":[],"categories_nodes":[],"categories_segments":[],"categories_sizes":[],"default_left":[0,0,0,0,0,0,0,0,0],"id":74,"left_children":[1,3,-1,5,7,-1,-1,-1,-1],"loss_changes":[1.6841532E9,1.8827261E9,0E0,1.3969856E9,4.0493594E8,0E0,0E0,0E0,0E0],"parents":[2147483647,0,0,1,1,3,3,4,4],"right_children":[2,4,-1,6,8,-1,-1,-1,-1],"split_conditions":[1.47015E5,2.6556E4,4.0988315E3,9.490932E4,1.5811686E5,-2.0096326E2,2.0669473E2,-1.0474667E3,-5.4272793E3],"split_indices":[0,1,0,2,2,0,0,0,0],"split_type":[0,0,0,0,0,0,0,0,0],"sum_hessian":[1.35E3,1.347E3,3E0,1.343E3,4E0,6.7E2,6.73E2,2E0,2E0],"tree_param":{"num_deleted":"0","num_feature":"60","num_nodes":"9","size_leaf_vector":"1"}},{"base_weights":[2.4996862E0,-1.451166E3,6.9441644E2,-5.8133633E3,1.9732955E3,1.7546432E4,2.489835E1,-7.2006E2,-1.4763658E4,1.724018E3,-8.140979E2,-2.4189968E3,5.07775E3,-7.6153955E3,4.837021E1],"categories":[],"categories_nodes":[],"categories_segments":[],"categories_sizes":[],"default_left":[0,0,0,0,0,0,0,0,0,0,0,0,0,0,0],"id":75,"left_children":[1,3,5,7,9,11,13,-1,-1,-1,-1,-1,-1,-1,-1],"loss_changes":[1.3598647E9,6.5245164E9,1.0334543E10,2.8630088E10,9.877178E9,8.443086E9,7.3000893E9,0E0,0E0,0E0,0E0,0E0,0E0,0E0,0E0],"parents":[2147483647,0,0,1,1,2,2,3,3,4,4,5,5,6,6],"right_children":[2,4,6,8,10,12,14,-1,-1,-1,-1,-1,-1,-1,-1],"split_conditions":[5.34E2,1.7224812E5,6.23E2,1.7185608E5,1.8236988E5,8.5749836E4,6.33E2,-7.2006E2,-1.4763658E4,1.724018E3,-8.140979E2,-2.4189968E3,5.07775E3,-7.6153955E3,4.837021E1],"split_indices":[1,2,1,2,2,2,1,0,0,0,0,0,0,0,0],"split_type":[0,0,0,0,0,0,0,0,0,0,0,0,0,0,0],"sum_hessian":[1.35E3,4.35E2,9.15E2,1.91E2,2.44E2,3.4E1,8.81E2,1.86E2,5E0,1.16E2,1.28E2,7E0,2.7E1,4E0,8.77E2],"tree_param":{"num_deleted":"0","num_feature":"60","num_nodes":"15","size_leaf_vector":"1"}},{"base_weights":[-1.24248705E1,1.5046901E3,-6.681139E2,1.3952211E2,1.7013734E4,-1.4212605E4,3.1658023E2,2.7234067E2,-3.0198154E3,5.3880703E3,-1.057725E3,-7.283031E3,-1.0814213E3,1.5931887E3,-5.4443775E1],"categories":[],"categories_nodes":[],"categories_segments":[],"categories_sizes":[],"default_left":[0,0,0,0,0,0,0,0,0,0,0,0,0,0,0],"id":76,"left_children":[1,3,5,7,9,11,13,-1,-1,-1,-1,-1,-1,-1,-1],"loss_changes":[1.3449202E9,8.635986E9,1.2594799E10,7.023309E9,7.4482483E9,1.2315386E10,3.970138E9,0E0,0E0,0E0,0E0,0E0,0E0,0E0,0E0],"parents":[2147483647,0,0,1,1,2,2,3,3,4,4,5,5,6,6],"right_children":[2,4,6,8,10,12,14,-1,-1,-1,-1,-1,-1,-1,-1],"split_conditions":[8.523306E4,8.42886E4,8.701506E4,8.325504E4,1.0589E4,3.115E3,8.867232E4,2.7234067E2,-3.0198154E3,5.3880703E3,-1.057725E3,-7.283031E3,-1.0814213E3,1.5931887E3,-5.4443775E1],"split_indices":[2,2,2,2,1,1,2,0,0,0,0,0,0,0,0],"split_type":[0,0,0,0,0,0,0,0,0,0,0,0,0,0,0],"sum_hessian":[1.35E3,4.07E2,9.43E2,3.75E2,3.2E1,6.3E1,8.8E2,3.48E2,2.7E1,2.2E1,1E1,1.7E1,4.6E1,6.2E1,8.18E2],"tree_param":{"num_deleted":"0","num_feature":"60","num_nodes":"15","size_leaf_vector":"1"}},{"base_weights":[-1.3821625E1,-9.543542E1,1.2166306E4,-3.2877136E1,-1.6829457E4,-1.2253708E3,1.8268188E4,5.531831E0,-3.2378982E3,-9.0698956E2,-4.7028296E3,1.9007676E3,5.3572085E3],"categories":[],"categories_nodes":[],"categories_segments":[],"categories_sizes":[],"default_left":[0,0,0,0,0,0,0,0,0,0,0,0,0],"id":77,"left_children":[1,3,5,7,9,-1,11,-1,-1,-1,-1,-1,-1],"loss_changes":[1.3441448E9,1.4053683E9,1.1165308E9,1.310072E9,3.0428954E8,0E0,2.680041E8,0E0,0E0,0E0,0E0,0E0,0E0],"parents":[2147483647,0,0,1,1,2,2,3,3,4,4,6,6],"right_children":[2,4,6,8,10,-1,12,-1,-1,-1,-1,-1,-1],"split_conditions":[1.9712484E5,2.6556E4,9.801E4,1.9364994E5,1.5811686E5,-1.2253708E3,1.434E3,5.531831E0,-3.2378982E3,-9.0698956E2,-4.7028296E3,1.9007676E3,5.3572085E3],"split_indices":[2,1,0,2,2,0,1,0,0,0,0,0,0],"split_type":[0,0,0,0,0,0,0,0,0,0,0,0,0],"sum_hessian":[1.35E3,1.342E3,8E0,1.338E3,4E0,2E0,6E0,1.334E3,4E0,2E0,2E0,4E0,2E0],"tree_param":{"num_deleted":"0","num_feature":"60","num_nodes":"13","size_leaf_vector":"1"}},{"base_weights":[-1.3143124E1,-1.148574E2,9.708774E3,-4.4980877E1,-6.2389834E3,9.162406E2,2.5352088E4,-1.9780644E2,1.8997899E2,1.5055366E3,-2.1765688E3,6.7702915E3,1.6804042E3],"categories":[],"categories_nodes":[],"categories_segments":[],"categories_sizes":[],"default_left":[0,0,0,0,0,0,0,0,0,0,0,0,0],"id":78,"left_children":[1,3,5,7,-1,9,11,-1,-1,-1,-1,-1,-1],"loss_changes":[1.3370621E9,2.9044204E9,1.9023924E9,1.2557292E9,0E0,8.620123E8,4.3590374E8,0E0,0E0,0E0,0E0,0E0,0E0],"parents":[2147483647,0,0,1,1,2,2,3,3,5,5,6,6],"right_children":[2,4,6,8,-1,10,12,-1,-1,-1,-1,-1,-1],"split_conditions":[2.1728E4,1.47015E5,1.637658E5,9.588942E4,-6.2389834E3,9.588942E4,1.8579133E5,-1.9780644E2,1.8997899E2,1.5055366E3,-2.1765688E3,6.7702915E3,1.6804042E3],"split_indices":[1,0,2,2,0,2,2,0,0,0,0,0,0],"split_type":[0,0,0,0,0,0,0,0,0,0,0,0,0],"sum_hessian":[1.35E3,1.337E3,1.3E1,1.335E3,2E0,9E0,4E0,6.85E2,6.5E2,6E0,3E0,2E0,2E0],"tree_param":{"num_deleted":"0","num_feature":"60","num_nodes":"13","size_leaf_vector":"1"}},{"base_weights":[-9.372318E0,-1.4447803E2,7.4668677E3,1.4801968E2,-5.923621E3,4.0328616E3,6.032125E3,1.1427618E1,7.6719663E3,-1.6884801E3,3.96633E3,2.010762E3,-5.114972E3],"categories":[],"categories_nodes":[],"categories_segments":[],"categories_sizes":[],"default_left":[0,0,0,0,0,0,0,0,0,0,0,0,0],"id":79,"left_children":[1,3,5,7,9,11,-1,-1,-1,-1,-1,-1,-1],"loss_changes":[1.3657007E9,2.2457096E9,1.7486985E9,4.3908383E9,4.319226E9,4.1789888E9,0E0,0E0,0E0,0E0,0E0,0E0,0E0],"parents":[2147483647,0,0,1,1,2,2,3,3,4,4,5,5],"right_children":[2,4,6,8,10,12,-1,-1,-1,-1,-1,-1,-1],"split_conditions":[1.9236689E5,1.8668233E5,3.489E3,3.564E3,2.183E3,3.564E3,6.032125E3,1.1427618E1,7.6719663E3,-1.6884801E3,3.96633E3,2.010762E3,-5.114972E3],"split_indices":[2,2,1,58,1,58,0,0,0,0,0,0,0],"split_type":[0,0,0,0,0,0,0,0,0,0,0,0,0],"sum_hessian":[1.35E3,1.327E3,2.3E1,1.264E3,6.3E1,2.1E1,2E0,1.262E3,2E0,5.8E1,5E0,1.8E1,3E0],"tree_param":{"num_deleted":"0","num_feature":"60","num_nodes":"13","size_leaf_vector":"1"}},{"base_weights":[2.0334146E0,-5.143285E1,3.6039314E3,3.1762486E1,-1.866475E4,-9.3638275E1,4.9575317E2,6.6490337E3,-1.05862E4],"categories":[],"categories_nodes":[],"categories_segments":[],"categories_sizes":[],"default_left":[0,0,0,0,0,0,0,0,0],"id":80,"left_children":[1,3,-1,5,7,-1,-1,-1,-1],"loss_changes":[1.3023923E9,2.0880264E9,0E0,1.6441718E9,1.2432249E10,0E0,0E0,0E0,0E0],"parents":[2147483647,0,0,1,1,3,3,4,4],"right_children":[2,4,-1,6,8,-1,-1,-1,-1],"split_conditions":[1.47015E5,3.564E3,3.6039314E3,1.7515278E5,1.7515278E5,-9.3638275E1,4.9575317E2,6.6490337E3,-1.05862E4],"split_indices":[0,58,0,2,2,0,0,0,0],"split_type":[0,0,0,0,0,0,0,0,0],"sum_hessian":[1.35E3,1.347E3,3E0,1.342E3,5E0,1.115E3,2.27E2,2E0,3E0],"tree_param":{"num_deleted":"0","num_feature":"60","num_nodes":"9","size_leaf_vector":"1"}},{"base_weights":[1.6675993E0,1.4765264E3,-6.8617505E2,-1.3536545E4,2.555886E3,-1.792026E4,1.3620604E2,-3.6798178E2,-8.802046E3,2.223865E2,2.6363755E3,6.7584976E3,-4.270142E3,-1.6041515E2,7.438781E2],"categories":[],"categories_nodes":[],"categories_segments":[],"categories_sizes":[],"default_left":[0,0,0,0,0,0,0,0,0,0,0,0,0,0,0],"id":81,"left_children":[1,3,5,7,9,11,13,-1,-1,-1,-1,-1,-1,-1,-1],"loss_changes":[1.3715631E9,7.002534E9,1.3069933E10,1.0255773E10,6.1534044E9,8.17221E9,2.9649375E9,0E0,0E0,0E0,0E0,0E0,0E0,0E0,0E0],"parents":[2147483647,0,0,1,1,2,2,3,3,4,4,5,5,6,6],"right_children":[2,4,6,8,10,12,14,-1,-1,-1,-1,-1,-1,-1,-1],"split_conditions":[8.5749836E4,1.306E3,8.701506E4,9.4E2,8.42886E4,5.78E2,7.235E3,-3.6798178E2,-8.802046E3,2.223865E2,2.6363755E3,6.7584976E3,-4.270142E3,-1.6041515E2,7.438781E2],"split_indices":[2,1,2,1,2,1,1,0,0,0,0,0,0,0,0],"split_type":[0,0,0,0,0,0,0,0,0,0,0,0,0,0,0],"sum_hessian":[1.35E3,4.29E2,9.21E2,2.8E1,4.01E2,4.1E1,8.8E2,2.1E1,7E0,3.54E2,4.7E1,2E0,3.9E1,6.98E2,1.82E2],"tree_param":{"num_deleted":"0","num_feature":"60","num_nodes":"15","size_leaf_vector":"1"}},{"base_weights":[-1.0647968E0,-7.770415E1,1.1435348E4,-9.966283E0,-1.8202363E4,-1.4001293E3,3.540573E3,5.030126E1,-7.939477E2,5.663317E3,-1.1730771E4],"categories":[],"categories_nodes":[],"categories_segments":[],"categories_sizes":[],"default_left":[0,0,0,0,0,0,0,0,0,0,0],"id":82,"left_children":[1,3,5,7,9,-1,-1,-1,-1,-1,-1],"loss_changes":[1.1850118E9,1.6486541E9,1.163863E9,1.3873614E9,1.106968E10,0E0,0E0,0E0,0E0,0E0,0E0],"parents":[2147483647,0,0,1,1,2,2,3,3,4,4],"right_children":[2,4,6,8,10,-1,-1,-1,-1,-1,-1],"split_conditions":[1.9712484E5,3.564E3,9.801E4,1.5094E4,1.7515278E5,-1.4001293E3,3.540573E3,5.030126E1,-7.939477E2,5.663317E3,-1.1730771E4],"split_indices":[2,58,0,1,2,0,0,0,0,0,0],"split_type":[0,0,0,0,0,0,0,0,0,0,0],"sum_hessian":[1.35E3,1.342E3,8E0,1.338E3,4E0,2E0,6E0,1.256E3,8.2E1,2E0,2E0],"tree_param":{"num_deleted":"0","num_feature":"60","num_nodes":"11","size_leaf_vector":"1"}},{"base_weights":[-4.3198667E0,1.6348003E3,-5.104912E2,1.6186888E2,1.397667E4,1.0747251E3,-2.941459E3,9.273387E2,-1.306464E3,-9.174231E3,4.249622E3,-2.5572428E1,3.3208606E3,-4.712054E3,-3.835033E1],"categories":[],"categories_nodes":[],"categories_segments":[],"categories_sizes":[],"default_left":[0,0,0,0,0,0,0,0,0,0,0,0,0,0,0],"id":83,"left_children":[1,3,5,7,9,11,13,-1,-1,-1,-1,-1,-1,-1,-1],"loss_changes":[1.1217263E9,5.7967514E9,3.9839404E9,8.59751E9,1.5770791E10,1.1693094E10,2.3127327E10,0E0,0E0,0E0,0E0,0E0,0E0,0E0,0E0],"parents":[2147483647,0,0,1,1,2,2,3,3,4,4,5,5,6,6],"right_children":[2,4,6,8,10,12,14,-1,-1,-1,-1,-1,-1,-1,-1],"split_conditions":[8.207892E4,8.157996E4,2.404E3,7.175E3,1.393E3,1.491E3,3.489E3,9.273387E2,-1.306464E3,-9.174231E3,4.249622E3,-2.5572428E1,3.3208606E3,-4.712054E3,-3.835033E1],"split_indices":[2,2,1,1,1,1,1,0,0,0,0,0,0,0,0],"split_type":[0,0,0,0,0,0,0,0,0,0,0,0,0,0,0],"sum_hessian":[1.35E3,3.18E2,1.032E3,2.85E2,3.3E1,6.25E2,4.07E2,1.71E2,1.14E2,3E0,3E1,5.81E2,4.4E1,4.7E1,3.6E2],"tree_param":{"num_deleted":"0","num_feature":"60","num_nodes":"15","size_leaf_vector":"1"}},{"base_weights":[-8.459491E0,-4.750396E3,1.5856772E2,7.9989414E3,-8.0677734E3,1.7333344E4,-6.788946E1,-1.5126597E3,6.646625E3,6.242658E2,-3.0028484E3,-1.4174197E2,5.447779E3,-1.1784618E3,2.6569208E1],"categories":[],"categories_nodes":[],"categories_segments":[],"categories_sizes":[],"default_left":[0,0,0,0,0,0,0,0,0,0,0,0,0,0,0],"id":84,"left_children":[1,3,5,7,9,11,13,-1,-1,-1,-1,-1,-1,-1,-1],"loss_changes":[1.07078906E9,2.0100744E9,5.080669E9,4.1783562E9,2.9226803E9,3.0574838E9,1.5090092E9,0E0,0E0,0E0,0E0,0E0,0E0,0E0,0E0],"parents":[2147483647,0,0,1,1,2,2,3,3,4,4,5,5,6,6],"right_children":[2,4,6,8,10,12,14,-1,-1,-1,-1,-1,-1,-1,-1],"split_conditions":[5.998212E4,1.99E3,6.399162E4,5.499252E4,5.272938E4,6.1871043E4,7.033554E4,-1.5126597E3,6.646625E3,6.242658E2,-3.0028484E3,-1.4174197E2,5.447779E3,-1.1784618E3,2.6569208E1],"split_indices":[2,1,2,2,2,2,2,0,0,0,0,0,0,0,0],"split_type":[0,0,0,0,0,0,0,0,0,0,0,0,0,0,0],"sum_hessian":[1.35E3,4.5E1,1.305E3,9E0,3.6E1,1.6E1,1.289E3,6E0,3E0,1.4E1,2.2E1,6E0,1E1,4.2E1,1.247E3],"tree_param":{"num_deleted":"0","num_feature":"60","num_nodes":"15","size_leaf_vector":"1"}},{"base_weights":[-1.6478426E0,6.1984143E2,-1.3162228E3,-5.208383E2,7.4160166E3,-3.6599258E4,-3.12174E2,-1.6999471E3,1.305891E2,-4.4081354E2,2.8208665E3,-1.1430409E3,-2.546927E4,-1.534088E2,7.573673E3],"categories":[],"categories_nodes":[],"categories_segments":[],"categories_sizes":[],"default_left":[0,0,0,0,0,0,0,0,0,0,0,0,0,0,0],"id":85,"left_children":[1,3,5,7,9,11,13,-1,-1,-1,-1,-1,-1,-1,-1],"loss_changes":[1.1045751E9,7.1204367E9,1.5363409E10,7.376198E9,8.524251E9,3.290384E10,7.375363E9,0E0,0E0,0E0,0E0,0E0,0E0,0E0,0E0],"parents":[2147483647,0,0,1,1,2,2,3,3,4,4,5,5,6,6],"right_children":[2,4,6,8,10,12,14,-1,-1,-1,-1,-1,-1,-1,-1],"split_conditions":[1.6597548E5,1.0934352E5,1.6633188E5,1.249E3,5E0,1.782E3,1.3072E4,-1.6999471E3,1.305891E2,-4.4081354E2,2.8208665E3,-1.1430409E3,-2.546927E4,-1.534088E2,7.573673E3],"split_indices":[2,2,2,1,1,58,1,0,0,0,0,0,0,0,0],"split_type":[0,0,0,0,0,0,0,0,0,0,0,0,0,0,0],"sum_hessian":[1.35E3,9.17E2,4.33E2,7.86E2,1.31E2,1.1E1,4.22E2,1E2,6.86E2,5.4E1,7.7E1,9E0,2E0,4.18E2,4E0],"tree_param":{"num_deleted":"0","num_feature":"60","num_nodes":"15","size_leaf_vector":"1"}},{"base_weights":[-1.4921402E1,-1.6105077E2,4.90515E3,3.6665947E1,-1.5236199E4,2.880952E3,5.647042E3,1.9938147E1,-3.2537751E3,-4.397976E3,2.4421453E3,1.330299E3,-5.97778E3],"categories":[],"categories_nodes":[],"categories_segments":[],"categories_sizes":[],"default_left":[0,0,0,0,0,0,0,0,0,0,0,0,0],"id":86,"left_children":[1,3,5,7,9,11,-1,-1,-1,-1,-1,-1,-1],"loss_changes":[9.721142E8,3.9140982E9,1.7604173E9,1.334488E9,3.4197635E9,4.7705303E9,0E0,0E0,0E0,0E0,0E0,0E0,0E0],"parents":[2147483647,0,0,1,1,2,2,3,3,4,4,5,5],"right_children":[2,4,6,8,10,12,-1,-1,-1,-1,-1,-1,-1],"split_conditions":[1.9047798E5,1.8923058E5,3.489E3,2.6556E4,1.782E3,4.25E2,5.647042E3,1.9938147E1,-3.2537751E3,-4.397976E3,2.4421453E3,1.330299E3,-5.97778E3],"split_indices":[2,2,1,1,58,1,0,0,0,0,0,0,0],"split_type":[0,0,0,0,0,0,0,0,0,0,0,0,0],"sum_hessian":[1.35E3,1.312E3,3.8E1,1.296E3,1.6E1,3.6E1,2E0,1.292E3,4E0,1.3E1,3E0,3.3E1,3E0],"tree_param":{"num_deleted":"0","num_feature":"60","num_nodes":"13","size_leaf_vector":"1"}},{"base_weights":[-1.5038863E1,7.5953705E2,-8.792917E2,4.8518808E2,7.9020625E3,-4.0849176E4,-4.9167664E1,6.961132E2,-3.365099E2,-1.6241241E4,7.992661E3,-1.0616896E2,4.215865E3],"categories":[],"categories_nodes":[],"categories_segments":[],"categories_sizes":[],"default_left":[0,0,0,0,0,0,0,0,0,0,0,0,0],"id":87,"left_children":[1,3,5,7,-1,9,11,-1,-1,-1,-1,-1,-1],"loss_changes":[9.05067E8,7.5609006E9,2.1199987E10,4.609531E9,0E0,4.5642834E10,6.3922386E9,0E0,0E0,0E0,0E0,0E0,0E0],"parents":[2147483647,0,0,1,1,2,2,3,3,5,5,6,6],"right_children":[2,4,6,8,-1,10,12,-1,-1,-1,-1,-1,-1],"split_conditions":[2.598E3,2.57E3,2.7E3,1.6597548E5,7.9020625E3,9.129186E4,1.7470728E5,6.961132E2,-3.365099E2,-1.6241241E4,7.992661E3,-1.0616896E2,4.215865E3],"split_indices":[1,1,1,2,0,2,2,0,0,0,0,0,0],"split_type":[0,0,0,0,0,0,0,0,0,0,0,0,0],"sum_hessian":[1.35E3,7.12E2,6.38E2,7.08E2,4E0,1.2E1,6.26E2,2.97E2,4.11E2,8E0,4E0,6.13E2,1.3E1],"tree_param":{"num_deleted":"0","num_feature":"60","num_nodes":"13","size_leaf_vector":"1"}},{"base_weights":[-8.9846E0,-3.7409293E2,1.7354602E3,5.4380775E1,-2.1722346E4,1.5720955E4,-9.7105884E2,-5.6178722E1,9.145744E3,4.4883765E3,-5.9753594E3,1.5933475E3,4.9662124E3,-6.013801E2,3.6519646E3],"categories":[],"categories_nodes":[],"categories_segments":[],"categories_sizes":[],"default_left":[0,0,0,0,0,0,0,0,0,0,0,0,0,0,0],"id":88,"left_children":[1,3,5,7,9,11,13,-1,-1,-1,-1,-1,-1,-1,-1],"loss_changes":[8.611164E8,1.0227711E10,8.872635E9,1.6811686E10,8.593462E9,2.4865649E9,7.7676585E9,0E0,0E0,0E0,0E0,0E0,0E0,0E0,0E0],"parents":[2147483647,0,0,1,1,2,2,3,3,4,4,5,5,6,6],"right_children":[2,4,6,8,10,12,14,-1,-1,-1,-1,-1,-1,-1,-1],"split_conditions":[1.7515278E5,1.7386973E5,1.7887716E5,1.7370936E5,1.782E3,1.7812872E5,2.201E3,-5.6178722E1,9.145744E3,4.4883765E3,-5.9753594E3,1.5933475E3,4.9662124E3,-6.013801E2,3.6519646E3],"split_indices":[2,2,2,2,59,2,1,0,0,0,0,0,0,0,0],"split_type":[0,0,0,0,0,0,0,0,0,0,0,0,0,0,0],"sum_hessian":[1.35E3,1.117E3,2.33E2,1.096E3,2.1E1,3.7E1,1.96E2,1.089E3,7E0,3E0,1.8E1,2.1E1,1.6E1,1.78E2,1.8E1],"tree_param":{"num_deleted":"0","num_feature":"60","num_nodes":"15","size_leaf_vector":"1"}},{"base_weights":[5.558669E0,2.8173306E2,-2.681706E3,7.4251304E3,-2.1008762E2,-1.5492977E4,-1.0707372E3,6.2926533E3,7.7700757E2,3.340396E2,-3.1958765E2,-3.5214676E2,-6.7018354E3,4.3857695E3,-5.130752E2],"categories":[],"categories_nodes":[],"categories_segments":[],"categories_sizes":[],"default_left":[0,0,0,0,0,0,0,0,0,0,0,0,0,0,0],"id":89,"left_children":[1,3,5,7,9,11,13,-1,-1,-1,-1,-1,-1,-1,-1],"loss_changes":[1.0034052E9,4.3088297E9,2.5838694E9,6.600444E9,2.9984387E9,3.4046385E9,3.9407521E9,0E0,0E0,0E0,0E0,0E0,0E0,0E0,0E0],"parents":[2147483647,0,0,1,1,2,2,3,3,4,4,5,5,6,6],"right_children":[2,4,6,8,10,12,14,-1,-1,-1,-1,-1,-1,-1,-1],"split_conditions":[1.782E3,1.782E3,7.532514E4,7.128E4,1.169E3,7.20819E4,7.910298E4,6.2926533E3,7.7700757E2,3.340396E2,-3.1958765E2,-3.5214676E2,-6.7018354E3,4.3857695E3,-5.130752E2],"split_indices":[58,59,2,2,1,2,2,0,0,0,0,0,0,0,0],"split_type":[0,0,0,0,0,0,0,0,0,0,0,0,0,0,0],"sum_hessian":[1.35E3,1.225E3,1.25E2,7.8E1,1.147E3,1.3E1,1.12E2,9E0,6.9E1,4.87E2,6.6E2,8E0,5E0,6E0,1.06E2],"tree_param":{"num_deleted":"0","num_feature":"60","num_nodes":"15","size_leaf_vector":"1"}},{"base_weights":[7.3362904E0,5.4179974E2,-1.4936986E3,1.4289337E2,1.821411E4,-1.1278141E4,6.1522125E2,8.66068E1,-5.0699434E3,1.335565E3,1.1220383E4,-8.461528E2,-1.3410552E4,4.959056E2,-2.6396453E3],"categories":[],"categories_nodes":[],"categories_segments":[],"categories_sizes":[],"default_left":[0,0,0,0,0,0,0,0,0,0,0,0,0,0,0],"id":90,"left_children":[1,3,5,7,9,11,13,-1,-1,-1,-1,-1,-1,-1,-1],"loss_changes":[1.0846468E9,7.025846E9,7.332223E9,7.2299034E9,9.24122E9,2.4479396E10,7.57821E9,0E0,0E0,0E0,0E0,0E0,0E0,0E0,0E0],"parents":[2147483647,0,0,1,1,2,2,3,3,4,4,5,5,6,6],"right_children":[2,4,6,8,10,12,14,-1,-1,-1,-1,-1,-1,-1,-1],"split_conditions":[1.6932564E5,1.6809606E5,1.7224812E5,1.6741889E5,1.782E3,1.7185608E5,7.69E2,8.66068E1,-5.0699434E3,1.335565E3,1.1220383E4,-8.461528E2,-1.3410552E4,4.959056E2,-2.6396453E3],"split_indices":[2,2,2,2,58,2,1,0,0,0,0,0,0,0,0],"split_type":[0,0,0,0,0,0,0,0,0,0,0,0,0,0,0],"sum_hessian":[1.35E3,9.96E2,3.54E2,9.75E2,2.1E1,6.2E1,2.92E2,9.65E2,1E1,1.7E1,4E0,5.6E1,6E0,2.58E2,3.4E1],"tree_param":{"num_deleted":"0","num_feature":"60","num_nodes":"15","size_leaf_vector":"1"}},{"base_weights":[-6.628669E-1,-1.2856272E3,5.488738E2,-2.3343754E4,4.2369003E1,5.2764746E3,-4.045323E2,-1.1071149E3,-7.323308E3,4.9592466E3,-1.7887566E2,-9.5849994E2,3.2123037E3,-6.2832065E3,2.2968452E1],"categories":[],"categories_nodes":[],"categories_segments":[],"categories_sizes":[],"default_left":[0,0,0,0,0,0,0,0,0,0,0,0,0,0,0],"id":91,"left_children":[1,3,5,7,9,11,13,-1,-1,-1,-1,-1,-1,-1,-1],"loss_changes":[9.5469395E8,1.1864698E10,4.27057E9,5.2336804E9,8.903225E9,1.7343474E10,1.2711702E10,0E0,0E0,0E0,0E0,0E0,0E0,0E0,0E0],"parents":[2147483647,0,0,1,1,2,2,3,3,4,4,5,5,6,6],"right_children":[2,4,6,8,10,12,14,-1,-1,-1,-1,-1,-1,-1,-1],"split_conditions":[2.15E2,1.6280352E5,1.169E3,1.782E3,1.6471027E5,1.0633194E5,1.249E3,-1.1071149E3,-7.323308E3,4.9592466E3,-1.7887566E2,-9.5849994E2,3.2123037E3,-6.2832065E3,2.2968452E1],"split_indices":[1,2,1,59,2,2,1,0,0,0,0,0,0,0,0],"split_type":[0,0,0,0,0,0,0,0,0,0,0,0,0,0,0],"sum_hessian":[1.35E3,4.04E2,9.46E2,2.2E1,3.82E2,1.58E2,7.88E2,1E1,1.2E1,1.3E1,3.69E2,8.2E1,7.6E1,1.2E1,7.76E2],"tree_param":{"num_deleted":"0","num_feature":"60","num_nodes":"15","size_leaf_vector":"1"}},{"base_weights":[-6.1916695E0,5.183121E2,-1.4514736E3,1.8064885E2,1.9873664E4,-2.5718735E3,1.4341286E4,8.3410736E1,-4.1192837E3,1.6048661E3,1.1275583E4,-1.2135364E2,-8.943137E3,7.927599E3,1.1196096E3],"categories":[],"categories_nodes":[],"categories_segments":[],"categories_sizes":[],"default_left":[0,0,0,0,0,0,0,0,0,0,0,0,0,0,0],"id":92,"left_children":[1,3,5,7,9,11,13,-1,-1,-1,-1,-1,-1,-1,-1],"loss_changes":[1.0248856E9,6.479716E9,6.406798E9,4.8025057E9,6.9009715E9,2.7882203E10,5.0863084E9,0E0,0E0,0E0,0E0,0E0,0E0,0E0,0E0],"parents":[2147483647,0,